<?xml version="1.0"?>
<MethodSetup Method="MLP::MLP">
  <GeneralInfo>
    <Info name="TMVA Release" value="4.2.0 [262656]"/>
    <Info name="ROOT Release" value="6.02/13 [393741]"/>
    <Info name="Creator" value="leure"/>
    <Info name="Date" value="Tue Jun  6 18:43:09 2017"/>
    <Info name="Host" value="Linux vocms029.cern.ch 2.6.32-504.12.2.el6.x86_64 #1 SMP Thu Mar 12 07:33:00 CET 2015 x86_64 x86_64 x86_64 GNU/Linux"/>
    <Info name="Dir" value="/data/leure/TMVA_Luke/myTMVA"/>
    <Info name="Training events" value="1194"/>
    <Info name="TrainingTime" value="7.64154196e+00"/>
    <Info name="AnalysisType" value="Classification"/>
  </GeneralInfo>
  <Options>
    <Option name="NCycles" modified="Yes">600</Option>
    <Option name="HiddenLayers" modified="Yes">N+5</Option>
    <Option name="NeuronType" modified="Yes">tanh</Option>
    <Option name="RandomSeed" modified="No">1</Option>
    <Option name="EstimatorType" modified="No">MSE</Option>
    <Option name="NeuronInputType" modified="No">sum</Option>
    <Option name="V" modified="Yes">False</Option>
    <Option name="VerbosityLevel" modified="No">Default</Option>
    <Option name="VarTransform" modified="Yes">N</Option>
    <Option name="H" modified="Yes">True</Option>
    <Option name="CreateMVAPdfs" modified="No">False</Option>
    <Option name="IgnoreNegWeightsInTraining" modified="No">False</Option>
    <Option name="TrainingMethod" modified="No">BP</Option>
    <Option name="LearningRate" modified="No">2.000000e-02</Option>
    <Option name="DecayRate" modified="No">1.000000e-02</Option>
    <Option name="TestRate" modified="Yes">5</Option>
    <Option name="EpochMonitoring" modified="No">False</Option>
    <Option name="Sampling" modified="No">1.000000e+00</Option>
    <Option name="SamplingEpoch" modified="No">1.000000e+00</Option>
    <Option name="SamplingImportance" modified="No">1.000000e+00</Option>
    <Option name="SamplingTraining" modified="No">True</Option>
    <Option name="SamplingTesting" modified="No">False</Option>
    <Option name="ResetStep" modified="No">50</Option>
    <Option name="Tau" modified="No">3.000000e+00</Option>
    <Option name="BPMode" modified="No">sequential</Option>
    <Option name="BatchSize" modified="No">-1</Option>
    <Option name="ConvergenceImprove" modified="No">1.000000e-30</Option>
    <Option name="ConvergenceTests" modified="No">-1</Option>
    <Option name="UseRegulator" modified="Yes">False</Option>
    <Option name="UpdateLimit" modified="No">10000</Option>
    <Option name="CalculateErrors" modified="No">False</Option>
    <Option name="WeightRange" modified="No">1.000000e+00</Option>
  </Options>
  <Variables NVar="10">
    <Variable VarIndex="0" Expression="Dtrk1Pt" Label="Dtrk1Pt" Title="Dtrk1Pt" Unit="" Internal="Dtrk1Pt" Type="F" Min="5.11286378e-01" Max="1.69143887e+01"/>
    <Variable VarIndex="1" Expression="DRestrk1Pt" Label="DRestrk1Pt" Title="DRestrk1Pt" Unit="" Internal="DRestrk1Pt" Type="F" Min="6.11003220e-01" Max="2.28015194e+01"/>
    <Variable VarIndex="2" Expression="DRestrk2Pt" Label="DRestrk2Pt" Title="DRestrk2Pt" Unit="" Internal="DRestrk2Pt" Type="F" Min="5.00483811e-01" Max="2.16606121e+01"/>
    <Variable VarIndex="3" Expression="DtktkRespt" Label="DtktkRespt" Title="DtktkRespt" Unit="" Internal="DtktkRespt" Type="F" Min="8.03139591e+00" Max="2.46242905e+01"/>
    <Variable VarIndex="4" Expression="Dchi2cl" Label="Dchi2cl" Title="Dchi2cl" Unit="" Internal="Dchi2cl" Type="F" Min="5.03599234e-02" Max="9.99834001e-01"/>
    <Variable VarIndex="5" Expression="DtktkRes_chi2cl" Label="DtktkRes_chi2cl" Title="DtktkRes_chi2cl" Unit="" Internal="DtktkRes_chi2cl" Type="F" Min="5.03450036e-02" Max="9.99168813e-01"/>
    <Variable VarIndex="6" Expression="Dalpha" Label="Dalpha" Title="Dalpha" Unit="" Internal="Dalpha" Type="F" Min="3.63119849e-04" Max="1.99750349e-01"/>
    <Variable VarIndex="7" Expression="DtktkRes_alpha" Label="DtktkRes_alpha" Title="DtktkRes_alpha" Unit="" Internal="DtktkRes_alpha" Type="F" Min="1.85141966e-04" Max="1.99973419e-01"/>
    <Variable VarIndex="8" Expression="DsvpvDistance/DsvpvDisErr" Label="DsvpvDistance/DsvpvDisErr" Title="DsvpvDistance/DsvpvDisErr" Unit="" Internal="DsvpvDistance_D_DsvpvDisErr" Type="F" Min="2.01438427e+00" Max="2.13396094e+03"/>
    <Variable VarIndex="9" Expression="DtktkRes_svpvDistance/DtktkRes_svpvDisErr" Label="DtktkRes_svpvDistance/DtktkRes_svpvDisErr" Title="DtktkRes_svpvDistance/DtktkRes_svpvDisErr" Unit="" Internal="DtktkRes_svpvDistance_D_DtktkRes_svpvDisErr" Type="F" Min="2.01058912e+00" Max="1.54844345e+02"/>
  </Variables>
  <Spectators NSpec="0"/>
  <Classes NClass="2">
    <Class Name="Signal" Index="0"/>
    <Class Name="Background" Index="1"/>
  </Classes>
  <Transformations NTransformations="1">
    <Transform Name="Normalize">
      <Selection>
        <Input NInputs="10">
          <Input Type="Variable" Label="Dtrk1Pt" Expression="Dtrk1Pt"/>
          <Input Type="Variable" Label="DRestrk1Pt" Expression="DRestrk1Pt"/>
          <Input Type="Variable" Label="DRestrk2Pt" Expression="DRestrk2Pt"/>
          <Input Type="Variable" Label="DtktkRespt" Expression="DtktkRespt"/>
          <Input Type="Variable" Label="Dchi2cl" Expression="Dchi2cl"/>
          <Input Type="Variable" Label="DtktkRes_chi2cl" Expression="DtktkRes_chi2cl"/>
          <Input Type="Variable" Label="Dalpha" Expression="Dalpha"/>
          <Input Type="Variable" Label="DtktkRes_alpha" Expression="DtktkRes_alpha"/>
          <Input Type="Variable" Label="DsvpvDistance/DsvpvDisErr" Expression="DsvpvDistance/DsvpvDisErr"/>
          <Input Type="Variable" Label="DtktkRes_svpvDistance/DtktkRes_svpvDisErr" Expression="DtktkRes_svpvDistance/DtktkRes_svpvDisErr"/>
        </Input>
        <Output NOutputs="10">
          <Output Type="Variable" Label="Dtrk1Pt" Expression="Dtrk1Pt"/>
          <Output Type="Variable" Label="DRestrk1Pt" Expression="DRestrk1Pt"/>
          <Output Type="Variable" Label="DRestrk2Pt" Expression="DRestrk2Pt"/>
          <Output Type="Variable" Label="DtktkRespt" Expression="DtktkRespt"/>
          <Output Type="Variable" Label="Dchi2cl" Expression="Dchi2cl"/>
          <Output Type="Variable" Label="DtktkRes_chi2cl" Expression="DtktkRes_chi2cl"/>
          <Output Type="Variable" Label="Dalpha" Expression="Dalpha"/>
          <Output Type="Variable" Label="DtktkRes_alpha" Expression="DtktkRes_alpha"/>
          <Output Type="Variable" Label="DsvpvDistance/DsvpvDisErr" Expression="DsvpvDistance/DsvpvDisErr"/>
          <Output Type="Variable" Label="DtktkRes_svpvDistance/DtktkRes_svpvDisErr" Expression="DtktkRes_svpvDistance/DtktkRes_svpvDisErr"/>
        </Output>
      </Selection>
      <Class ClassIndex="0">
        <Ranges>
          <Range Index="0" Min="5.1128637790679932e-01" Max="1.6914388656616211e+01"/>
          <Range Index="1" Min="6.1100322008132935e-01" Max="2.2801519393920898e+01"/>
          <Range Index="2" Min="5.0048381090164185e-01" Max="2.0357292175292969e+01"/>
          <Range Index="3" Min="8.0313959121704102e+00" Max="2.4436754226684570e+01"/>
          <Range Index="4" Min="5.0359923392534256e-02" Max="9.9983400106430054e-01"/>
          <Range Index="5" Min="5.0345003604888916e-02" Max="9.9916881322860718e-01"/>
          <Range Index="6" Min="3.6311984877102077e-04" Max="1.9975034892559052e-01"/>
          <Range Index="7" Min="1.7295822035521269e-03" Max="1.9997341930866241e-01"/>
          <Range Index="8" Min="2.0655295848846436e+00" Max="2.1244377136230469e+02"/>
          <Range Index="9" Min="2.1277129650115967e+00" Max="1.1376229095458984e+02"/>
        </Ranges>
      </Class>
      <Class ClassIndex="1">
        <Ranges>
          <Range Index="0" Min="5.1179212331771851e-01" Max="1.5188194274902344e+01"/>
          <Range Index="1" Min="6.2634122371673584e-01" Max="2.1826080322265625e+01"/>
          <Range Index="2" Min="6.5188270807266235e-01" Max="2.1660612106323242e+01"/>
          <Range Index="3" Min="9.1947317123413086e+00" Max="2.4624290466308594e+01"/>
          <Range Index="4" Min="5.0658013671636581e-02" Max="9.8450374603271484e-01"/>
          <Range Index="5" Min="5.5405173450708389e-02" Max="9.7997540235519409e-01"/>
          <Range Index="6" Min="1.4037181390449405e-03" Max="1.9145695865154266e-01"/>
          <Range Index="7" Min="1.8514196563046426e-04" Max="1.8689918518066406e-01"/>
          <Range Index="8" Min="2.0143842697143555e+00" Max="2.1339609375000000e+03"/>
          <Range Index="9" Min="2.0105891227722168e+00" Max="1.5484434509277344e+02"/>
        </Ranges>
      </Class>
      <Class ClassIndex="2">
        <Ranges>
          <Range Index="0" Min="5.1128637790679932e-01" Max="1.6914388656616211e+01"/>
          <Range Index="1" Min="6.1100322008132935e-01" Max="2.2801519393920898e+01"/>
          <Range Index="2" Min="5.0048381090164185e-01" Max="2.1660612106323242e+01"/>
          <Range Index="3" Min="8.0313959121704102e+00" Max="2.4624290466308594e+01"/>
          <Range Index="4" Min="5.0359923392534256e-02" Max="9.9983400106430054e-01"/>
          <Range Index="5" Min="5.0345003604888916e-02" Max="9.9916881322860718e-01"/>
          <Range Index="6" Min="3.6311984877102077e-04" Max="1.9975034892559052e-01"/>
          <Range Index="7" Min="1.8514196563046426e-04" Max="1.9997341930866241e-01"/>
          <Range Index="8" Min="2.0143842697143555e+00" Max="2.1339609375000000e+03"/>
          <Range Index="9" Min="2.0105891227722168e+00" Max="1.5484434509277344e+02"/>
        </Ranges>
      </Class>
    </Transform>
  </Transformations>
  <MVAPdfs/>
  <Weights>
    <Layout NLayers="3">
      <Layer Index="0" NNeurons="11">
        <Neuron NSynapses="15">
          -6.6308789957033520e-01 1.7710412079741198e+00 9.0298562111727931e-01 1.8287362081198706e+00 -1.7852007860078436e+00 -1.3961511676200375e+00 -8.0336476482896613e-01 2.2459639954215125e+00 -1.3152891507881130e+00 -9.1655275242715117e-01 -1.5354598070552556e+00 2.2490025061343633e+00 -9.4081398866434984e-01 -3.2045046594461918e-01 -4.6888372852132337e-01 
        </Neuron>
        <Neuron NSynapses="15">
          5.0420502708183801e-01 -5.2443458741286275e-01 1.5075973563464287e+00 2.0580864718412706e-01 1.2506830092247525e+00 -4.4180588576858783e-02 -9.9670625755125575e-01 8.5054126886308745e-01 -3.2397604355912241e-01 -1.0979241283835219e+00 -2.0903408830262601e-01 7.8670693454341900e-01 -8.7518589944452607e-01 -1.7288163913660297e+00 8.4288607841456287e-04 
        </Neuron>
        <Neuron NSynapses="15">
          7.2240499013344506e-01 1.7222372557456007e+00 -4.5929406538488682e-01 6.6184907863389347e-02 2.2152601855648898e-01 3.7316838032173741e-02 -1.3724175268389538e+00 1.4005550986111457e+00 -1.0045615823877270e+00 1.0770251605250425e+00 6.7695286537844412e-01 7.4981704388253023e-01 1.9107773505211432e+00 1.3190135037494775e+00 -1.2347982811493718e+00 
        </Neuron>
        <Neuron NSynapses="15">
          -1.4870946693521585e+00 8.7519276506435650e-01 -1.0544743541892575e-01 1.5261391002709566e+00 1.2561429070865764e+00 1.6843720016871710e+00 1.2110529234519274e+00 -1.9043853412885827e+00 1.2135819472701979e+00 -1.8412642754079580e+00 -1.2632566803606269e+00 -1.3719131877397928e+00 -1.8867651926445317e+00 1.5554747724729747e+00 3.5626983076578583e-01 
        </Neuron>
        <Neuron NSynapses="15">
          -1.7254943285681128e+00 1.6431215981542122e-01 -1.1517877020234735e-01 4.8851410077503793e-01 1.9495478986598069e+00 -5.5413385508161206e-01 -8.6876761363757146e-02 -6.8468084940045970e-01 1.6855236720591654e-01 6.0053258400998857e-02 -3.8104783015891974e-01 9.4620700075449718e-02 2.2348755099007733e-01 1.2448770355472820e+00 8.1250969487590008e-01 
        </Neuron>
        <Neuron NSynapses="15">
          -2.6236035774818894e-01 -1.7618654523654582e+00 -1.6819694635978224e+00 7.6160510060865783e-01 4.9829883426653976e-01 1.1398510771243293e+00 3.9790907031353900e-01 8.6835283513164840e-01 -6.2033286321332848e-01 -1.4744287948247032e+00 5.0368769585966444e-01 7.3785642790351658e-02 -9.1156484918968117e-01 -1.6726053007813217e+00 -1.3943652674668441e+00 
        </Neuron>
        <Neuron NSynapses="15">
          -3.3510670566772105e-01 -8.3923317697461405e-02 1.2907236661834849e+00 -1.1815365032060128e+00 -8.4041064452802727e-01 1.7941801277582139e+00 -8.0315305137604498e-01 -1.5240119691955960e+00 -1.5084919897168709e+00 -2.2262101178480220e-01 -1.9557533868561483e+00 -6.9113060654631775e-01 1.1174230367643940e+00 1.7760740402361408e+00 -8.5971497285904686e-01 
        </Neuron>
        <Neuron NSynapses="15">
          1.3689279818488789e+00 -1.2796122400847814e+00 -7.8104906814006769e-01 5.4812544136498900e-02 3.5385192689572448e-01 -1.3146173920075508e+00 5.1638206518120977e-01 3.2705926735883190e-01 3.6718259623233002e-01 -7.0094369056207673e-01 1.5011801281781962e+00 4.4451535497355904e-01 -9.9176108131903629e-01 8.6711424732585851e-01 -3.4373758876276711e-01 
        </Neuron>
        <Neuron NSynapses="15">
          -2.0116469625220783e+00 -8.8925136166420102e-02 -6.9631834916936419e-01 2.2072266689254048e+00 7.9791610126654589e-01 8.0633804012979993e-01 -5.1583811255737566e-01 1.1385854856606020e-01 -1.7953448127085490e+00 1.2044820343605227e+00 -2.4638971388859374e-01 -3.0141622535906754e+00 1.2222304671668638e+00 -1.0223310216382906e+00 -7.8937337621089410e-01 
        </Neuron>
        <Neuron NSynapses="15">
          6.9354324591189054e-01 1.5128266592852835e+00 -2.0970152433829283e+00 5.5234097648730629e-01 1.6997137908857989e+00 1.9658871401033760e+00 -4.9399233354562228e-02 -1.2912757814790614e+00 -2.6317985180376569e-01 -1.2005025492351415e+00 1.1191699757995865e+00 2.0013385683390141e+00 -4.3850245954323623e-02 1.5057045199459690e-02 -6.2821219482225765e-01 
        </Neuron>
        <Neuron NSynapses="15">
          -9.2077955527213495e-01 8.2740512926048981e-01 2.0974153584712893e+00 -1.0067695879587861e+00 -6.1863519415095780e-01 -5.7852030577182734e-01 1.1917500738740447e+00 6.3232820068211082e-01 1.1652856912306471e+00 -1.5740221781988932e+00 1.9101858964941005e+00 2.1066779701729734e+00 -8.6525428498699833e-02 1.8736811723613087e-01 1.6284137507726277e+00 
        </Neuron>
      </Layer>
      <Layer Index="1" NNeurons="16">
        <Neuron NSynapses="1">
          1.0071400323780259e-03 
        </Neuron>
        <Neuron NSynapses="1">
          -1.2861163323149785e-02 
        </Neuron>
        <Neuron NSynapses="1">
          9.1832960209527886e-02 
        </Neuron>
        <Neuron NSynapses="1">
          -3.5210842820505772e-01 
        </Neuron>
        <Neuron NSynapses="1">
          6.8396499439016892e-03 
        </Neuron>
        <Neuron NSynapses="1">
          8.2416854233565928e-02 
        </Neuron>
        <Neuron NSynapses="1">
          9.7059132107059631e-01 
        </Neuron>
        <Neuron NSynapses="1">
          -9.0409745282568708e-03 
        </Neuron>
        <Neuron NSynapses="1">
          1.2195869689170371e+00 
        </Neuron>
        <Neuron NSynapses="1">
          -2.9857538956861163e-02 
        </Neuron>
        <Neuron NSynapses="1">
          -6.2651452607975250e-02 
        </Neuron>
        <Neuron NSynapses="1">
          9.5700154999198561e-01 
        </Neuron>
        <Neuron NSynapses="1">
          6.3942387063012904e-02 
        </Neuron>
        <Neuron NSynapses="1">
          2.2899433836091942e-02 
        </Neuron>
        <Neuron NSynapses="1">
          -9.3043481555032992e-01 
        </Neuron>
        <Neuron NSynapses="1">
          -1.4468270865706510e+00 
        </Neuron>
      </Layer>
      <Layer Index="2" NNeurons="1">
        <Neuron NSynapses="0"/>
      </Layer>
    </Layout>
  </Weights>
</MethodSetup>
