<?xml version="1.0"?>
<MethodSetup Method="MLP::MLP">
  <GeneralInfo>
    <Info name="TMVA Release" value="4.2.0 [262656]"/>
    <Info name="ROOT Release" value="6.02/13 [393741]"/>
    <Info name="Creator" value="leure"/>
    <Info name="Date" value="Thu Jun  8 20:01:12 2017"/>
    <Info name="Host" value="Linux vocms029.cern.ch 2.6.32-504.12.2.el6.x86_64 #1 SMP Thu Mar 12 07:33:00 CET 2015 x86_64 x86_64 x86_64 GNU/Linux"/>
    <Info name="Dir" value="/data/leure/TMVA_Luke/myTMVA"/>
    <Info name="Training events" value="2320"/>
    <Info name="TrainingTime" value="1.47180159e+01"/>
    <Info name="AnalysisType" value="Classification"/>
  </GeneralInfo>
  <Options>
    <Option name="NCycles" modified="Yes">600</Option>
    <Option name="HiddenLayers" modified="Yes">N+5</Option>
    <Option name="NeuronType" modified="Yes">tanh</Option>
    <Option name="RandomSeed" modified="No">1</Option>
    <Option name="EstimatorType" modified="No">MSE</Option>
    <Option name="NeuronInputType" modified="No">sum</Option>
    <Option name="V" modified="Yes">False</Option>
    <Option name="VerbosityLevel" modified="No">Default</Option>
    <Option name="VarTransform" modified="Yes">N</Option>
    <Option name="H" modified="Yes">True</Option>
    <Option name="CreateMVAPdfs" modified="No">False</Option>
    <Option name="IgnoreNegWeightsInTraining" modified="No">False</Option>
    <Option name="TrainingMethod" modified="No">BP</Option>
    <Option name="LearningRate" modified="No">2.000000e-02</Option>
    <Option name="DecayRate" modified="No">1.000000e-02</Option>
    <Option name="TestRate" modified="Yes">5</Option>
    <Option name="EpochMonitoring" modified="No">False</Option>
    <Option name="Sampling" modified="No">1.000000e+00</Option>
    <Option name="SamplingEpoch" modified="No">1.000000e+00</Option>
    <Option name="SamplingImportance" modified="No">1.000000e+00</Option>
    <Option name="SamplingTraining" modified="No">True</Option>
    <Option name="SamplingTesting" modified="No">False</Option>
    <Option name="ResetStep" modified="No">50</Option>
    <Option name="Tau" modified="No">3.000000e+00</Option>
    <Option name="BPMode" modified="No">sequential</Option>
    <Option name="BatchSize" modified="No">-1</Option>
    <Option name="ConvergenceImprove" modified="No">1.000000e-30</Option>
    <Option name="ConvergenceTests" modified="No">-1</Option>
    <Option name="UseRegulator" modified="Yes">False</Option>
    <Option name="UpdateLimit" modified="No">10000</Option>
    <Option name="CalculateErrors" modified="No">False</Option>
    <Option name="WeightRange" modified="No">1.000000e+00</Option>
  </Options>
  <Variables NVar="10">
    <Variable VarIndex="0" Expression="Dtrk1Pt" Label="Dtrk1Pt" Title="Dtrk1Pt" Unit="" Internal="Dtrk1Pt" Type="F" Min="5.00997126e-01" Max="1.22764292e+01"/>
    <Variable VarIndex="1" Expression="DRestrk1Pt" Label="DRestrk1Pt" Title="DRestrk1Pt" Unit="" Internal="DRestrk1Pt" Type="F" Min="6.60297811e-01" Max="1.87841835e+01"/>
    <Variable VarIndex="2" Expression="DRestrk2Pt" Label="DRestrk2Pt" Title="DRestrk2Pt" Unit="" Internal="DRestrk2Pt" Type="F" Min="5.03957272e-01" Max="1.80702095e+01"/>
    <Variable VarIndex="3" Expression="DtktkRespt" Label="DtktkRespt" Title="DtktkRespt" Unit="" Internal="DtktkRespt" Type="F" Min="8.01337337e+00" Max="2.00275936e+01"/>
    <Variable VarIndex="4" Expression="Dchi2cl" Label="Dchi2cl" Title="Dchi2cl" Unit="" Internal="Dchi2cl" Type="F" Min="5.00634536e-02" Max="9.98736560e-01"/>
    <Variable VarIndex="5" Expression="DtktkRes_chi2cl" Label="DtktkRes_chi2cl" Title="DtktkRes_chi2cl" Unit="" Internal="DtktkRes_chi2cl" Type="F" Min="5.03618643e-02" Max="9.99740005e-01"/>
    <Variable VarIndex="6" Expression="Dalpha" Label="Dalpha" Title="Dalpha" Unit="" Internal="Dalpha" Type="F" Min="9.73608549e-05" Max="1.99530050e-01"/>
    <Variable VarIndex="7" Expression="DtktkRes_alpha" Label="DtktkRes_alpha" Title="DtktkRes_alpha" Unit="" Internal="DtktkRes_alpha" Type="F" Min="1.24814943e-03" Max="1.99770436e-01"/>
    <Variable VarIndex="8" Expression="DsvpvDistance/DsvpvDisErr" Label="DsvpvDistance/DsvpvDisErr" Title="DsvpvDistance/DsvpvDisErr" Unit="" Internal="DsvpvDistance_D_DsvpvDisErr" Type="F" Min="2.00035477e+00" Max="1.86669785e+02"/>
    <Variable VarIndex="9" Expression="DtktkRes_svpvDistance/DtktkRes_svpvDisErr" Label="DtktkRes_svpvDistance/DtktkRes_svpvDisErr" Title="DtktkRes_svpvDistance/DtktkRes_svpvDisErr" Unit="" Internal="DtktkRes_svpvDistance_D_DtktkRes_svpvDisErr" Type="F" Min="2.00586510e+00" Max="9.64862823e+01"/>
  </Variables>
  <Spectators NSpec="0"/>
  <Classes NClass="2">
    <Class Name="Signal" Index="0"/>
    <Class Name="Background" Index="1"/>
  </Classes>
  <Transformations NTransformations="1">
    <Transform Name="Normalize">
      <Selection>
        <Input NInputs="10">
          <Input Type="Variable" Label="Dtrk1Pt" Expression="Dtrk1Pt"/>
          <Input Type="Variable" Label="DRestrk1Pt" Expression="DRestrk1Pt"/>
          <Input Type="Variable" Label="DRestrk2Pt" Expression="DRestrk2Pt"/>
          <Input Type="Variable" Label="DtktkRespt" Expression="DtktkRespt"/>
          <Input Type="Variable" Label="Dchi2cl" Expression="Dchi2cl"/>
          <Input Type="Variable" Label="DtktkRes_chi2cl" Expression="DtktkRes_chi2cl"/>
          <Input Type="Variable" Label="Dalpha" Expression="Dalpha"/>
          <Input Type="Variable" Label="DtktkRes_alpha" Expression="DtktkRes_alpha"/>
          <Input Type="Variable" Label="DsvpvDistance/DsvpvDisErr" Expression="DsvpvDistance/DsvpvDisErr"/>
          <Input Type="Variable" Label="DtktkRes_svpvDistance/DtktkRes_svpvDisErr" Expression="DtktkRes_svpvDistance/DtktkRes_svpvDisErr"/>
        </Input>
        <Output NOutputs="10">
          <Output Type="Variable" Label="Dtrk1Pt" Expression="Dtrk1Pt"/>
          <Output Type="Variable" Label="DRestrk1Pt" Expression="DRestrk1Pt"/>
          <Output Type="Variable" Label="DRestrk2Pt" Expression="DRestrk2Pt"/>
          <Output Type="Variable" Label="DtktkRespt" Expression="DtktkRespt"/>
          <Output Type="Variable" Label="Dchi2cl" Expression="Dchi2cl"/>
          <Output Type="Variable" Label="DtktkRes_chi2cl" Expression="DtktkRes_chi2cl"/>
          <Output Type="Variable" Label="Dalpha" Expression="Dalpha"/>
          <Output Type="Variable" Label="DtktkRes_alpha" Expression="DtktkRes_alpha"/>
          <Output Type="Variable" Label="DsvpvDistance/DsvpvDisErr" Expression="DsvpvDistance/DsvpvDisErr"/>
          <Output Type="Variable" Label="DtktkRes_svpvDistance/DtktkRes_svpvDisErr" Expression="DtktkRes_svpvDistance/DtktkRes_svpvDisErr"/>
        </Output>
      </Selection>
      <Class ClassIndex="0">
        <Ranges>
          <Range Index="0" Min="5.0135558843612671e-01" Max="1.2276429176330566e+01"/>
          <Range Index="1" Min="6.6029781103134155e-01" Max="1.7901063919067383e+01"/>
          <Range Index="2" Min="5.0395727157592773e-01" Max="1.7190649032592773e+01"/>
          <Range Index="3" Min="8.0133733749389648e+00" Max="1.9785320281982422e+01"/>
          <Range Index="4" Min="5.0063453614711761e-02" Max="9.9873656034469604e-01"/>
          <Range Index="5" Min="5.0361864268779755e-02" Max="9.9974000453948975e-01"/>
          <Range Index="6" Min="9.7360854852013290e-05" Max="1.9953005015850067e-01"/>
          <Range Index="7" Min="1.2481494341045618e-03" Max="1.9977043569087982e-01"/>
          <Range Index="8" Min="2.0003547668457031e+00" Max="1.8666978454589844e+02"/>
          <Range Index="9" Min="2.0597653388977051e+00" Max="9.6486282348632812e+01"/>
        </Ranges>
      </Class>
      <Class ClassIndex="1">
        <Ranges>
          <Range Index="0" Min="5.0099712610244751e-01" Max="1.0149288177490234e+01"/>
          <Range Index="1" Min="1.0096608400344849e+00" Max="1.8784183502197266e+01"/>
          <Range Index="2" Min="5.1123452186584473e-01" Max="1.8070209503173828e+01"/>
          <Range Index="3" Min="8.2311868667602539e+00" Max="2.0027593612670898e+01"/>
          <Range Index="4" Min="5.0959542393684387e-02" Max="9.9579370021820068e-01"/>
          <Range Index="5" Min="5.2907604724168777e-02" Max="9.8870319128036499e-01"/>
          <Range Index="6" Min="5.4871547035872936e-04" Max="1.9848453998565674e-01"/>
          <Range Index="7" Min="1.3444677460938692e-03" Max="1.7593443393707275e-01"/>
          <Range Index="8" Min="2.0045723915100098e+00" Max="1.8288787841796875e+02"/>
          <Range Index="9" Min="2.0058650970458984e+00" Max="4.6957138061523438e+01"/>
        </Ranges>
      </Class>
      <Class ClassIndex="2">
        <Ranges>
          <Range Index="0" Min="5.0099712610244751e-01" Max="1.2276429176330566e+01"/>
          <Range Index="1" Min="6.6029781103134155e-01" Max="1.8784183502197266e+01"/>
          <Range Index="2" Min="5.0395727157592773e-01" Max="1.8070209503173828e+01"/>
          <Range Index="3" Min="8.0133733749389648e+00" Max="2.0027593612670898e+01"/>
          <Range Index="4" Min="5.0063453614711761e-02" Max="9.9873656034469604e-01"/>
          <Range Index="5" Min="5.0361864268779755e-02" Max="9.9974000453948975e-01"/>
          <Range Index="6" Min="9.7360854852013290e-05" Max="1.9953005015850067e-01"/>
          <Range Index="7" Min="1.2481494341045618e-03" Max="1.9977043569087982e-01"/>
          <Range Index="8" Min="2.0003547668457031e+00" Max="1.8666978454589844e+02"/>
          <Range Index="9" Min="2.0058650970458984e+00" Max="9.6486282348632812e+01"/>
        </Ranges>
      </Class>
    </Transform>
  </Transformations>
  <MVAPdfs/>
  <Weights>
    <Layout NLayers="3">
      <Layer Index="0" NNeurons="11">
        <Neuron NSynapses="15">
          -6.4442317572223973e-01 1.6591713933708907e+00 1.3974710902267533e+00 1.3812113931088152e+00 -1.8637101717372311e+00 -1.5611304348870116e+00 -6.8328844768223573e-01 3.3901985997270483e+00 -1.4431299016139691e+00 -9.8258877601931116e-01 -1.8562355633459882e+00 -4.2393292335827570e-01 -1.2191720381827695e+00 -3.3791914952231528e-01 -6.8941168889164872e-01 
        </Neuron>
        <Neuron NSynapses="15">
          1.6447593617452269e-01 -2.4573311243191578e-01 1.7757870579691719e+00 -7.3959042149038159e-02 1.4407353630783273e+00 4.7253707317819110e-02 -7.8462432603612497e-01 4.4285771087124576e-01 -5.4744897366555756e-01 -6.5854046215557815e-01 1.2209125790847260e-01 1.2265081604137982e+00 -9.9258613212936264e-01 -1.7535751001082038e+00 3.1112253579293797e-01 
        </Neuron>
        <Neuron NSynapses="15">
          8.1751313942755333e-01 1.3880382596168297e+00 -9.0156564623201974e-01 1.6324826744892401e-01 3.4186398822412289e-01 1.0007315846890519e-02 -1.5559831841722651e+00 3.5196172513176288e-01 -1.4946037348940786e+00 6.5624108135747083e-01 7.2173897918527818e-01 5.1281476808043103e-01 1.7700938260387695e+00 1.0066471491019484e+00 -3.3104839880605674e-01 
        </Neuron>
        <Neuron NSynapses="15">
          -1.4924435321111986e+00 9.0509850602444253e-01 -5.0277506990042764e-01 1.8222591781058035e+00 1.7425492874418187e+00 2.0572551866938080e+00 1.1838912896639144e+00 -6.8753336226752870e-01 7.7510683105804967e-01 -1.8481003120501740e+00 -9.1806262915929226e-01 -1.7314119544663034e+00 -1.7463189853883747e+00 1.4032748400861355e+00 9.9766982993002284e-01 
        </Neuron>
        <Neuron NSynapses="15">
          -9.5001900955909135e-01 5.1003191597777747e-02 1.1575686745169349e-01 3.3487314582972771e-01 1.4597976683221310e+00 -2.2780292789616921e-01 -2.9647742596671406e-01 1.5141866759882455e-01 1.9109815219757437e-01 -1.0677278089130672e-01 -1.1184388264376210e+00 -4.8371005727274213e-01 4.2025450525426111e-01 1.3202838545206459e+00 7.7847400357150864e-01 
        </Neuron>
        <Neuron NSynapses="15">
          -3.8572046164493023e-01 -1.6260076006997219e+00 -1.5793194493143785e+00 8.5294842444757735e-01 3.7882860094311875e-02 1.2956543559094178e+00 4.8653391923109701e-01 6.8655652556069272e-02 -7.2636501841436574e-01 -1.3974791382743528e+00 1.4185503270574831e-01 8.5212696075099681e-01 -5.8430344045177329e-01 -1.2938852549937163e+00 -1.8063817122845682e+00 
        </Neuron>
        <Neuron NSynapses="15">
          -8.8534682964718336e-01 -9.9433905136596348e-02 1.1710539221616529e+00 -1.7581537759946599e+00 -8.5759990598879077e-01 1.3668525064577666e+00 -9.8339011934997311e-01 -3.5981648317906978e-01 -1.3003955514246750e+00 -4.0119482998947387e-01 -2.3641753379430530e+00 -1.8384355958740761e+00 5.7391819251979825e-01 1.4094327194478060e+00 -3.7903525341651606e-01 
        </Neuron>
        <Neuron NSynapses="15">
          1.4706375653812449e+00 -1.0647402793711700e+00 -3.7216444536781704e-02 -3.4606491720332927e-01 -1.4333082851710383e-01 -1.4406592518855941e+00 3.1535107428770592e-01 4.0710340660777283e-01 1.3069007093124341e-01 -1.4427029334118477e+00 1.5418332244618622e+00 6.8345651284445114e-02 -1.2968323637184840e+00 9.7549194078155155e-01 -1.6359783958970451e+00 
        </Neuron>
        <Neuron NSynapses="15">
          -2.3138277213967897e+00 -5.5016822187088442e-02 -2.4592422199453814e-01 1.5074698606156476e+00 6.2865007446603804e-01 5.4000642787247932e-01 -4.4841126380114343e-01 -2.6083740519088966e-01 -2.1923492384538958e+00 1.2420723126774036e+00 -1.0710972156046819e-01 -2.0161199774427390e+00 4.7465260959983063e-01 -1.3686112962745729e+00 2.3297875842256441e-01 
        </Neuron>
        <Neuron NSynapses="15">
          3.5471274301949612e-01 1.6756614286833562e+00 -1.7360688272059230e+00 -1.4697855653435676e-01 1.6040160135040444e+00 1.6105185797163495e+00 -1.2731865637044423e-01 1.2565338811345714e+00 -6.0423887229350426e-01 -1.1447666060738417e+00 1.2934914074717954e+00 6.7996855798747169e-01 -6.4886081430522746e-01 -2.3340346936221468e-01 1.9726435013507304e-01 
        </Neuron>
        <Neuron NSynapses="15">
          -4.7847141931665305e-01 9.4181036123887074e-01 1.9705220198794429e+00 -3.5339203037114458e-01 -5.6334989689929249e-01 -3.3572063719189865e-01 1.1172964394802334e+00 4.7371404246694455e+00 1.9323567694569286e+00 -1.6415558426495602e+00 1.7413156926457662e+00 1.4140414643236596e+00 5.3446918777600305e-01 5.7435646973667354e-01 3.2668031393088726e-01 
        </Neuron>
      </Layer>
      <Layer Index="1" NNeurons="16">
        <Neuron NSynapses="1">
          1.5826041769950844e-01 
        </Neuron>
        <Neuron NSynapses="1">
          -2.0788733818263201e-04 
        </Neuron>
        <Neuron NSynapses="1">
          2.3701166631096348e-02 
        </Neuron>
        <Neuron NSynapses="1">
          2.7106742996604927e-02 
        </Neuron>
        <Neuron NSynapses="1">
          9.2857079506808285e-02 
        </Neuron>
        <Neuron NSynapses="1">
          5.2588053108560073e-02 
        </Neuron>
        <Neuron NSynapses="1">
          8.9097245918537327e-01 
        </Neuron>
        <Neuron NSynapses="1">
          8.8999959118883432e-01 
        </Neuron>
        <Neuron NSynapses="1">
          9.7066554858929865e-01 
        </Neuron>
        <Neuron NSynapses="1">
          2.2082464993047534e-03 
        </Neuron>
        <Neuron NSynapses="1">
          -7.1379497991290258e-02 
        </Neuron>
        <Neuron NSynapses="1">
          -2.5409438670538764e-01 
        </Neuron>
        <Neuron NSynapses="1">
          2.1402645187167110e-02 
        </Neuron>
        <Neuron NSynapses="1">
          -1.5120058240661624e-03 
        </Neuron>
        <Neuron NSynapses="1">
          2.6300949805796088e-03 
        </Neuron>
        <Neuron NSynapses="1">
          -1.4308899233152483e+00 
        </Neuron>
      </Layer>
      <Layer Index="2" NNeurons="1">
        <Neuron NSynapses="0"/>
      </Layer>
    </Layout>
  </Weights>
</MethodSetup>
