<?xml version="1.0"?>
<MethodSetup Method="MLP::MLP">
  <GeneralInfo>
    <Info name="TMVA Release" value="4.2.0 [262656]"/>
    <Info name="ROOT Release" value="6.02/13 [393741]"/>
    <Info name="Creator" value="leure"/>
    <Info name="Date" value="Tue Jun  6 20:01:15 2017"/>
    <Info name="Host" value="Linux vocms029.cern.ch 2.6.32-504.12.2.el6.x86_64 #1 SMP Thu Mar 12 07:33:00 CET 2015 x86_64 x86_64 x86_64 GNU/Linux"/>
    <Info name="Dir" value="/data/leure/TMVA_Luke/myTMVA"/>
    <Info name="Training events" value="4796"/>
    <Info name="TrainingTime" value="2.97936931e+01"/>
    <Info name="AnalysisType" value="Classification"/>
  </GeneralInfo>
  <Options>
    <Option name="NCycles" modified="Yes">600</Option>
    <Option name="HiddenLayers" modified="Yes">N+5</Option>
    <Option name="NeuronType" modified="Yes">tanh</Option>
    <Option name="RandomSeed" modified="No">1</Option>
    <Option name="EstimatorType" modified="No">MSE</Option>
    <Option name="NeuronInputType" modified="No">sum</Option>
    <Option name="V" modified="Yes">False</Option>
    <Option name="VerbosityLevel" modified="No">Default</Option>
    <Option name="VarTransform" modified="Yes">N</Option>
    <Option name="H" modified="Yes">True</Option>
    <Option name="CreateMVAPdfs" modified="No">False</Option>
    <Option name="IgnoreNegWeightsInTraining" modified="No">False</Option>
    <Option name="TrainingMethod" modified="No">BP</Option>
    <Option name="LearningRate" modified="No">2.000000e-02</Option>
    <Option name="DecayRate" modified="No">1.000000e-02</Option>
    <Option name="TestRate" modified="Yes">5</Option>
    <Option name="EpochMonitoring" modified="No">False</Option>
    <Option name="Sampling" modified="No">1.000000e+00</Option>
    <Option name="SamplingEpoch" modified="No">1.000000e+00</Option>
    <Option name="SamplingImportance" modified="No">1.000000e+00</Option>
    <Option name="SamplingTraining" modified="No">True</Option>
    <Option name="SamplingTesting" modified="No">False</Option>
    <Option name="ResetStep" modified="No">50</Option>
    <Option name="Tau" modified="No">3.000000e+00</Option>
    <Option name="BPMode" modified="No">sequential</Option>
    <Option name="BatchSize" modified="No">-1</Option>
    <Option name="ConvergenceImprove" modified="No">1.000000e-30</Option>
    <Option name="ConvergenceTests" modified="No">-1</Option>
    <Option name="UseRegulator" modified="Yes">False</Option>
    <Option name="UpdateLimit" modified="No">10000</Option>
    <Option name="CalculateErrors" modified="No">False</Option>
    <Option name="WeightRange" modified="No">1.000000e+00</Option>
  </Options>
  <Variables NVar="10">
    <Variable VarIndex="0" Expression="Dtrk1Pt" Label="Dtrk1Pt" Title="Dtrk1Pt" Unit="" Internal="Dtrk1Pt" Type="F" Min="5.27766526e-01" Max="8.61248016e+01"/>
    <Variable VarIndex="1" Expression="DRestrk1Pt" Label="DRestrk1Pt" Title="DRestrk1Pt" Unit="" Internal="DRestrk1Pt" Type="F" Min="6.25463963e-01" Max="8.17200317e+01"/>
    <Variable VarIndex="2" Expression="DRestrk2Pt" Label="DRestrk2Pt" Title="DRestrk2Pt" Unit="" Internal="DRestrk2Pt" Type="F" Min="5.01080751e-01" Max="8.60996933e+01"/>
    <Variable VarIndex="3" Expression="DtktkRespt" Label="DtktkRespt" Title="DtktkRespt" Unit="" Internal="DtktkRespt" Type="F" Min="8.00294495e+00" Max="9.58500443e+01"/>
    <Variable VarIndex="4" Expression="Dchi2cl" Label="Dchi2cl" Title="Dchi2cl" Unit="" Internal="Dchi2cl" Type="F" Min="5.00639640e-02" Max="9.99920547e-01"/>
    <Variable VarIndex="5" Expression="DtktkRes_chi2cl" Label="DtktkRes_chi2cl" Title="DtktkRes_chi2cl" Unit="" Internal="DtktkRes_chi2cl" Type="F" Min="5.00667505e-02" Max="9.99419212e-01"/>
    <Variable VarIndex="6" Expression="Dalpha" Label="Dalpha" Title="Dalpha" Unit="" Internal="Dalpha" Type="F" Min="3.74872288e-05" Max="1.91084236e-01"/>
    <Variable VarIndex="7" Expression="DtktkRes_alpha" Label="DtktkRes_alpha" Title="DtktkRes_alpha" Unit="" Internal="DtktkRes_alpha" Type="F" Min="2.71359109e-04" Max="1.73992977e-01"/>
    <Variable VarIndex="8" Expression="DsvpvDistance/DsvpvDisErr" Label="DsvpvDistance/DsvpvDisErr" Title="DsvpvDistance/DsvpvDisErr" Unit="" Internal="DsvpvDistance_D_DsvpvDisErr" Type="F" Min="2.00188947e+00" Max="6.06031921e+02"/>
    <Variable VarIndex="9" Expression="DtktkRes_svpvDistance/DtktkRes_svpvDisErr" Label="DtktkRes_svpvDistance/DtktkRes_svpvDisErr" Title="DtktkRes_svpvDistance/DtktkRes_svpvDisErr" Unit="" Internal="DtktkRes_svpvDistance_D_DtktkRes_svpvDisErr" Type="F" Min="2.01404405e+00" Max="5.25526550e+02"/>
  </Variables>
  <Spectators NSpec="0"/>
  <Classes NClass="2">
    <Class Name="Signal" Index="0"/>
    <Class Name="Background" Index="1"/>
  </Classes>
  <Transformations NTransformations="1">
    <Transform Name="Normalize">
      <Selection>
        <Input NInputs="10">
          <Input Type="Variable" Label="Dtrk1Pt" Expression="Dtrk1Pt"/>
          <Input Type="Variable" Label="DRestrk1Pt" Expression="DRestrk1Pt"/>
          <Input Type="Variable" Label="DRestrk2Pt" Expression="DRestrk2Pt"/>
          <Input Type="Variable" Label="DtktkRespt" Expression="DtktkRespt"/>
          <Input Type="Variable" Label="Dchi2cl" Expression="Dchi2cl"/>
          <Input Type="Variable" Label="DtktkRes_chi2cl" Expression="DtktkRes_chi2cl"/>
          <Input Type="Variable" Label="Dalpha" Expression="Dalpha"/>
          <Input Type="Variable" Label="DtktkRes_alpha" Expression="DtktkRes_alpha"/>
          <Input Type="Variable" Label="DsvpvDistance/DsvpvDisErr" Expression="DsvpvDistance/DsvpvDisErr"/>
          <Input Type="Variable" Label="DtktkRes_svpvDistance/DtktkRes_svpvDisErr" Expression="DtktkRes_svpvDistance/DtktkRes_svpvDisErr"/>
        </Input>
        <Output NOutputs="10">
          <Output Type="Variable" Label="Dtrk1Pt" Expression="Dtrk1Pt"/>
          <Output Type="Variable" Label="DRestrk1Pt" Expression="DRestrk1Pt"/>
          <Output Type="Variable" Label="DRestrk2Pt" Expression="DRestrk2Pt"/>
          <Output Type="Variable" Label="DtktkRespt" Expression="DtktkRespt"/>
          <Output Type="Variable" Label="Dchi2cl" Expression="Dchi2cl"/>
          <Output Type="Variable" Label="DtktkRes_chi2cl" Expression="DtktkRes_chi2cl"/>
          <Output Type="Variable" Label="Dalpha" Expression="Dalpha"/>
          <Output Type="Variable" Label="DtktkRes_alpha" Expression="DtktkRes_alpha"/>
          <Output Type="Variable" Label="DsvpvDistance/DsvpvDisErr" Expression="DsvpvDistance/DsvpvDisErr"/>
          <Output Type="Variable" Label="DtktkRes_svpvDistance/DtktkRes_svpvDisErr" Expression="DtktkRes_svpvDistance/DtktkRes_svpvDisErr"/>
        </Output>
      </Selection>
      <Class ClassIndex="0">
        <Ranges>
          <Range Index="0" Min="5.8839708566665649e-01" Max="8.6124801635742188e+01"/>
          <Range Index="1" Min="6.7169517278671265e-01" Max="8.1720031738281250e+01"/>
          <Range Index="2" Min="5.0108075141906738e-01" Max="8.6099693298339844e+01"/>
          <Range Index="3" Min="8.0029449462890625e+00" Max="9.5850044250488281e+01"/>
          <Range Index="4" Min="5.0063963979482651e-02" Max="9.9992054700851440e-01"/>
          <Range Index="5" Min="5.0066750496625900e-02" Max="9.9941921234130859e-01"/>
          <Range Index="6" Min="3.7487228837562725e-05" Max="1.7681655287742615e-01"/>
          <Range Index="7" Min="2.7135910931974649e-04" Max="1.7399297654628754e-01"/>
          <Range Index="8" Min="2.0018894672393799e+00" Max="6.0603192138671875e+02"/>
          <Range Index="9" Min="2.0140440464019775e+00" Max="5.2552655029296875e+02"/>
        </Ranges>
      </Class>
      <Class ClassIndex="1">
        <Ranges>
          <Range Index="0" Min="5.2776652574539185e-01" Max="7.5455329895019531e+01"/>
          <Range Index="1" Min="6.2546396255493164e-01" Max="6.5907722473144531e+01"/>
          <Range Index="2" Min="1.3831722736358643e+00" Max="6.4251808166503906e+01"/>
          <Range Index="3" Min="9.8319578170776367e+00" Max="8.9844718933105469e+01"/>
          <Range Index="4" Min="7.2763234376907349e-02" Max="9.5918774604797363e-01"/>
          <Range Index="5" Min="8.6215279996395111e-02" Max="9.2363858222961426e-01"/>
          <Range Index="6" Min="4.0030572563409805e-03" Max="1.9108423590660095e-01"/>
          <Range Index="7" Min="5.3475878667086363e-04" Max="7.2444505989551544e-02"/>
          <Range Index="8" Min="2.0986185073852539e+00" Max="1.2142372894287109e+02"/>
          <Range Index="9" Min="2.0177152156829834e+00" Max="2.6791259765625000e+02"/>
        </Ranges>
      </Class>
      <Class ClassIndex="2">
        <Ranges>
          <Range Index="0" Min="5.2776652574539185e-01" Max="8.6124801635742188e+01"/>
          <Range Index="1" Min="6.2546396255493164e-01" Max="8.1720031738281250e+01"/>
          <Range Index="2" Min="5.0108075141906738e-01" Max="8.6099693298339844e+01"/>
          <Range Index="3" Min="8.0029449462890625e+00" Max="9.5850044250488281e+01"/>
          <Range Index="4" Min="5.0063963979482651e-02" Max="9.9992054700851440e-01"/>
          <Range Index="5" Min="5.0066750496625900e-02" Max="9.9941921234130859e-01"/>
          <Range Index="6" Min="3.7487228837562725e-05" Max="1.9108423590660095e-01"/>
          <Range Index="7" Min="2.7135910931974649e-04" Max="1.7399297654628754e-01"/>
          <Range Index="8" Min="2.0018894672393799e+00" Max="6.0603192138671875e+02"/>
          <Range Index="9" Min="2.0140440464019775e+00" Max="5.2552655029296875e+02"/>
        </Ranges>
      </Class>
    </Transform>
  </Transformations>
  <MVAPdfs/>
  <Weights>
    <Layout NLayers="3">
      <Layer Index="0" NNeurons="11">
        <Neuron NSynapses="15">
          -4.0447594291660927e-01 1.9775337541852864e+00 9.9463777572885193e-01 1.7782017709417342e+00 -1.9613409859771966e+00 -1.1745921589938937e+00 -6.9238404996460512e-01 1.8939146750029081e+00 -1.2539768651021115e+00 -1.1439702842876562e+00 -1.9249209576711614e+00 -5.9858754526415758e-01 -1.3151988935101675e+00 -3.5026402430518805e-01 -6.7386025949099004e-01 
        </Neuron>
        <Neuron NSynapses="15">
          7.9107435025245609e-01 -3.0910973945766856e-01 1.4397640864094865e+00 4.5527458732774373e-01 1.3956513407609068e+00 -8.2907967201988328e-02 -9.4278543143202964e-01 7.0393272663478090e-01 -2.1341528925423317e-01 -1.0565147497992584e+00 -8.0285263224466608e-01 1.0992927006280062e+00 -1.0256278630955959e+00 -1.9057055878291851e+00 -2.5303406839534981e-01 
        </Neuron>
        <Neuron NSynapses="15">
          7.9964389123934976e-01 1.6713855912626854e+00 -6.3530210783758345e-01 2.5057609061141201e-01 2.9065074587836626e-01 -2.2911768489787171e-01 -1.6593228717445541e+00 1.6651507554553842e+00 -1.4829978744779113e+00 -3.0068929070983397e-02 8.7263629566519596e-01 6.2807407566295803e-01 1.8833620451078377e+00 1.2169342014609643e+00 -1.0315522388684040e+00 
        </Neuron>
        <Neuron NSynapses="15">
          -1.4986179181560275e+00 8.0225252434099237e-01 -2.0739586700959167e-01 1.6984213756137421e+00 1.4572717012978980e+00 1.5335822254823663e+00 1.0700372797983235e+00 -1.6716352096022191e+00 1.0528751842316455e+00 -1.9660557320327332e+00 -1.1054455462976103e+00 -1.4966147465714403e+00 -1.7023809900415783e+00 1.4582833514779576e+00 3.9752854722253100e-01 
        </Neuron>
        <Neuron NSynapses="15">
          -1.5412863423832184e+00 4.1193413323107581e-01 -3.1348608929309171e-02 4.4448603028828482e-01 1.7149352920286611e+00 2.2723587740010570e-02 -3.3737337527492778e-02 -1.1870788364109321e+00 5.2503767486016761e-01 -1.4143653957023961e-01 -7.3445414371193340e-01 -1.0630943116217637e+00 6.7711083945811668e-01 1.1699151793936047e+00 1.0124284248526909e+00 
        </Neuron>
        <Neuron NSynapses="15">
          -2.3831676175872074e-01 -1.8857002914067915e+00 -1.7310336431611935e+00 7.2777053893450705e-01 5.2563421962383061e-01 1.7459438890846322e+00 3.0405293365179259e-01 9.6677690011628248e-01 -7.2742928324561285e-01 -3.0933572414583943e-01 -1.4827441632898139e-01 7.0776898148267742e-01 -1.0609390890903725e+00 -1.5951943708427399e+00 -1.1998822316321134e+00 
        </Neuron>
        <Neuron NSynapses="15">
          -8.0568998761993998e-02 -2.2716903215584783e-02 1.1874484561005108e+00 -9.5282684590442357e-01 -7.3019877852005233e-01 1.8116033470073278e+00 -8.9866570339593188e-01 -1.5806389143859105e+00 -1.7961507011086670e+00 -1.6910081045116261e+00 -1.7370518897354201e+00 -2.3327781980363356e+00 7.6433685575827837e-01 1.6756497467773952e+00 -1.3936824388562448e+00 
        </Neuron>
        <Neuron NSynapses="15">
          1.6322593379693093e+00 -8.8502398022657325e-01 -8.6919707333505081e-01 2.7349587892663613e-01 3.7187062336548093e-01 -1.3527810860952498e+00 2.8092192045162867e-01 1.3928235451113985e-01 3.3276710644598279e-01 -1.8314261100218567e+00 1.0062305804841887e+00 9.3393021079122993e-02 -1.0335374055865478e+00 9.1202260345656361e-01 -1.2322143881474481e+00 
        </Neuron>
        <Neuron NSynapses="15">
          -1.5279040108087283e+00 2.3626153152723359e-01 -4.5645236319966154e-01 1.9504029474608138e+00 8.2207443749265852e-01 5.0970955371713234e-01 -3.9711095558705639e-01 -2.0175545026937011e-02 -1.7292370112072566e+00 5.1539922648056025e-01 -8.8160435545685645e-01 -1.8502709613088575e+00 5.8905363901066088e-01 -1.3366333392309802e+00 -5.5646594581626674e-01 
        </Neuron>
        <Neuron NSynapses="15">
          1.1737728762918094e+00 1.8202020871834144e+00 -1.9453744330646547e+00 5.3400928844547990e-01 1.6000539654937938e+00 2.1227422830998712e+00 1.6696839772227395e-02 -1.6169874575044463e+00 -1.4001477144186447e-01 -1.8509733911429518e+00 6.1620119722547162e-01 8.8581130080440140e-01 -5.6260042732227711e-01 -3.1516686801831550e-01 -5.3622774773178239e-01 
        </Neuron>
        <Neuron NSynapses="15">
          -1.4577257209861869e+00 5.0327249217244685e-01 2.1097216004697579e+00 -1.2233780585620342e+00 -6.9879621695981775e-01 -1.4025863966364613e-01 1.2012724945146906e+00 7.0155198978229061e-01 1.2961456543046501e+00 -3.1198616764998705e-01 2.4222512121469966e+00 1.3466835863892219e+00 4.9312089241855012e-01 5.2890625195405949e-01 1.4822525818254457e+00 
        </Neuron>
      </Layer>
      <Layer Index="1" NNeurons="16">
        <Neuron NSynapses="1">
          5.0244749511628049e-04 
        </Neuron>
        <Neuron NSynapses="1">
          2.6772679377373198e-03 
        </Neuron>
        <Neuron NSynapses="1">
          -8.4130089197978278e-03 
        </Neuron>
        <Neuron NSynapses="1">
          9.0961041106126350e-02 
        </Neuron>
        <Neuron NSynapses="1">
          6.3247846027828618e-03 
        </Neuron>
        <Neuron NSynapses="1">
          -1.8929993834172529e-02 
        </Neuron>
        <Neuron NSynapses="1">
          1.2589091278141988e+00 
        </Neuron>
        <Neuron NSynapses="1">
          9.9779544713582656e-03 
        </Neuron>
        <Neuron NSynapses="1">
          1.7242772586194943e+00 
        </Neuron>
        <Neuron NSynapses="1">
          1.0076224439992341e+00 
        </Neuron>
        <Neuron NSynapses="1">
          -8.1888450775109489e-01 
        </Neuron>
        <Neuron NSynapses="1">
          2.2236164050622573e-01 
        </Neuron>
        <Neuron NSynapses="1">
          1.4016570699473920e-03 
        </Neuron>
        <Neuron NSynapses="1">
          2.4631137649009749e-03 
        </Neuron>
        <Neuron NSynapses="1">
          -1.1075429251717035e+00 
        </Neuron>
        <Neuron NSynapses="1">
          -1.2061359790281820e+00 
        </Neuron>
      </Layer>
      <Layer Index="2" NNeurons="1">
        <Neuron NSynapses="0"/>
      </Layer>
    </Layout>
  </Weights>
</MethodSetup>
