<?xml version="1.0"?>
<MethodSetup Method="MLP::MLP">
  <GeneralInfo>
    <Info name="TMVA Release" value="4.2.0 [262656]"/>
    <Info name="ROOT Release" value="6.02/13 [393741]"/>
    <Info name="Creator" value="leure"/>
    <Info name="Date" value="Wed Jun  7 20:26:26 2017"/>
    <Info name="Host" value="Linux vocms029.cern.ch 2.6.32-504.12.2.el6.x86_64 #1 SMP Thu Mar 12 07:33:00 CET 2015 x86_64 x86_64 x86_64 GNU/Linux"/>
    <Info name="Dir" value="/data/leure/TMVA_Luke/myTMVA"/>
    <Info name="Training events" value="7463"/>
    <Info name="TrainingTime" value="4.71557801e+01"/>
    <Info name="AnalysisType" value="Classification"/>
  </GeneralInfo>
  <Options>
    <Option name="NCycles" modified="Yes">600</Option>
    <Option name="HiddenLayers" modified="Yes">N+5</Option>
    <Option name="NeuronType" modified="Yes">tanh</Option>
    <Option name="RandomSeed" modified="No">1</Option>
    <Option name="EstimatorType" modified="No">MSE</Option>
    <Option name="NeuronInputType" modified="No">sum</Option>
    <Option name="V" modified="Yes">False</Option>
    <Option name="VerbosityLevel" modified="No">Default</Option>
    <Option name="VarTransform" modified="Yes">N</Option>
    <Option name="H" modified="Yes">True</Option>
    <Option name="CreateMVAPdfs" modified="No">False</Option>
    <Option name="IgnoreNegWeightsInTraining" modified="No">False</Option>
    <Option name="TrainingMethod" modified="No">BP</Option>
    <Option name="LearningRate" modified="No">2.000000e-02</Option>
    <Option name="DecayRate" modified="No">1.000000e-02</Option>
    <Option name="TestRate" modified="Yes">5</Option>
    <Option name="EpochMonitoring" modified="No">False</Option>
    <Option name="Sampling" modified="No">1.000000e+00</Option>
    <Option name="SamplingEpoch" modified="No">1.000000e+00</Option>
    <Option name="SamplingImportance" modified="No">1.000000e+00</Option>
    <Option name="SamplingTraining" modified="No">True</Option>
    <Option name="SamplingTesting" modified="No">False</Option>
    <Option name="ResetStep" modified="No">50</Option>
    <Option name="Tau" modified="No">3.000000e+00</Option>
    <Option name="BPMode" modified="No">sequential</Option>
    <Option name="BatchSize" modified="No">-1</Option>
    <Option name="ConvergenceImprove" modified="No">1.000000e-30</Option>
    <Option name="ConvergenceTests" modified="No">-1</Option>
    <Option name="UseRegulator" modified="Yes">False</Option>
    <Option name="UpdateLimit" modified="No">10000</Option>
    <Option name="CalculateErrors" modified="No">False</Option>
    <Option name="WeightRange" modified="No">1.000000e+00</Option>
  </Options>
  <Variables NVar="10">
    <Variable VarIndex="0" Expression="Dtrk1Pt" Label="Dtrk1Pt" Title="Dtrk1Pt" Unit="" Internal="Dtrk1Pt" Type="F" Min="5.01306593e-01" Max="3.17663536e+01"/>
    <Variable VarIndex="1" Expression="DRestrk1Pt" Label="DRestrk1Pt" Title="DRestrk1Pt" Unit="" Internal="DRestrk1Pt" Type="F" Min="5.48754513e-01" Max="3.59360046e+01"/>
    <Variable VarIndex="2" Expression="DRestrk2Pt" Label="DRestrk2Pt" Title="DRestrk2Pt" Unit="" Internal="DRestrk2Pt" Type="F" Min="5.10877550e-01" Max="3.55400772e+01"/>
    <Variable VarIndex="3" Expression="DtktkRespt" Label="DtktkRespt" Title="DtktkRespt" Unit="" Internal="DtktkRespt" Type="F" Min="8.00182915e+00" Max="3.92910881e+01"/>
    <Variable VarIndex="4" Expression="Dchi2cl" Label="Dchi2cl" Title="Dchi2cl" Unit="" Internal="Dchi2cl" Type="F" Min="5.01100495e-02" Max="9.99680161e-01"/>
    <Variable VarIndex="5" Expression="DtktkRes_chi2cl" Label="DtktkRes_chi2cl" Title="DtktkRes_chi2cl" Unit="" Internal="DtktkRes_chi2cl" Type="F" Min="5.00016920e-02" Max="9.99951482e-01"/>
    <Variable VarIndex="6" Expression="Dalpha" Label="Dalpha" Title="Dalpha" Unit="" Internal="Dalpha" Type="F" Min="5.61032721e-05" Max="1.99938640e-01"/>
    <Variable VarIndex="7" Expression="DtktkRes_alpha" Label="DtktkRes_alpha" Title="DtktkRes_alpha" Unit="" Internal="DtktkRes_alpha" Type="F" Min="1.85141966e-04" Max="1.99973419e-01"/>
    <Variable VarIndex="8" Expression="DsvpvDistance/DsvpvDisErr" Label="DsvpvDistance/DsvpvDisErr" Title="DsvpvDistance/DsvpvDisErr" Unit="" Internal="DsvpvDistance_D_DsvpvDisErr" Type="F" Min="2.00123549e+00" Max="1.08470032e+03"/>
    <Variable VarIndex="9" Expression="DtktkRes_svpvDistance/DtktkRes_svpvDisErr" Label="DtktkRes_svpvDistance/DtktkRes_svpvDisErr" Title="DtktkRes_svpvDistance/DtktkRes_svpvDisErr" Unit="" Internal="DtktkRes_svpvDistance_D_DtktkRes_svpvDisErr" Type="F" Min="2.00810289e+00" Max="3.67070740e+02"/>
  </Variables>
  <Spectators NSpec="0"/>
  <Classes NClass="2">
    <Class Name="Signal" Index="0"/>
    <Class Name="Background" Index="1"/>
  </Classes>
  <Transformations NTransformations="1">
    <Transform Name="Normalize">
      <Selection>
        <Input NInputs="10">
          <Input Type="Variable" Label="Dtrk1Pt" Expression="Dtrk1Pt"/>
          <Input Type="Variable" Label="DRestrk1Pt" Expression="DRestrk1Pt"/>
          <Input Type="Variable" Label="DRestrk2Pt" Expression="DRestrk2Pt"/>
          <Input Type="Variable" Label="DtktkRespt" Expression="DtktkRespt"/>
          <Input Type="Variable" Label="Dchi2cl" Expression="Dchi2cl"/>
          <Input Type="Variable" Label="DtktkRes_chi2cl" Expression="DtktkRes_chi2cl"/>
          <Input Type="Variable" Label="Dalpha" Expression="Dalpha"/>
          <Input Type="Variable" Label="DtktkRes_alpha" Expression="DtktkRes_alpha"/>
          <Input Type="Variable" Label="DsvpvDistance/DsvpvDisErr" Expression="DsvpvDistance/DsvpvDisErr"/>
          <Input Type="Variable" Label="DtktkRes_svpvDistance/DtktkRes_svpvDisErr" Expression="DtktkRes_svpvDistance/DtktkRes_svpvDisErr"/>
        </Input>
        <Output NOutputs="10">
          <Output Type="Variable" Label="Dtrk1Pt" Expression="Dtrk1Pt"/>
          <Output Type="Variable" Label="DRestrk1Pt" Expression="DRestrk1Pt"/>
          <Output Type="Variable" Label="DRestrk2Pt" Expression="DRestrk2Pt"/>
          <Output Type="Variable" Label="DtktkRespt" Expression="DtktkRespt"/>
          <Output Type="Variable" Label="Dchi2cl" Expression="Dchi2cl"/>
          <Output Type="Variable" Label="DtktkRes_chi2cl" Expression="DtktkRes_chi2cl"/>
          <Output Type="Variable" Label="Dalpha" Expression="Dalpha"/>
          <Output Type="Variable" Label="DtktkRes_alpha" Expression="DtktkRes_alpha"/>
          <Output Type="Variable" Label="DsvpvDistance/DsvpvDisErr" Expression="DsvpvDistance/DsvpvDisErr"/>
          <Output Type="Variable" Label="DtktkRes_svpvDistance/DtktkRes_svpvDisErr" Expression="DtktkRes_svpvDistance/DtktkRes_svpvDisErr"/>
        </Output>
      </Selection>
      <Class ClassIndex="0">
        <Ranges>
          <Range Index="0" Min="5.0268149375915527e-01" Max="3.1766353607177734e+01"/>
          <Range Index="1" Min="5.4875451326370239e-01" Max="3.5936004638671875e+01"/>
          <Range Index="2" Min="5.1087754964828491e-01" Max="3.3682220458984375e+01"/>
          <Range Index="3" Min="8.0018291473388672e+00" Max="3.8960136413574219e+01"/>
          <Range Index="4" Min="5.0124865025281906e-02" Max="9.9968016147613525e-01"/>
          <Range Index="5" Min="5.0001692026853561e-02" Max="9.9995148181915283e-01"/>
          <Range Index="6" Min="5.6103272072505206e-05" Max="1.9993863999843597e-01"/>
          <Range Index="7" Min="5.2109372336417437e-04" Max="1.9997341930866241e-01"/>
          <Range Index="8" Min="2.0119574069976807e+00" Max="3.5673437500000000e+02"/>
          <Range Index="9" Min="2.0086166858673096e+00" Max="3.6707073974609375e+02"/>
        </Ranges>
      </Class>
      <Class ClassIndex="1">
        <Ranges>
          <Range Index="0" Min="5.0130659341812134e-01" Max="2.9634725570678711e+01"/>
          <Range Index="1" Min="5.8035784959793091e-01" Max="3.5152324676513672e+01"/>
          <Range Index="2" Min="5.3302133083343506e-01" Max="3.5540077209472656e+01"/>
          <Range Index="3" Min="8.1642293930053711e+00" Max="3.9291088104248047e+01"/>
          <Range Index="4" Min="5.0110049545764923e-02" Max="9.9231773614883423e-01"/>
          <Range Index="5" Min="5.1306158304214478e-02" Max="9.9735516309738159e-01"/>
          <Range Index="6" Min="1.4037181390449405e-03" Max="1.9993601739406586e-01"/>
          <Range Index="7" Min="1.8514196563046426e-04" Max="1.9325864315032959e-01"/>
          <Range Index="8" Min="2.0012354850769043e+00" Max="1.0847003173828125e+03"/>
          <Range Index="9" Min="2.0081028938293457e+00" Max="3.3346270751953125e+02"/>
        </Ranges>
      </Class>
      <Class ClassIndex="2">
        <Ranges>
          <Range Index="0" Min="5.0130659341812134e-01" Max="3.1766353607177734e+01"/>
          <Range Index="1" Min="5.4875451326370239e-01" Max="3.5936004638671875e+01"/>
          <Range Index="2" Min="5.1087754964828491e-01" Max="3.5540077209472656e+01"/>
          <Range Index="3" Min="8.0018291473388672e+00" Max="3.9291088104248047e+01"/>
          <Range Index="4" Min="5.0110049545764923e-02" Max="9.9968016147613525e-01"/>
          <Range Index="5" Min="5.0001692026853561e-02" Max="9.9995148181915283e-01"/>
          <Range Index="6" Min="5.6103272072505206e-05" Max="1.9993863999843597e-01"/>
          <Range Index="7" Min="1.8514196563046426e-04" Max="1.9997341930866241e-01"/>
          <Range Index="8" Min="2.0012354850769043e+00" Max="1.0847003173828125e+03"/>
          <Range Index="9" Min="2.0081028938293457e+00" Max="3.6707073974609375e+02"/>
        </Ranges>
      </Class>
    </Transform>
  </Transformations>
  <MVAPdfs/>
  <Weights>
    <Layout NLayers="3">
      <Layer Index="0" NNeurons="11">
        <Neuron NSynapses="15">
          -1.7670826589476489e+00 1.1019095491787727e+00 1.0140852089444112e+00 1.6079388953145959e+00 -1.6614067840532578e+00 -4.6177880663148549e+00 -6.6092538469095041e-01 6.6520088659221455e-01 -1.5736562908987854e+00 9.2297865227401701e-02 -3.0035444798682307e+00 4.3519795200524820e+00 2.3445219923538912e-01 1.1019020103402699e+00 -6.3422053893753827e-02 
        </Neuron>
        <Neuron NSynapses="15">
          -1.0287022063228389e-01 -1.5398995188437645e+00 2.0154887423538534e+00 3.7914474047665492e-01 1.3544246186343445e+00 -1.5054381359906499e+00 -1.3410094137744757e+00 3.0015145342452521e-01 -1.7264037762258491e-01 -1.1358400026617164e+00 -2.1422846660701469e-01 3.3292416866196156e-01 5.6318206661364190e-01 -3.1616428896081322e-01 5.4054908505725896e-01 
        </Neuron>
        <Neuron NSynapses="15">
          -5.1115361508093116e-01 -9.9957594838569341e-01 4.1545887050767984e-02 1.5592506145887783e-01 9.0535884294504965e-01 -4.7039262547773925e-01 -1.5944160559148046e+00 2.1717838952315588e-01 -1.5527315949751483e+00 2.0768498059856206e+00 3.1559880319872774e-01 1.8024709115568899e-01 3.4481938358652768e+00 2.1173810215576907e+00 -4.0244207875709298e-01 
        </Neuron>
        <Neuron NSynapses="15">
          -1.9575592667763884e+00 -1.3394025107484941e+00 3.2049464093208141e-01 1.5502299627866769e+00 1.4271890758279198e+00 6.6668076955943134e-01 1.0800189845222607e+00 -2.2454927185111710e+00 9.9904205247258449e-01 -1.9366098506148008e+00 -9.8311491583956190e-01 -7.4575897408568781e-01 -2.3888526152623221e-01 1.9400968146307771e+00 7.5350490093113642e-01 
        </Neuron>
        <Neuron NSynapses="15">
          -1.5658132118196897e+00 -1.6613458646748080e-02 -4.9970241913474811e-01 -2.3305196145918899e-01 9.7553797132355757e-01 -4.6314022520766207e-01 -2.8149178931779029e-01 -8.4268003725322815e-01 5.1247044755041316e-01 -5.3462589277517694e-02 -4.1781097295810299e-01 1.8200465656150103e-01 7.4124938543275443e-01 1.7385691178659028e+00 9.3133626256995372e-01 
        </Neuron>
        <Neuron NSynapses="15">
          -1.5510647105786749e-03 -2.0870668389997338e+00 -1.7338831307301794e+00 5.1954433050665705e-01 -4.1568342817782977e-01 1.0383049049739648e+00 -3.3701872038039521e-01 -6.2088574285516263e-01 -4.8160808517273512e-01 -1.6096659133320501e-01 -3.6240275479939571e-01 2.3842123693279776e-03 4.9375173651575688e-01 -7.8094778546613608e-01 -2.4323528823060898e+00 
        </Neuron>
        <Neuron NSynapses="15">
          -1.3514713568769707e+00 -1.4225866750455163e+00 1.9393283472773699e+00 -1.0078465584432792e+00 3.9752421802800525e-01 3.5918573680032734e-02 -1.1510948940768611e+00 -8.1669940346795289e-01 -1.1979261976963353e+00 5.0747444063864044e-01 -1.2279974106609082e+00 -6.6084785293414317e-01 8.0336013832899567e-02 2.7889770989820146e+00 -1.1416103396987076e+00 
        </Neuron>
        <Neuron NSynapses="15">
          5.3266783656272654e-01 -2.5641855743696368e-01 -6.2188720444322287e-01 -2.6565056569531155e-02 7.9050479994595202e-01 -9.4912821235655531e-01 4.3277568748092599e-01 -8.9785865055718084e-01 1.1044957943087350e-01 -2.8657473919550591e-01 8.3232538979911252e-01 2.8103580985243531e-01 2.3293585210261375e-01 1.1357017883510141e+00 -2.9307983801171774e-02 
        </Neuron>
        <Neuron NSynapses="15">
          -2.7319874252548604e+00 -2.3656236497436471e+00 2.8222733521521054e-01 2.6671177019494690e+00 2.1621290733910978e+00 -1.2241313645472183e+00 -1.1196139175924260e+00 -1.9951955426863646e+00 -2.0943710957359603e+00 2.4958154452127586e+00 -9.6732747687834220e-01 -3.1563229887995972e+00 3.2071059768596397e+00 1.0308380969078028e+00 9.9573172200004301e-01 
        </Neuron>
        <Neuron NSynapses="15">
          -2.9631238590815095e-01 7.7698357092905823e-01 -1.2428931544193154e+00 1.2095779338998358e+00 2.8979270646330706e+00 -5.3047087347468835e-01 -7.0755870640566787e-01 -3.3965578670526542e+00 -5.7101216208731453e-01 -3.8202999315220657e-02 5.4831714352618954e-01 2.3289568741283282e+00 2.0483157559896110e+00 1.4540311117387066e+00 1.0141813319374258e+00 
        </Neuron>
        <Neuron NSynapses="15">
          1.0135315822331634e+00 3.2789723114768012e+00 1.1173904463381603e+00 -1.2666701451600793e+00 -1.5422637993090471e+00 1.0653787946895217e+00 1.7534170632931181e+00 2.5788268824988680e+00 1.3702894096436011e+00 -3.0166375538596237e+00 2.6584760297040781e+00 4.0639812065942227e+00 -2.1042004471436666e+00 -2.3497331001269597e+00 4.1608661731842612e-02 
        </Neuron>
      </Layer>
      <Layer Index="1" NNeurons="16">
        <Neuron NSynapses="1">
          3.5275221353084873e+00 
        </Neuron>
        <Neuron NSynapses="1">
          -2.2119600352248505e+00 
        </Neuron>
        <Neuron NSynapses="1">
          -9.4288808704465401e-03 
        </Neuron>
        <Neuron NSynapses="1">
          -9.6543620057766089e-01 
        </Neuron>
        <Neuron NSynapses="1">
          4.1303031411354976e+00 
        </Neuron>
        <Neuron NSynapses="1">
          3.4130957883494162e-03 
        </Neuron>
        <Neuron NSynapses="1">
          -2.4339960407762469e+00 
        </Neuron>
        <Neuron NSynapses="1">
          2.7070797248502574e+00 
        </Neuron>
        <Neuron NSynapses="1">
          2.6273196040647169e+00 
        </Neuron>
        <Neuron NSynapses="1">
          9.9443004867411167e-01 
        </Neuron>
        <Neuron NSynapses="1">
          2.5282915364317944e+00 
        </Neuron>
        <Neuron NSynapses="1">
          8.4649785788317444e-01 
        </Neuron>
        <Neuron NSynapses="1">
          -3.3353422355074797e-01 
        </Neuron>
        <Neuron NSynapses="1">
          2.4372749384719592e+00 
        </Neuron>
        <Neuron NSynapses="1">
          1.1924306706024469e-02 
        </Neuron>
        <Neuron NSynapses="1">
          -3.1267899179663911e-01 
        </Neuron>
      </Layer>
      <Layer Index="2" NNeurons="1">
        <Neuron NSynapses="0"/>
      </Layer>
    </Layout>
  </Weights>
</MethodSetup>
