<?xml version="1.0"?>
<MethodSetup Method="MLP::MLP">
  <GeneralInfo>
    <Info name="TMVA Release" value="4.2.0 [262656]"/>
    <Info name="ROOT Release" value="6.02/13 [393741]"/>
    <Info name="Creator" value="leure"/>
    <Info name="Date" value="Tue Jun  6 17:22:01 2017"/>
    <Info name="Host" value="Linux vocms029.cern.ch 2.6.32-504.12.2.el6.x86_64 #1 SMP Thu Mar 12 07:33:00 CET 2015 x86_64 x86_64 x86_64 GNU/Linux"/>
    <Info name="Dir" value="/data/leure/TMVA_Luke/myTMVA"/>
    <Info name="Training events" value="8292"/>
    <Info name="TrainingTime" value="5.02698650e+01"/>
    <Info name="AnalysisType" value="Classification"/>
  </GeneralInfo>
  <Options>
    <Option name="NCycles" modified="Yes">600</Option>
    <Option name="HiddenLayers" modified="Yes">N+5</Option>
    <Option name="NeuronType" modified="Yes">tanh</Option>
    <Option name="RandomSeed" modified="No">1</Option>
    <Option name="EstimatorType" modified="No">MSE</Option>
    <Option name="NeuronInputType" modified="No">sum</Option>
    <Option name="V" modified="Yes">False</Option>
    <Option name="VerbosityLevel" modified="No">Default</Option>
    <Option name="VarTransform" modified="Yes">N</Option>
    <Option name="H" modified="Yes">True</Option>
    <Option name="CreateMVAPdfs" modified="No">False</Option>
    <Option name="IgnoreNegWeightsInTraining" modified="No">False</Option>
    <Option name="TrainingMethod" modified="No">BP</Option>
    <Option name="LearningRate" modified="No">2.000000e-02</Option>
    <Option name="DecayRate" modified="No">1.000000e-02</Option>
    <Option name="TestRate" modified="Yes">5</Option>
    <Option name="EpochMonitoring" modified="No">False</Option>
    <Option name="Sampling" modified="No">1.000000e+00</Option>
    <Option name="SamplingEpoch" modified="No">1.000000e+00</Option>
    <Option name="SamplingImportance" modified="No">1.000000e+00</Option>
    <Option name="SamplingTraining" modified="No">True</Option>
    <Option name="SamplingTesting" modified="No">False</Option>
    <Option name="ResetStep" modified="No">50</Option>
    <Option name="Tau" modified="No">3.000000e+00</Option>
    <Option name="BPMode" modified="No">sequential</Option>
    <Option name="BatchSize" modified="No">-1</Option>
    <Option name="ConvergenceImprove" modified="No">1.000000e-30</Option>
    <Option name="ConvergenceTests" modified="No">-1</Option>
    <Option name="UseRegulator" modified="Yes">False</Option>
    <Option name="UpdateLimit" modified="No">10000</Option>
    <Option name="CalculateErrors" modified="No">False</Option>
    <Option name="WeightRange" modified="No">1.000000e+00</Option>
  </Options>
  <Variables NVar="10">
    <Variable VarIndex="0" Expression="Dtrk1Pt" Label="Dtrk1Pt" Title="Dtrk1Pt" Unit="" Internal="Dtrk1Pt" Type="F" Min="5.04029989e-01" Max="4.18308334e+01"/>
    <Variable VarIndex="1" Expression="DRestrk1Pt" Label="DRestrk1Pt" Title="DRestrk1Pt" Unit="" Internal="DRestrk1Pt" Type="F" Min="5.71486890e-01" Max="4.79671860e+01"/>
    <Variable VarIndex="2" Expression="DRestrk2Pt" Label="DRestrk2Pt" Title="DRestrk2Pt" Unit="" Internal="DRestrk2Pt" Type="F" Min="5.01210988e-01" Max="4.36604042e+01"/>
    <Variable VarIndex="3" Expression="DtktkRespt" Label="DtktkRespt" Title="DtktkRespt" Unit="" Internal="DtktkRespt" Type="F" Min="8.00377178e+00" Max="4.91006088e+01"/>
    <Variable VarIndex="4" Expression="Dchi2cl" Label="Dchi2cl" Title="Dchi2cl" Unit="" Internal="Dchi2cl" Type="F" Min="5.00181615e-02" Max="9.99920845e-01"/>
    <Variable VarIndex="5" Expression="DtktkRes_chi2cl" Label="DtktkRes_chi2cl" Title="DtktkRes_chi2cl" Unit="" Internal="DtktkRes_chi2cl" Type="F" Min="5.01567982e-02" Max="9.99939144e-01"/>
    <Variable VarIndex="6" Expression="Dalpha" Label="Dalpha" Title="Dalpha" Unit="" Internal="Dalpha" Type="F" Min="3.97841468e-05" Max="1.99938640e-01"/>
    <Variable VarIndex="7" Expression="DtktkRes_alpha" Label="DtktkRes_alpha" Title="DtktkRes_alpha" Unit="" Internal="DtktkRes_alpha" Type="F" Min="6.32901501e-04" Max="1.99953571e-01"/>
    <Variable VarIndex="8" Expression="DsvpvDistance/DsvpvDisErr" Label="DsvpvDistance/DsvpvDisErr" Title="DsvpvDistance/DsvpvDisErr" Unit="" Internal="DsvpvDistance_D_DsvpvDisErr" Type="F" Min="2.00123549e+00" Max="6.33239868e+02"/>
    <Variable VarIndex="9" Expression="DtktkRes_svpvDistance/DtktkRes_svpvDisErr" Label="DtktkRes_svpvDistance/DtktkRes_svpvDisErr" Title="DtktkRes_svpvDistance/DtktkRes_svpvDisErr" Unit="" Internal="DtktkRes_svpvDistance_D_DtktkRes_svpvDisErr" Type="F" Min="2.00574875e+00" Max="2.48740738e+02"/>
  </Variables>
  <Spectators NSpec="0"/>
  <Classes NClass="2">
    <Class Name="Signal" Index="0"/>
    <Class Name="Background" Index="1"/>
  </Classes>
  <Transformations NTransformations="1">
    <Transform Name="Normalize">
      <Selection>
        <Input NInputs="10">
          <Input Type="Variable" Label="Dtrk1Pt" Expression="Dtrk1Pt"/>
          <Input Type="Variable" Label="DRestrk1Pt" Expression="DRestrk1Pt"/>
          <Input Type="Variable" Label="DRestrk2Pt" Expression="DRestrk2Pt"/>
          <Input Type="Variable" Label="DtktkRespt" Expression="DtktkRespt"/>
          <Input Type="Variable" Label="Dchi2cl" Expression="Dchi2cl"/>
          <Input Type="Variable" Label="DtktkRes_chi2cl" Expression="DtktkRes_chi2cl"/>
          <Input Type="Variable" Label="Dalpha" Expression="Dalpha"/>
          <Input Type="Variable" Label="DtktkRes_alpha" Expression="DtktkRes_alpha"/>
          <Input Type="Variable" Label="DsvpvDistance/DsvpvDisErr" Expression="DsvpvDistance/DsvpvDisErr"/>
          <Input Type="Variable" Label="DtktkRes_svpvDistance/DtktkRes_svpvDisErr" Expression="DtktkRes_svpvDistance/DtktkRes_svpvDisErr"/>
        </Input>
        <Output NOutputs="10">
          <Output Type="Variable" Label="Dtrk1Pt" Expression="Dtrk1Pt"/>
          <Output Type="Variable" Label="DRestrk1Pt" Expression="DRestrk1Pt"/>
          <Output Type="Variable" Label="DRestrk2Pt" Expression="DRestrk2Pt"/>
          <Output Type="Variable" Label="DtktkRespt" Expression="DtktkRespt"/>
          <Output Type="Variable" Label="Dchi2cl" Expression="Dchi2cl"/>
          <Output Type="Variable" Label="DtktkRes_chi2cl" Expression="DtktkRes_chi2cl"/>
          <Output Type="Variable" Label="Dalpha" Expression="Dalpha"/>
          <Output Type="Variable" Label="DtktkRes_alpha" Expression="DtktkRes_alpha"/>
          <Output Type="Variable" Label="DsvpvDistance/DsvpvDisErr" Expression="DsvpvDistance/DsvpvDisErr"/>
          <Output Type="Variable" Label="DtktkRes_svpvDistance/DtktkRes_svpvDisErr" Expression="DtktkRes_svpvDistance/DtktkRes_svpvDisErr"/>
        </Output>
      </Selection>
      <Class ClassIndex="0">
        <Ranges>
          <Range Index="0" Min="5.0618189573287964e-01" Max="4.1830833435058594e+01"/>
          <Range Index="1" Min="5.7148689031600952e-01" Max="4.7967185974121094e+01"/>
          <Range Index="2" Min="5.0121098756790161e-01" Max="4.0765129089355469e+01"/>
          <Range Index="3" Min="8.0037717819213867e+00" Max="4.9100608825683594e+01"/>
          <Range Index="4" Min="5.0018161535263062e-02" Max="9.9992084503173828e-01"/>
          <Range Index="5" Min="5.0156798213720322e-02" Max="9.9993914365768433e-01"/>
          <Range Index="6" Min="3.9784146792953834e-05" Max="1.9993863999843597e-01"/>
          <Range Index="7" Min="6.3290150137618184e-04" Max="1.9995357096195221e-01"/>
          <Range Index="8" Min="2.0015206336975098e+00" Max="5.8785656738281250e+02"/>
          <Range Index="9" Min="2.0057487487792969e+00" Max="2.4874073791503906e+02"/>
        </Ranges>
      </Class>
      <Class ClassIndex="1">
        <Ranges>
          <Range Index="0" Min="5.0402998924255371e-01" Max="3.3694190979003906e+01"/>
          <Range Index="1" Min="6.2634122371673584e-01" Max="4.7323989868164062e+01"/>
          <Range Index="2" Min="5.1357614994049072e-01" Max="4.3660404205322266e+01"/>
          <Range Index="3" Min="8.2273664474487305e+00" Max="4.8058036804199219e+01"/>
          <Range Index="4" Min="5.0725005567073822e-02" Max="9.9015259742736816e-01"/>
          <Range Index="5" Min="5.1306158304214478e-02" Max="9.9224668741226196e-01"/>
          <Range Index="6" Min="3.4592205192893744e-03" Max="1.9993601739406586e-01"/>
          <Range Index="7" Min="8.3885947242379189e-04" Max="1.9325864315032959e-01"/>
          <Range Index="8" Min="2.0012354850769043e+00" Max="6.3323986816406250e+02"/>
          <Range Index="9" Min="2.0105891227722168e+00" Max="9.9933120727539062e+01"/>
        </Ranges>
      </Class>
      <Class ClassIndex="2">
        <Ranges>
          <Range Index="0" Min="5.0402998924255371e-01" Max="4.1830833435058594e+01"/>
          <Range Index="1" Min="5.7148689031600952e-01" Max="4.7967185974121094e+01"/>
          <Range Index="2" Min="5.0121098756790161e-01" Max="4.3660404205322266e+01"/>
          <Range Index="3" Min="8.0037717819213867e+00" Max="4.9100608825683594e+01"/>
          <Range Index="4" Min="5.0018161535263062e-02" Max="9.9992084503173828e-01"/>
          <Range Index="5" Min="5.0156798213720322e-02" Max="9.9993914365768433e-01"/>
          <Range Index="6" Min="3.9784146792953834e-05" Max="1.9993863999843597e-01"/>
          <Range Index="7" Min="6.3290150137618184e-04" Max="1.9995357096195221e-01"/>
          <Range Index="8" Min="2.0012354850769043e+00" Max="6.3323986816406250e+02"/>
          <Range Index="9" Min="2.0057487487792969e+00" Max="2.4874073791503906e+02"/>
        </Ranges>
      </Class>
    </Transform>
  </Transformations>
  <MVAPdfs/>
  <Weights>
    <Layout NLayers="3">
      <Layer Index="0" NNeurons="11">
        <Neuron NSynapses="15">
          -2.6356179025990567e+00 -1.0286788987042618e+02 -1.0509582943543312e+00 2.3278414206666067e+00 -8.0071823748358160e+00 1.7162608382382645e+00 -3.0631002008431212e-02 -8.4293779646681155e-01 -1.8109302864626091e+00 4.7946983526722837e+00 -2.2889247575372291e+00 -3.4274913785443131e+00 1.8813631766955994e+00 2.8557378050493831e+00 -2.9524484743047328e+00 
        </Neuron>
        <Neuron NSynapses="15">
          -1.5436107023157577e+00 -1.0481077371475857e+02 1.7429743515699711e-01 6.5306749823263355e-01 -7.4143800720916611e+00 1.8775723625489440e+00 -1.0985182065234238e+00 -1.8655467113175699e+00 -5.3423353042198607e-01 7.2416105028802678e+00 -7.5602958746014681e-01 -1.5309006271818486e+00 2.2035585993662297e+00 1.5419436888893352e+00 -2.4541981385096205e+00 
        </Neuron>
        <Neuron NSynapses="15">
          -8.3235323054735066e-01 -9.7795707311172535e+01 -1.3892300736353835e+00 1.2255261576610172e+00 -6.3287848190638973e+00 2.0478533565396289e+00 -9.9257232520591898e-01 5.8034143776835023e-03 -1.7334542635218952e+00 7.2261906921669974e+00 4.5728827155600393e-01 -2.0273847900306560e-02 3.2920065919571337e+00 2.3701545580694314e+00 -2.9421205386460407e+00 
        </Neuron>
        <Neuron NSynapses="15">
          -3.0721853343670942e+00 -9.7778276305090770e+01 -8.6064534376433383e-02 2.1123684596147543e+00 -6.5295531584491471e+00 2.7200938570429738e+00 1.0953983013158708e+00 -3.2369226886935567e+00 7.4813135748796400e-01 5.8294974430555984e+00 -1.1409467572293746e+00 -2.5530512972049464e+00 -6.4495337190915575e-02 3.1003440987631241e+00 -1.3454258554576133e+00 
        </Neuron>
        <Neuron NSynapses="15">
          -2.0723016989765203e-01 -1.4116419896320318e+02 7.2071245218841651e-01 1.4563157291632138e+00 7.6110909587795739e+00 -1.5139398995568880e+00 -1.3556973020822779e-02 2.7654574251046304e-01 1.9770671467809828e-01 -5.7949136536535359e+00 -4.6531894798996704e-01 1.6946832954768838e+00 -2.5330889137018411e+00 -1.7962083578624881e+00 1.8674332399454499e+00 
        </Neuron>
        <Neuron NSynapses="15">
          -1.7278730328460661e+00 1.0477608703622728e+01 -2.3410873106576440e+00 -1.1485268689371508e+00 6.4635534437288396e+00 4.9991298267087453e-02 -5.2654776125403962e-03 1.3094237070752888e+00 -5.3015495729280837e-01 -7.0173985627632272e+00 4.6248609644142458e-01 6.3436219387015336e-01 -3.3856421540887993e-01 -5.7043297091697931e-01 -2.3005761312899009e-01 
        </Neuron>
        <Neuron NSynapses="15">
          -1.8652693418010116e+00 -1.0591912024502317e+02 -1.7245652540808547e+00 6.8904431364974318e-03 -7.9644319602885068e+00 4.1814234115490478e-01 5.9009938517018759e-02 1.7202793139440870e-01 -1.3252110268459261e+00 6.1925682349511666e+00 -1.5246916805482256e+00 7.0216445095206648e-01 -6.2877065466692839e-01 -4.1780402357845098e-01 -1.1068843254816818e+00 
        </Neuron>
        <Neuron NSynapses="15">
          2.0377705587029918e-01 7.7248494541415354e+01 -1.0487963812681660e+00 4.2110680635396197e-01 -2.7388492792586333e-01 6.5766518515866401e-01 1.3077099955324450e-02 -1.4724613817515178e+00 -9.7351918921350977e-02 -7.6610599575843330e-01 9.9974455821476005e-01 -1.5164049042240035e+00 8.0004366285523920e-01 2.6895468940372425e+00 -3.4943820695188543e-01 
        </Neuron>
        <Neuron NSynapses="15">
          -2.5130932585458878e+00 -1.2817729542797596e+02 2.7377246979854497e-02 2.6860030741250602e+00 -9.1396047846286876e+00 3.3799379933973532e+00 -2.3240092528265775e-03 -3.7461048898957823e+00 -1.9896526903462954e+00 1.0454604287171879e+01 -1.2501311643227238e+00 -5.4651885192226128e+00 4.0747409411699111e+00 2.7523425752361206e+00 -3.8243139797503778e+00 
        </Neuron>
        <Neuron NSynapses="15">
          -1.9159863259511727e+00 -1.0620587099425633e+02 -1.1727199460161548e+00 6.3022429755282516e-01 -8.0227211445806219e+00 4.6284455383233167e+00 -6.8320690704216633e-02 -4.8732462648653634e+00 -8.4374723810648555e-01 7.7456807548005884e+00 2.0731728388185855e-01 -2.4320348428371075e+00 2.8680370568680944e+00 3.7398713563830719e+00 -3.9157215493067992e+00 
        </Neuron>
        <Neuron NSynapses="15">
          1.7921303808979376e+00 1.4718518890160490e+02 4.9122890360370670e+00 -2.2084258916681274e+00 9.8403148674015313e+00 -4.1440533110746030e+00 7.3838973461767832e-01 4.3158307403991776e+00 1.7266421439647399e+00 -1.1262191892658466e+01 2.8767828858178390e+00 4.4549976814193046e+00 -3.6348757697998355e+00 -3.5490463626100905e+00 4.7738142039494944e+00 
        </Neuron>
      </Layer>
      <Layer Index="1" NNeurons="16">
        <Neuron NSynapses="1">
          2.1715209801264702e+01 
        </Neuron>
        <Neuron NSynapses="1">
          1.4068540162783867e+01 
        </Neuron>
        <Neuron NSynapses="1">
          7.3747382316838417e+00 
        </Neuron>
        <Neuron NSynapses="1">
          6.5542659785386777e+00 
        </Neuron>
        <Neuron NSynapses="1">
          1.7833143055443362e+01 
        </Neuron>
        <Neuron NSynapses="1">
          6.8740347833292983e+00 
        </Neuron>
        <Neuron NSynapses="1">
          -5.7480880802136811e+00 
        </Neuron>
        <Neuron NSynapses="1">
          -6.0976394979385820e+00 
        </Neuron>
        <Neuron NSynapses="1">
          -5.0624325378357842e+00 
        </Neuron>
        <Neuron NSynapses="1">
          -1.2982759612226927e+01 
        </Neuron>
        <Neuron NSynapses="1">
          -7.9360466452342404e+00 
        </Neuron>
        <Neuron NSynapses="1">
          -6.7703251225882157e+00 
        </Neuron>
        <Neuron NSynapses="1">
          6.6571294921233566e+00 
        </Neuron>
        <Neuron NSynapses="1">
          6.9670949770506301e+00 
        </Neuron>
        <Neuron NSynapses="1">
          -6.6477108603388757e+00 
        </Neuron>
        <Neuron NSynapses="1">
          -8.2248882732538622e+00 
        </Neuron>
      </Layer>
      <Layer Index="2" NNeurons="1">
        <Neuron NSynapses="0"/>
      </Layer>
    </Layout>
  </Weights>
</MethodSetup>
