<?xml version="1.0"?>
<MethodSetup Method="MLP::MLP">
  <GeneralInfo>
    <Info name="TMVA Release" value="4.2.0 [262656]"/>
    <Info name="ROOT Release" value="6.02/13 [393741]"/>
    <Info name="Creator" value="leure"/>
    <Info name="Date" value="Mon Jun  5 16:50:08 2017"/>
    <Info name="Host" value="Linux vocms029.cern.ch 2.6.32-504.12.2.el6.x86_64 #1 SMP Thu Mar 12 07:33:00 CET 2015 x86_64 x86_64 x86_64 GNU/Linux"/>
    <Info name="Dir" value="/afs/cern.ch/user/l/leure/newWS/CMSSW_7_5_8_patch3/macros/TMVA_Luke/myTMVA"/>
    <Info name="Training events" value="2278"/>
    <Info name="TrainingTime" value="1.44714410e+01"/>
    <Info name="AnalysisType" value="Classification"/>
  </GeneralInfo>
  <Options>
    <Option name="NCycles" modified="Yes">600</Option>
    <Option name="HiddenLayers" modified="Yes">N+5</Option>
    <Option name="NeuronType" modified="Yes">tanh</Option>
    <Option name="RandomSeed" modified="No">1</Option>
    <Option name="EstimatorType" modified="No">MSE</Option>
    <Option name="NeuronInputType" modified="No">sum</Option>
    <Option name="V" modified="Yes">False</Option>
    <Option name="VerbosityLevel" modified="No">Default</Option>
    <Option name="VarTransform" modified="Yes">N</Option>
    <Option name="H" modified="Yes">True</Option>
    <Option name="CreateMVAPdfs" modified="No">False</Option>
    <Option name="IgnoreNegWeightsInTraining" modified="No">False</Option>
    <Option name="TrainingMethod" modified="No">BP</Option>
    <Option name="LearningRate" modified="No">2.000000e-02</Option>
    <Option name="DecayRate" modified="No">1.000000e-02</Option>
    <Option name="TestRate" modified="Yes">5</Option>
    <Option name="EpochMonitoring" modified="No">False</Option>
    <Option name="Sampling" modified="No">1.000000e+00</Option>
    <Option name="SamplingEpoch" modified="No">1.000000e+00</Option>
    <Option name="SamplingImportance" modified="No">1.000000e+00</Option>
    <Option name="SamplingTraining" modified="No">True</Option>
    <Option name="SamplingTesting" modified="No">False</Option>
    <Option name="ResetStep" modified="No">50</Option>
    <Option name="Tau" modified="No">3.000000e+00</Option>
    <Option name="BPMode" modified="No">sequential</Option>
    <Option name="BatchSize" modified="No">-1</Option>
    <Option name="ConvergenceImprove" modified="No">1.000000e-30</Option>
    <Option name="ConvergenceTests" modified="No">-1</Option>
    <Option name="UseRegulator" modified="Yes">False</Option>
    <Option name="UpdateLimit" modified="No">10000</Option>
    <Option name="CalculateErrors" modified="No">False</Option>
    <Option name="WeightRange" modified="No">1.000000e+00</Option>
  </Options>
  <Variables NVar="10">
    <Variable VarIndex="0" Expression="Dtrk1Pt" Label="Dtrk1Pt" Title="Dtrk1Pt" Unit="" Internal="Dtrk1Pt" Type="F" Min="5.00156283e-01" Max="1.19162598e+01"/>
    <Variable VarIndex="1" Expression="DRestrk1Pt" Label="DRestrk1Pt" Title="DRestrk1Pt" Unit="" Internal="DRestrk1Pt" Type="F" Min="5.28972030e-01" Max="1.79831829e+01"/>
    <Variable VarIndex="2" Expression="DRestrk2Pt" Label="DRestrk2Pt" Title="DRestrk2Pt" Unit="" Internal="DRestrk2Pt" Type="F" Min="5.03112733e-01" Max="1.79460926e+01"/>
    <Variable VarIndex="3" Expression="DtktkRespt" Label="DtktkRespt" Title="DtktkRespt" Unit="" Internal="DtktkRespt" Type="F" Min="8.00088215e+00" Max="1.97853203e+01"/>
    <Variable VarIndex="4" Expression="Dchi2cl" Label="Dchi2cl" Title="Dchi2cl" Unit="" Internal="Dchi2cl" Type="F" Min="5.02614193e-02" Max="9.99811888e-01"/>
    <Variable VarIndex="5" Expression="DtktkRes_chi2cl" Label="DtktkRes_chi2cl" Title="DtktkRes_chi2cl" Unit="" Internal="DtktkRes_chi2cl" Type="F" Min="5.15457802e-02" Max="9.99825299e-01"/>
    <Variable VarIndex="6" Expression="Dalpha" Label="Dalpha" Title="Dalpha" Unit="" Internal="Dalpha" Type="F" Min="9.73608549e-05" Max="1.99994683e-01"/>
    <Variable VarIndex="7" Expression="DtktkRes_alpha" Label="DtktkRes_alpha" Title="DtktkRes_alpha" Unit="" Internal="DtktkRes_alpha" Type="F" Min="6.20291161e-04" Max="1.99804559e-01"/>
    <Variable VarIndex="8" Expression="DsvpvDistance/DsvpvDisErr" Label="DsvpvDistance/DsvpvDisErr" Title="DsvpvDistance/DsvpvDisErr" Unit="" Internal="DsvpvDistance_D_DsvpvDisErr" Type="F" Min="2.00035477e+00" Max="1.01329718e+03"/>
    <Variable VarIndex="9" Expression="DtktkRes_svpvDistance/DtktkRes_svpvDisErr" Label="DtktkRes_svpvDistance/DtktkRes_svpvDisErr" Title="DtktkRes_svpvDistance/DtktkRes_svpvDisErr" Unit="" Internal="DtktkRes_svpvDistance_D_DtktkRes_svpvDisErr" Type="F" Min="2.00124073e+00" Max="1.53179230e+02"/>
  </Variables>
  <Spectators NSpec="0"/>
  <Classes NClass="2">
    <Class Name="Signal" Index="0"/>
    <Class Name="Background" Index="1"/>
  </Classes>
  <Transformations NTransformations="1">
    <Transform Name="Normalize">
      <Selection>
        <Input NInputs="10">
          <Input Type="Variable" Label="Dtrk1Pt" Expression="Dtrk1Pt"/>
          <Input Type="Variable" Label="DRestrk1Pt" Expression="DRestrk1Pt"/>
          <Input Type="Variable" Label="DRestrk2Pt" Expression="DRestrk2Pt"/>
          <Input Type="Variable" Label="DtktkRespt" Expression="DtktkRespt"/>
          <Input Type="Variable" Label="Dchi2cl" Expression="Dchi2cl"/>
          <Input Type="Variable" Label="DtktkRes_chi2cl" Expression="DtktkRes_chi2cl"/>
          <Input Type="Variable" Label="Dalpha" Expression="Dalpha"/>
          <Input Type="Variable" Label="DtktkRes_alpha" Expression="DtktkRes_alpha"/>
          <Input Type="Variable" Label="DsvpvDistance/DsvpvDisErr" Expression="DsvpvDistance/DsvpvDisErr"/>
          <Input Type="Variable" Label="DtktkRes_svpvDistance/DtktkRes_svpvDisErr" Expression="DtktkRes_svpvDistance/DtktkRes_svpvDisErr"/>
        </Input>
        <Output NOutputs="10">
          <Output Type="Variable" Label="Dtrk1Pt" Expression="Dtrk1Pt"/>
          <Output Type="Variable" Label="DRestrk1Pt" Expression="DRestrk1Pt"/>
          <Output Type="Variable" Label="DRestrk2Pt" Expression="DRestrk2Pt"/>
          <Output Type="Variable" Label="DtktkRespt" Expression="DtktkRespt"/>
          <Output Type="Variable" Label="Dchi2cl" Expression="Dchi2cl"/>
          <Output Type="Variable" Label="DtktkRes_chi2cl" Expression="DtktkRes_chi2cl"/>
          <Output Type="Variable" Label="Dalpha" Expression="Dalpha"/>
          <Output Type="Variable" Label="DtktkRes_alpha" Expression="DtktkRes_alpha"/>
          <Output Type="Variable" Label="DsvpvDistance/DsvpvDisErr" Expression="DsvpvDistance/DsvpvDisErr"/>
          <Output Type="Variable" Label="DtktkRes_svpvDistance/DtktkRes_svpvDisErr" Expression="DtktkRes_svpvDistance/DtktkRes_svpvDisErr"/>
        </Output>
      </Selection>
      <Class ClassIndex="0">
        <Ranges>
          <Range Index="0" Min="5.0135558843612671e-01" Max="1.1916259765625000e+01"/>
          <Range Index="1" Min="5.2897202968597412e-01" Max="1.7983182907104492e+01"/>
          <Range Index="2" Min="5.0395727157592773e-01" Max="1.6443519592285156e+01"/>
          <Range Index="3" Min="8.0008821487426758e+00" Max="1.9785320281982422e+01"/>
          <Range Index="4" Min="5.0438199192285538e-02" Max="9.9834156036376953e-01"/>
          <Range Index="5" Min="5.1545780152082443e-02" Max="9.9982529878616333e-01"/>
          <Range Index="6" Min="9.7360854852013290e-05" Max="1.9999468326568604e-01"/>
          <Range Index="7" Min="1.7870918381959200e-03" Max="1.9980455935001373e-01"/>
          <Range Index="8" Min="2.0003547668457031e+00" Max="1.3579530334472656e+02"/>
          <Range Index="9" Min="2.0597653388977051e+00" Max="1.0110533905029297e+02"/>
        </Ranges>
      </Class>
      <Class ClassIndex="1">
        <Ranges>
          <Range Index="0" Min="5.0015628337860107e-01" Max="1.0149288177490234e+01"/>
          <Range Index="1" Min="6.7978757619857788e-01" Max="1.7977661132812500e+01"/>
          <Range Index="2" Min="5.0311273336410522e-01" Max="1.7946092605590820e+01"/>
          <Range Index="3" Min="8.3337497711181641e+00" Max="1.9731840133666992e+01"/>
          <Range Index="4" Min="5.0261419266462326e-02" Max="9.9981188774108887e-01"/>
          <Range Index="5" Min="5.1944836974143982e-02" Max="9.9681794643402100e-01"/>
          <Range Index="6" Min="5.4871547035872936e-04" Max="1.9975912570953369e-01"/>
          <Range Index="7" Min="6.2029116088524461e-04" Max="1.9303156435489655e-01"/>
          <Range Index="8" Min="2.0016536712646484e+00" Max="1.0132971801757812e+03"/>
          <Range Index="9" Min="2.0012407302856445e+00" Max="1.5317922973632812e+02"/>
        </Ranges>
      </Class>
      <Class ClassIndex="2">
        <Ranges>
          <Range Index="0" Min="5.0015628337860107e-01" Max="1.1916259765625000e+01"/>
          <Range Index="1" Min="5.2897202968597412e-01" Max="1.7983182907104492e+01"/>
          <Range Index="2" Min="5.0311273336410522e-01" Max="1.7946092605590820e+01"/>
          <Range Index="3" Min="8.0008821487426758e+00" Max="1.9785320281982422e+01"/>
          <Range Index="4" Min="5.0261419266462326e-02" Max="9.9981188774108887e-01"/>
          <Range Index="5" Min="5.1545780152082443e-02" Max="9.9982529878616333e-01"/>
          <Range Index="6" Min="9.7360854852013290e-05" Max="1.9999468326568604e-01"/>
          <Range Index="7" Min="6.2029116088524461e-04" Max="1.9980455935001373e-01"/>
          <Range Index="8" Min="2.0003547668457031e+00" Max="1.0132971801757812e+03"/>
          <Range Index="9" Min="2.0012407302856445e+00" Max="1.5317922973632812e+02"/>
        </Ranges>
      </Class>
    </Transform>
  </Transformations>
  <MVAPdfs/>
  <Weights>
    <Layout NLayers="3">
      <Layer Index="0" NNeurons="11">
        <Neuron NSynapses="15">
          -1.0993915165343349e+00 1.4260125841097631e+00 1.2892311603877502e+00 1.8890116312361434e+00 -1.9761768966432762e+00 -2.2234582101742060e+00 -7.0523429670189608e-01 4.4460775186651338e+00 -1.4976122415494484e+00 -1.6556143931901595e+00 -1.7128317686393046e+00 -7.8342726574144483e-02 -1.9555627339687038e+00 -2.1643662545724562e-01 -6.7269729576215276e-01 
        </Neuron>
        <Neuron NSynapses="15">
          6.2987426323586204e-01 -7.6343588913557781e-01 1.9236820850115444e+00 3.2929051941693366e-01 8.0351889177439684e-01 -4.2569231933849377e-01 -8.5252010946351786e-01 9.3794562731675835e-01 -5.1867628991159509e-01 7.0522454943591573e-01 2.0938046052555920e-02 1.4720751535974321e+00 8.7441389850457241e-02 -1.5891428933301301e+00 -2.7736310506971823e-01 
        </Neuron>
        <Neuron NSynapses="15">
          6.4900769266469382e-01 1.3946268059701525e+00 -1.0344588494522242e+00 -7.7961012713237493e-02 4.2005714485855405e-01 -2.5979303410102916e-01 -1.8006359051794891e+00 9.4397214458538969e-01 -1.2903341746045538e+00 7.7411967563679029e-01 7.2583005973535542e-01 9.6247553222586069e-01 1.8823016076687999e+00 1.3593726512321602e+00 -8.8782348945582246e-01 
        </Neuron>
        <Neuron NSynapses="15">
          -1.3258530571087666e+00 4.4584506272523972e-01 -4.0341881715349126e-01 1.5278094205362729e+00 9.6069642854280335e-01 5.7050473747023511e-01 7.7210941792226551e-01 -8.3449419744327613e-01 7.8659303861604379e-01 -5.3930778148361969e-01 -9.0134317086882454e-01 -7.9163117113111525e-01 -2.9010859472683614e-01 1.6837552002292757e+00 5.1839336030581562e-01 
        </Neuron>
        <Neuron NSynapses="15">
          -1.5540084826442959e+00 2.3226079296718166e-01 1.8542537828498798e-01 4.4987802649275133e-01 1.6227278238811940e+00 -7.6503726684464346e-01 -2.5887749533209742e-01 3.4382173092930712e-01 1.8918094494234303e-01 2.1458481757094733e-01 -6.0909226067353639e-01 -7.6656354375742408e-01 1.5850897148795504e-01 7.7440365640010056e-01 3.9743387853480155e-01 
        </Neuron>
        <Neuron NSynapses="15">
          -2.9531632245988704e-01 -1.8876281220513025e+00 -1.7097357772350323e+00 6.4410968088749232e-01 8.6615855559898758e-01 4.7783257962581122e-01 8.2872610701056748e-01 2.2116604528720474e-01 -9.0034833034980055e-01 -1.6647655469944028e-01 1.0979735796012231e-01 6.0543573961455377e-01 -5.6769329466104979e-01 -1.5119531827530646e+00 -1.4633131986483339e+00 
        </Neuron>
        <Neuron NSynapses="15">
          -5.7418591562824295e-01 -3.5618465902835232e-02 6.7418223047053150e-01 -1.1530897789470711e+00 -1.2200155829798296e+00 2.1610709163839741e+00 -1.0791879390470211e+00 -1.2809095133971438e-01 -1.4501961625654973e+00 2.3198710638916327e-02 -2.0411518437475022e+00 -1.7345029309804985e+00 2.9601400662282240e-01 1.6879557470285367e+00 -1.2299113893229308e+00 
        </Neuron>
        <Neuron NSynapses="15">
          8.1914453993154701e-01 -1.2889234065928561e+00 -5.1579043048560713e-01 8.8936868908730312e-03 -2.4410560064306405e-02 -2.2911931443356433e+00 -5.4718968993834050e-02 -5.6346849335909766e-01 -6.0479629290067401e-03 -6.8705238736982088e-01 1.4722096994071168e+00 2.3951180444894643e-01 -1.6275918601397510e+00 9.8313594360036749e-01 -9.3127351586744467e-01 
        </Neuron>
        <Neuron NSynapses="15">
          -2.1571302142533417e+00 -6.1079320876223098e-01 -5.2031228794256812e-01 2.2049334047535343e+00 6.3536658120948886e-01 9.5566710618229223e-01 -4.0252043855074715e-01 -1.9205559372535923e+00 -1.5235198697266124e+00 2.2208973140993526e+00 -3.3954250472283670e-01 -2.3626620738215478e+00 9.4971881085917820e-01 -8.3142319774539375e-01 -8.7928208169858268e-01 
        </Neuron>
        <Neuron NSynapses="15">
          5.7564319436555167e-01 1.1656849858969620e+00 -1.9200393847023713e+00 6.5391566957518077e-01 1.7575708461098771e+00 1.3927408382621222e+00 2.9069040895838050e-02 -6.2174348482489739e-01 -8.5978309607691028e-01 -3.0550053309268508e+00 1.1422990287087962e+00 6.0466198000300320e-01 2.3600302439090096e-01 1.5638054922767577e-01 -6.2019914407683763e-01 
        </Neuron>
        <Neuron NSynapses="15">
          -8.0167295903371871e-01 1.3591315720480872e+00 2.0996140626738682e+00 -1.0396302279190661e+00 -4.7880849780676382e-01 -7.8851330963066568e-01 1.2054542971608799e+00 2.6439013882211082e+00 1.5639049675305436e+00 -2.6556587912651621e+00 1.9839044565803508e+00 1.3724769771114558e+00 2.5002085024757818e-02 -3.5628460278929568e-02 1.8630492101491072e+00 
        </Neuron>
      </Layer>
      <Layer Index="1" NNeurons="16">
        <Neuron NSynapses="1">
          5.9043836304096042e-02 
        </Neuron>
        <Neuron NSynapses="1">
          -2.4004530926190183e-02 
        </Neuron>
        <Neuron NSynapses="1">
          1.4244380782977534e-01 
        </Neuron>
        <Neuron NSynapses="1">
          -4.6438572387913207e-01 
        </Neuron>
        <Neuron NSynapses="1">
          4.0663658190798979e-02 
        </Neuron>
        <Neuron NSynapses="1">
          -2.9896646094057616e-01 
        </Neuron>
        <Neuron NSynapses="1">
          8.8506075906677739e-01 
        </Neuron>
        <Neuron NSynapses="1">
          5.9838781488133375e-01 
        </Neuron>
        <Neuron NSynapses="1">
          8.4363892294579157e-01 
        </Neuron>
        <Neuron NSynapses="1">
          -7.8422674367181766e-01 
        </Neuron>
        <Neuron NSynapses="1">
          4.8697514310645507e-02 
        </Neuron>
        <Neuron NSynapses="1">
          -6.7005623907307121e-01 
        </Neuron>
        <Neuron NSynapses="1">
          2.1684187864812238e-01 
        </Neuron>
        <Neuron NSynapses="1">
          -2.8259022511976279e-02 
        </Neuron>
        <Neuron NSynapses="1">
          -6.2957461368822820e-01 
        </Neuron>
        <Neuron NSynapses="1">
          -1.5569477657215942e+00 
        </Neuron>
      </Layer>
      <Layer Index="2" NNeurons="1">
        <Neuron NSynapses="0"/>
      </Layer>
    </Layout>
  </Weights>
</MethodSetup>
