<?xml version="1.0"?>
<MethodSetup Method="MLP::MLP">
  <GeneralInfo>
    <Info name="TMVA Release" value="4.2.0 [262656]"/>
    <Info name="ROOT Release" value="6.02/13 [393741]"/>
    <Info name="Creator" value="leure"/>
    <Info name="Date" value="Mon Jun 26 17:58:55 2017"/>
    <Info name="Host" value="Linux vocms029.cern.ch 2.6.32-504.12.2.el6.x86_64 #1 SMP Thu Mar 12 07:33:00 CET 2015 x86_64 x86_64 x86_64 GNU/Linux"/>
    <Info name="Dir" value="/data/leure/TMVA_Luke/myTMVA"/>
    <Info name="Training events" value="2336"/>
    <Info name="TrainingTime" value="1.52061379e+01"/>
    <Info name="AnalysisType" value="Classification"/>
  </GeneralInfo>
  <Options>
    <Option name="NCycles" modified="Yes">600</Option>
    <Option name="HiddenLayers" modified="Yes">N+5</Option>
    <Option name="NeuronType" modified="Yes">tanh</Option>
    <Option name="RandomSeed" modified="No">1</Option>
    <Option name="EstimatorType" modified="No">MSE</Option>
    <Option name="NeuronInputType" modified="No">sum</Option>
    <Option name="V" modified="Yes">False</Option>
    <Option name="VerbosityLevel" modified="No">Default</Option>
    <Option name="VarTransform" modified="Yes">N</Option>
    <Option name="H" modified="Yes">True</Option>
    <Option name="CreateMVAPdfs" modified="No">False</Option>
    <Option name="IgnoreNegWeightsInTraining" modified="No">False</Option>
    <Option name="TrainingMethod" modified="No">BP</Option>
    <Option name="LearningRate" modified="No">2.000000e-02</Option>
    <Option name="DecayRate" modified="No">1.000000e-02</Option>
    <Option name="TestRate" modified="Yes">5</Option>
    <Option name="EpochMonitoring" modified="No">False</Option>
    <Option name="Sampling" modified="No">1.000000e+00</Option>
    <Option name="SamplingEpoch" modified="No">1.000000e+00</Option>
    <Option name="SamplingImportance" modified="No">1.000000e+00</Option>
    <Option name="SamplingTraining" modified="No">True</Option>
    <Option name="SamplingTesting" modified="No">False</Option>
    <Option name="ResetStep" modified="No">50</Option>
    <Option name="Tau" modified="No">3.000000e+00</Option>
    <Option name="BPMode" modified="No">sequential</Option>
    <Option name="BatchSize" modified="No">-1</Option>
    <Option name="ConvergenceImprove" modified="No">1.000000e-30</Option>
    <Option name="ConvergenceTests" modified="No">-1</Option>
    <Option name="UseRegulator" modified="Yes">False</Option>
    <Option name="UpdateLimit" modified="No">10000</Option>
    <Option name="CalculateErrors" modified="No">False</Option>
    <Option name="WeightRange" modified="No">1.000000e+00</Option>
  </Options>
  <Variables NVar="10">
    <Variable VarIndex="0" Expression="Dtrk1Pt" Label="Dtrk1Pt" Title="Dtrk1Pt" Unit="" Internal="Dtrk1Pt" Type="F" Min="5.01306593e-01" Max="2.15219936e+01"/>
    <Variable VarIndex="1" Expression="DRestrk1Pt" Label="DRestrk1Pt" Title="DRestrk1Pt" Unit="" Internal="DRestrk1Pt" Type="F" Min="6.11003220e-01" Max="2.69091225e+01"/>
    <Variable VarIndex="2" Expression="DRestrk2Pt" Label="DRestrk2Pt" Title="DRestrk2Pt" Unit="" Internal="DRestrk2Pt" Type="F" Min="5.01210988e-01" Max="2.57579021e+01"/>
    <Variable VarIndex="3" Expression="DtktkRespt" Label="DtktkRespt" Title="DtktkRespt" Unit="" Internal="DtktkRespt" Type="F" Min="8.01282120e+00" Max="2.95177097e+01"/>
    <Variable VarIndex="4" Expression="Dchi2cl" Label="Dchi2cl" Title="Dchi2cl" Unit="" Internal="Dchi2cl" Type="F" Min="5.03599234e-02" Max="9.99834001e-01"/>
    <Variable VarIndex="5" Expression="DtktkRes_chi2cl" Label="DtktkRes_chi2cl" Title="DtktkRes_chi2cl" Unit="" Internal="DtktkRes_chi2cl" Type="F" Min="5.03450036e-02" Max="9.99168813e-01"/>
    <Variable VarIndex="6" Expression="Dalpha" Label="Dalpha" Title="Dalpha" Unit="" Internal="Dalpha" Type="F" Min="5.74055884e-04" Max="1.98835388e-01"/>
    <Variable VarIndex="7" Expression="DtktkRes_alpha" Label="DtktkRes_alpha" Title="DtktkRes_alpha" Unit="" Internal="DtktkRes_alpha" Type="F" Min="8.38859472e-04" Max="1.99973419e-01"/>
    <Variable VarIndex="8" Expression="DsvpvDistance/DsvpvDisErr" Label="DsvpvDistance/DsvpvDisErr" Title="DsvpvDistance/DsvpvDisErr" Unit="" Internal="DsvpvDistance_D_DsvpvDisErr" Type="F" Min="2.00123549e+00" Max="2.13396094e+03"/>
    <Variable VarIndex="9" Expression="DtktkRes_svpvDistance/DtktkRes_svpvDisErr" Label="DtktkRes_svpvDistance/DtktkRes_svpvDisErr" Title="DtktkRes_svpvDistance/DtktkRes_svpvDisErr" Unit="" Internal="DtktkRes_svpvDistance_D_DtktkRes_svpvDisErr" Type="F" Min="2.00757074e+00" Max="3.33462708e+02"/>
  </Variables>
  <Spectators NSpec="0"/>
  <Classes NClass="2">
    <Class Name="Signal" Index="0"/>
    <Class Name="Background" Index="1"/>
  </Classes>
  <Transformations NTransformations="1">
    <Transform Name="Normalize">
      <Selection>
        <Input NInputs="10">
          <Input Type="Variable" Label="Dtrk1Pt" Expression="Dtrk1Pt"/>
          <Input Type="Variable" Label="DRestrk1Pt" Expression="DRestrk1Pt"/>
          <Input Type="Variable" Label="DRestrk2Pt" Expression="DRestrk2Pt"/>
          <Input Type="Variable" Label="DtktkRespt" Expression="DtktkRespt"/>
          <Input Type="Variable" Label="Dchi2cl" Expression="Dchi2cl"/>
          <Input Type="Variable" Label="DtktkRes_chi2cl" Expression="DtktkRes_chi2cl"/>
          <Input Type="Variable" Label="Dalpha" Expression="Dalpha"/>
          <Input Type="Variable" Label="DtktkRes_alpha" Expression="DtktkRes_alpha"/>
          <Input Type="Variable" Label="DsvpvDistance/DsvpvDisErr" Expression="DsvpvDistance/DsvpvDisErr"/>
          <Input Type="Variable" Label="DtktkRes_svpvDistance/DtktkRes_svpvDisErr" Expression="DtktkRes_svpvDistance/DtktkRes_svpvDisErr"/>
        </Input>
        <Output NOutputs="10">
          <Output Type="Variable" Label="Dtrk1Pt" Expression="Dtrk1Pt"/>
          <Output Type="Variable" Label="DRestrk1Pt" Expression="DRestrk1Pt"/>
          <Output Type="Variable" Label="DRestrk2Pt" Expression="DRestrk2Pt"/>
          <Output Type="Variable" Label="DtktkRespt" Expression="DtktkRespt"/>
          <Output Type="Variable" Label="Dchi2cl" Expression="Dchi2cl"/>
          <Output Type="Variable" Label="DtktkRes_chi2cl" Expression="DtktkRes_chi2cl"/>
          <Output Type="Variable" Label="Dalpha" Expression="Dalpha"/>
          <Output Type="Variable" Label="DtktkRes_alpha" Expression="DtktkRes_alpha"/>
          <Output Type="Variable" Label="DsvpvDistance/DsvpvDisErr" Expression="DsvpvDistance/DsvpvDisErr"/>
          <Output Type="Variable" Label="DtktkRes_svpvDistance/DtktkRes_svpvDisErr" Expression="DtktkRes_svpvDistance/DtktkRes_svpvDisErr"/>
        </Output>
      </Selection>
      <Class ClassIndex="0">
        <Ranges>
          <Range Index="0" Min="5.0426727533340454e-01" Max="2.1521993637084961e+01"/>
          <Range Index="1" Min="6.1100322008132935e-01" Max="2.6909122467041016e+01"/>
          <Range Index="2" Min="5.0121098756790161e-01" Max="2.4626771926879883e+01"/>
          <Range Index="3" Min="8.0128211975097656e+00" Max="2.9504613876342773e+01"/>
          <Range Index="4" Min="5.0359923392534256e-02" Max="9.9983400106430054e-01"/>
          <Range Index="5" Min="5.0345003604888916e-02" Max="9.9916881322860718e-01"/>
          <Range Index="6" Min="5.7405588449910283e-04" Max="1.9883538782596588e-01"/>
          <Range Index="7" Min="1.1111076455563307e-03" Max="1.9997341930866241e-01"/>
          <Range Index="8" Min="2.0517590045928955e+00" Max="3.5029211425781250e+02"/>
          <Range Index="9" Min="2.0075707435607910e+00" Max="1.6692976379394531e+02"/>
        </Ranges>
      </Class>
      <Class ClassIndex="1">
        <Ranges>
          <Range Index="0" Min="5.0130659341812134e-01" Max="1.9626596450805664e+01"/>
          <Range Index="1" Min="6.2634122371673584e-01" Max="2.6495378494262695e+01"/>
          <Range Index="2" Min="5.3302133083343506e-01" Max="2.5757902145385742e+01"/>
          <Range Index="3" Min="8.2273664474487305e+00" Max="2.9517709732055664e+01"/>
          <Range Index="4" Min="5.0658013671636581e-02" Max="9.8574632406234741e-01"/>
          <Range Index="5" Min="5.9145081788301468e-02" Max="9.9389743804931641e-01"/>
          <Range Index="6" Min="1.4037181390449405e-03" Max="1.9145695865154266e-01"/>
          <Range Index="7" Min="8.3885947242379189e-04" Max="1.9325864315032959e-01"/>
          <Range Index="8" Min="2.0012354850769043e+00" Max="2.1339609375000000e+03"/>
          <Range Index="9" Min="2.0105891227722168e+00" Max="3.3346270751953125e+02"/>
        </Ranges>
      </Class>
      <Class ClassIndex="2">
        <Ranges>
          <Range Index="0" Min="5.0130659341812134e-01" Max="2.1521993637084961e+01"/>
          <Range Index="1" Min="6.1100322008132935e-01" Max="2.6909122467041016e+01"/>
          <Range Index="2" Min="5.0121098756790161e-01" Max="2.5757902145385742e+01"/>
          <Range Index="3" Min="8.0128211975097656e+00" Max="2.9517709732055664e+01"/>
          <Range Index="4" Min="5.0359923392534256e-02" Max="9.9983400106430054e-01"/>
          <Range Index="5" Min="5.0345003604888916e-02" Max="9.9916881322860718e-01"/>
          <Range Index="6" Min="5.7405588449910283e-04" Max="1.9883538782596588e-01"/>
          <Range Index="7" Min="8.3885947242379189e-04" Max="1.9997341930866241e-01"/>
          <Range Index="8" Min="2.0012354850769043e+00" Max="2.1339609375000000e+03"/>
          <Range Index="9" Min="2.0075707435607910e+00" Max="3.3346270751953125e+02"/>
        </Ranges>
      </Class>
    </Transform>
  </Transformations>
  <MVAPdfs/>
  <Weights>
    <Layout NLayers="3">
      <Layer Index="0" NNeurons="11">
        <Neuron NSynapses="15">
          -5.1997090077764985e-01 1.6551897965916724e+00 8.7576831121708332e-01 1.7033236766558884e+00 -1.6904328146937460e+00 -1.4432444300477161e+00 -1.0327306841580732e+00 4.7106586491614451e+00 -1.5990549850808835e+00 -1.7819530032442776e+00 -6.1455089756674608e-01 -3.7414675479241211e-01 -9.6050234211190300e-01 -2.7483039487944411e-01 -3.7881385528891934e-02 
        </Neuron>
        <Neuron NSynapses="15">
          8.0449074639394924e-01 -8.9694284868379082e-01 1.6225262412511028e+00 4.9438860931968570e-01 1.2399600989053463e+00 9.9818814604784700e-01 -9.1564203380217801e-01 5.0644932588397107e-01 -4.2092792944547497e-01 -1.0938300869798108e+00 -6.2268869659212922e-01 1.2717784672083368e+00 -9.8480213671989836e-01 -1.9958027824458742e+00 -1.7229518461590998e-01 
        </Neuron>
        <Neuron NSynapses="15">
          1.0886641816446223e+00 1.2554336305194551e+00 -4.9071079522444744e-01 -1.5011526356273411e-01 4.8984188904286763e-01 -9.2601002980945679e-01 -1.6072151717591101e+00 4.3759466435808264e-01 -1.2571053264817529e+00 5.9503877343085476e-01 7.4495955627246113e-01 7.8012460841906950e-01 8.5412961927192788e-01 8.7265311738046514e-01 -1.1900909015539050e+00 
        </Neuron>
        <Neuron NSynapses="15">
          -1.2329323559977083e+00 4.1457133912541366e-01 -6.4845912967007188e-02 1.6647636496754437e+00 1.4051373791213966e+00 1.7950933424733901e+00 9.7018196677705915e-01 -1.4299932201680052e+00 1.0321256151349694e+00 -1.7031593978375421e+00 -1.4332051218555073e+00 -1.5328787222779103e+00 -2.4246703917250456e+00 1.2029589121367337e+00 2.7944856543435898e-01 
        </Neuron>
        <Neuron NSynapses="15">
          -1.5455243226946473e+00 -1.2857698351124178e-01 -1.6849916834956635e-01 4.4279563891475604e-01 8.5317917207613658e-01 3.0175672544742271e-01 -2.7136246232042038e-01 5.0108719501001181e-02 4.9422627764235000e-01 -2.7883211464728047e-01 -6.8415878316277845e-01 -9.2555262658005277e-01 3.3577341691839629e-01 9.2809484966587352e-01 5.9066576586590713e-01 
        </Neuron>
        <Neuron NSynapses="15">
          -1.3575359308363116e-01 -1.8649872921664321e+00 -1.6772005741063316e+00 8.0885639413747279e-01 5.7158195691152314e-01 1.6212075129046994e+00 -3.1458598458259497e-02 7.2797927698203202e-02 -4.9850699753258509e-01 -1.5774600868218450e-01 -7.0832385641078899e-01 8.4752294611783863e-01 -1.1595692579213004e+00 -1.9540825964165722e+00 -1.7436078336914251e+00 
        </Neuron>
        <Neuron NSynapses="15">
          2.5505762828410644e-01 -5.4438554718834542e-01 1.2963838323676902e+00 -1.3646643421169606e+00 -1.2100795305225669e+00 1.3792177499252696e+00 -1.1300874178410740e+00 -8.3763210976530544e-01 -1.1761584886653320e+00 -1.5990689662456385e+00 -2.3799307297109404e+00 -1.6436640618042353e+00 3.4608556163635934e-01 1.3490612477399790e+00 -9.0334909066882974e-01 
        </Neuron>
        <Neuron NSynapses="15">
          1.2250703647551284e+00 -1.0975697387684291e+00 -6.6678899416520265e-01 -2.4596233438650288e-02 1.7101155492225704e-02 -1.2650672655972304e+00 7.0006411581688421e-01 4.9082642776625213e-01 1.1618400438294967e-01 -5.9390235827799009e-01 1.2964106089519796e+00 2.7992357536332929e-01 -5.1511468850163200e-01 1.0241962583073918e+00 -3.6813306190031336e-01 
        </Neuron>
        <Neuron NSynapses="15">
          -1.3091774775165455e+00 -7.7469323526816902e-01 -5.7030501838978220e-01 1.9558092437352281e+00 1.1044424274577394e+00 7.4729100917117097e-01 -4.4870749669843135e-01 -1.9621285928513263e+00 -2.1969154184641018e+00 4.1013240040572940e-01 -5.6922133457920343e-01 -2.0422546371261645e+00 2.8557453584070743e-02 -1.7311342702193158e+00 -7.4062488113044134e-01 
        </Neuron>
        <Neuron NSynapses="15">
          1.3738505828511705e+00 9.9257146084326142e-01 -2.0488714043034264e+00 3.3205672971259936e-01 2.1594974121812136e+00 2.0371585852173606e+00 3.5315155768532232e-02 -6.7263826753472311e-02 -6.7221823252199264e-01 -2.1010852387317387e+00 6.1946451176495909e-01 1.0083510875408674e+00 -1.2787808909683349e+00 -6.4551009066332787e-01 -6.1779364075226506e-01 
        </Neuron>
        <Neuron NSynapses="15">
          -1.6527763974831253e+00 1.5422008693561478e+00 1.9706964068600177e+00 -9.2544016223758185e-01 -8.7388746141576701e-01 -5.3213322621371262e-01 1.0974730181294683e+00 3.0856166249604864e+00 1.4471628791853941e+00 -6.7000919253834634e-01 2.2308203392883850e+00 1.0030403662684106e+00 1.0734715584437993e+00 8.8247057355641867e-01 1.6723087591004289e+00 
        </Neuron>
      </Layer>
      <Layer Index="1" NNeurons="16">
        <Neuron NSynapses="1">
          -3.6065363855579083e-02 
        </Neuron>
        <Neuron NSynapses="1">
          2.2757883979415026e-03 
        </Neuron>
        <Neuron NSynapses="1">
          1.3557858385585073e-02 
        </Neuron>
        <Neuron NSynapses="1">
          -5.8649836445236558e-01 
        </Neuron>
        <Neuron NSynapses="1">
          3.5154919524472322e-01 
        </Neuron>
        <Neuron NSynapses="1">
          -1.5068131467010404e-01 
        </Neuron>
        <Neuron NSynapses="1">
          1.1415066869963213e+00 
        </Neuron>
        <Neuron NSynapses="1">
          6.6456265582271479e-01 
        </Neuron>
        <Neuron NSynapses="1">
          1.3782872456905217e+00 
        </Neuron>
        <Neuron NSynapses="1">
          3.9351949808931352e-01 
        </Neuron>
        <Neuron NSynapses="1">
          -3.9114192057784997e-01 
        </Neuron>
        <Neuron NSynapses="1">
          -1.6184845531464997e-02 
        </Neuron>
        <Neuron NSynapses="1">
          -2.0363807853974719e-01 
        </Neuron>
        <Neuron NSynapses="1">
          3.8234184063318665e-03 
        </Neuron>
        <Neuron NSynapses="1">
          -1.0014691784629806e+00 
        </Neuron>
        <Neuron NSynapses="1">
          -1.3827843284858470e+00 
        </Neuron>
      </Layer>
      <Layer Index="2" NNeurons="1">
        <Neuron NSynapses="0"/>
      </Layer>
    </Layout>
  </Weights>
</MethodSetup>
