<?xml version="1.0"?>
<MethodSetup Method="MLP::MLP">
  <GeneralInfo>
    <Info name="TMVA Release" value="4.2.0 [262656]"/>
    <Info name="ROOT Release" value="6.02/13 [393741]"/>
    <Info name="Creator" value="leure"/>
    <Info name="Date" value="Tue Jun  6 19:51:46 2017"/>
    <Info name="Host" value="Linux vocms029.cern.ch 2.6.32-504.12.2.el6.x86_64 #1 SMP Thu Mar 12 07:33:00 CET 2015 x86_64 x86_64 x86_64 GNU/Linux"/>
    <Info name="Dir" value="/data/leure/TMVA_Luke/myTMVA"/>
    <Info name="Training events" value="6651"/>
    <Info name="TrainingTime" value="4.20111899e+01"/>
    <Info name="AnalysisType" value="Classification"/>
  </GeneralInfo>
  <Options>
    <Option name="NCycles" modified="Yes">600</Option>
    <Option name="HiddenLayers" modified="Yes">N+5</Option>
    <Option name="NeuronType" modified="Yes">tanh</Option>
    <Option name="RandomSeed" modified="No">1</Option>
    <Option name="EstimatorType" modified="No">MSE</Option>
    <Option name="NeuronInputType" modified="No">sum</Option>
    <Option name="V" modified="Yes">False</Option>
    <Option name="VerbosityLevel" modified="No">Default</Option>
    <Option name="VarTransform" modified="Yes">N</Option>
    <Option name="H" modified="Yes">True</Option>
    <Option name="CreateMVAPdfs" modified="No">False</Option>
    <Option name="IgnoreNegWeightsInTraining" modified="No">False</Option>
    <Option name="TrainingMethod" modified="No">BP</Option>
    <Option name="LearningRate" modified="No">2.000000e-02</Option>
    <Option name="DecayRate" modified="No">1.000000e-02</Option>
    <Option name="TestRate" modified="Yes">5</Option>
    <Option name="EpochMonitoring" modified="No">False</Option>
    <Option name="Sampling" modified="No">1.000000e+00</Option>
    <Option name="SamplingEpoch" modified="No">1.000000e+00</Option>
    <Option name="SamplingImportance" modified="No">1.000000e+00</Option>
    <Option name="SamplingTraining" modified="No">True</Option>
    <Option name="SamplingTesting" modified="No">False</Option>
    <Option name="ResetStep" modified="No">50</Option>
    <Option name="Tau" modified="No">3.000000e+00</Option>
    <Option name="BPMode" modified="No">sequential</Option>
    <Option name="BatchSize" modified="No">-1</Option>
    <Option name="ConvergenceImprove" modified="No">1.000000e-30</Option>
    <Option name="ConvergenceTests" modified="No">-1</Option>
    <Option name="UseRegulator" modified="Yes">False</Option>
    <Option name="UpdateLimit" modified="No">10000</Option>
    <Option name="CalculateErrors" modified="No">False</Option>
    <Option name="WeightRange" modified="No">1.000000e+00</Option>
  </Options>
  <Variables NVar="10">
    <Variable VarIndex="0" Expression="Dtrk1Pt" Label="Dtrk1Pt" Title="Dtrk1Pt" Unit="" Internal="Dtrk1Pt" Type="F" Min="5.01860499e-01" Max="5.17713852e+01"/>
    <Variable VarIndex="1" Expression="DRestrk1Pt" Label="DRestrk1Pt" Title="DRestrk1Pt" Unit="" Internal="DRestrk1Pt" Type="F" Min="6.93660438e-01" Max="5.63495255e+01"/>
    <Variable VarIndex="2" Expression="DRestrk2Pt" Label="DRestrk2Pt" Title="DRestrk2Pt" Unit="" Internal="DRestrk2Pt" Type="F" Min="5.01416266e-01" Max="5.07236557e+01"/>
    <Variable VarIndex="3" Expression="DtktkRespt" Label="DtktkRespt" Title="DtktkRespt" Unit="" Internal="DtktkRespt" Type="F" Min="8.00832367e+00" Max="5.88731308e+01"/>
    <Variable VarIndex="4" Expression="Dchi2cl" Label="Dchi2cl" Title="Dchi2cl" Unit="" Internal="Dchi2cl" Type="F" Min="5.01119085e-02" Max="9.99967933e-01"/>
    <Variable VarIndex="5" Expression="DtktkRes_chi2cl" Label="DtktkRes_chi2cl" Title="DtktkRes_chi2cl" Unit="" Internal="DtktkRes_chi2cl" Type="F" Min="5.01329638e-02" Max="9.99576151e-01"/>
    <Variable VarIndex="6" Expression="Dalpha" Label="Dalpha" Title="Dalpha" Unit="" Internal="Dalpha" Type="F" Min="2.90316275e-05" Max="1.99643791e-01"/>
    <Variable VarIndex="7" Expression="DtktkRes_alpha" Label="DtktkRes_alpha" Title="DtktkRes_alpha" Unit="" Internal="DtktkRes_alpha" Type="F" Min="7.98378824e-05" Max="1.99953571e-01"/>
    <Variable VarIndex="8" Expression="DsvpvDistance/DsvpvDisErr" Label="DsvpvDistance/DsvpvDisErr" Title="DsvpvDistance/DsvpvDisErr" Unit="" Internal="DsvpvDistance_D_DsvpvDisErr" Type="F" Min="2.00152063e+00" Max="5.87856567e+02"/>
    <Variable VarIndex="9" Expression="DtktkRes_svpvDistance/DtktkRes_svpvDisErr" Label="DtktkRes_svpvDistance/DtktkRes_svpvDisErr" Title="DtktkRes_svpvDistance/DtktkRes_svpvDisErr" Unit="" Internal="DtktkRes_svpvDistance_D_DtktkRes_svpvDisErr" Type="F" Min="2.01000428e+00" Max="5.03130829e+02"/>
  </Variables>
  <Spectators NSpec="0"/>
  <Classes NClass="2">
    <Class Name="Signal" Index="0"/>
    <Class Name="Background" Index="1"/>
  </Classes>
  <Transformations NTransformations="1">
    <Transform Name="Normalize">
      <Selection>
        <Input NInputs="10">
          <Input Type="Variable" Label="Dtrk1Pt" Expression="Dtrk1Pt"/>
          <Input Type="Variable" Label="DRestrk1Pt" Expression="DRestrk1Pt"/>
          <Input Type="Variable" Label="DRestrk2Pt" Expression="DRestrk2Pt"/>
          <Input Type="Variable" Label="DtktkRespt" Expression="DtktkRespt"/>
          <Input Type="Variable" Label="Dchi2cl" Expression="Dchi2cl"/>
          <Input Type="Variable" Label="DtktkRes_chi2cl" Expression="DtktkRes_chi2cl"/>
          <Input Type="Variable" Label="Dalpha" Expression="Dalpha"/>
          <Input Type="Variable" Label="DtktkRes_alpha" Expression="DtktkRes_alpha"/>
          <Input Type="Variable" Label="DsvpvDistance/DsvpvDisErr" Expression="DsvpvDistance/DsvpvDisErr"/>
          <Input Type="Variable" Label="DtktkRes_svpvDistance/DtktkRes_svpvDisErr" Expression="DtktkRes_svpvDistance/DtktkRes_svpvDisErr"/>
        </Input>
        <Output NOutputs="10">
          <Output Type="Variable" Label="Dtrk1Pt" Expression="Dtrk1Pt"/>
          <Output Type="Variable" Label="DRestrk1Pt" Expression="DRestrk1Pt"/>
          <Output Type="Variable" Label="DRestrk2Pt" Expression="DRestrk2Pt"/>
          <Output Type="Variable" Label="DtktkRespt" Expression="DtktkRespt"/>
          <Output Type="Variable" Label="Dchi2cl" Expression="Dchi2cl"/>
          <Output Type="Variable" Label="DtktkRes_chi2cl" Expression="DtktkRes_chi2cl"/>
          <Output Type="Variable" Label="Dalpha" Expression="Dalpha"/>
          <Output Type="Variable" Label="DtktkRes_alpha" Expression="DtktkRes_alpha"/>
          <Output Type="Variable" Label="DsvpvDistance/DsvpvDisErr" Expression="DsvpvDistance/DsvpvDisErr"/>
          <Output Type="Variable" Label="DtktkRes_svpvDistance/DtktkRes_svpvDisErr" Expression="DtktkRes_svpvDistance/DtktkRes_svpvDisErr"/>
        </Output>
      </Selection>
      <Class ClassIndex="0">
        <Ranges>
          <Range Index="0" Min="5.0186049938201904e-01" Max="5.1771385192871094e+01"/>
          <Range Index="1" Min="6.9366043806076050e-01" Max="5.6349525451660156e+01"/>
          <Range Index="2" Min="5.0141626596450806e-01" Max="5.0723655700683594e+01"/>
          <Range Index="3" Min="8.0083236694335938e+00" Max="5.8873130798339844e+01"/>
          <Range Index="4" Min="5.0111908465623856e-02" Max="9.9996793270111084e-01"/>
          <Range Index="5" Min="5.0132963806390762e-02" Max="9.9957615137100220e-01"/>
          <Range Index="6" Min="2.9031627491349354e-05" Max="1.9964379072189331e-01"/>
          <Range Index="7" Min="7.9837882367428392e-05" Max="1.9995357096195221e-01"/>
          <Range Index="8" Min="2.0015206336975098e+00" Max="5.8785656738281250e+02"/>
          <Range Index="9" Min="2.0100042819976807e+00" Max="5.0313082885742188e+02"/>
        </Ranges>
      </Class>
      <Class ClassIndex="1">
        <Ranges>
          <Range Index="0" Min="5.4367393255233765e-01" Max="4.7353481292724609e+01"/>
          <Range Index="1" Min="8.6597770452499390e-01" Max="4.9838916778564453e+01"/>
          <Range Index="2" Min="5.1357614994049072e-01" Max="4.7264091491699219e+01"/>
          <Range Index="3" Min="8.6338500976562500e+00" Max="5.5846080780029297e+01"/>
          <Range Index="4" Min="6.4377643167972565e-02" Max="9.8271483182907104e-01"/>
          <Range Index="5" Min="5.1568303257226944e-02" Max="9.3395930528640747e-01"/>
          <Range Index="6" Min="5.6207906454801559e-03" Max="1.8029749393463135e-01"/>
          <Range Index="7" Min="2.4172426201403141e-03" Max="1.6719926893711090e-01"/>
          <Range Index="8" Min="2.0274114608764648e+00" Max="2.2644828796386719e+02"/>
          <Range Index="9" Min="2.1127433776855469e+00" Max="1.8549444580078125e+02"/>
        </Ranges>
      </Class>
      <Class ClassIndex="2">
        <Ranges>
          <Range Index="0" Min="5.0186049938201904e-01" Max="5.1771385192871094e+01"/>
          <Range Index="1" Min="6.9366043806076050e-01" Max="5.6349525451660156e+01"/>
          <Range Index="2" Min="5.0141626596450806e-01" Max="5.0723655700683594e+01"/>
          <Range Index="3" Min="8.0083236694335938e+00" Max="5.8873130798339844e+01"/>
          <Range Index="4" Min="5.0111908465623856e-02" Max="9.9996793270111084e-01"/>
          <Range Index="5" Min="5.0132963806390762e-02" Max="9.9957615137100220e-01"/>
          <Range Index="6" Min="2.9031627491349354e-05" Max="1.9964379072189331e-01"/>
          <Range Index="7" Min="7.9837882367428392e-05" Max="1.9995357096195221e-01"/>
          <Range Index="8" Min="2.0015206336975098e+00" Max="5.8785656738281250e+02"/>
          <Range Index="9" Min="2.0100042819976807e+00" Max="5.0313082885742188e+02"/>
        </Ranges>
      </Class>
    </Transform>
  </Transformations>
  <MVAPdfs/>
  <Weights>
    <Layout NLayers="3">
      <Layer Index="0" NNeurons="11">
        <Neuron NSynapses="15">
          -3.8280541193601053e-01 1.8035881215714777e+00 7.6135553527590050e-01 1.8096116315430884e+00 -1.9754383205199715e+00 -1.3696721189249825e+00 3.4770894573283767e-01 1.9222073152811301e+00 -1.4586899506435982e+00 -3.5149570454805423e-01 -1.9866491046312640e+00 -2.9120395714130254e-01 -4.7463884569640924e-01 8.3331569877948292e-02 -8.6218789200323420e-01 
        </Neuron>
        <Neuron NSynapses="15">
          -4.7355855949472482e-02 -4.2989855738447807e-01 1.3526028432091142e+00 3.8824907846082340e-01 1.5046363964299727e+00 -3.0922436628485139e-01 -9.6746648350353504e-01 8.8596405339700890e-01 -2.4376759458834196e-01 -1.1294963997255161e+00 -2.6565894375374566e-01 1.0379744933833437e+00 -2.7193360097618069e-01 -1.4621541132855880e+00 3.9883506719060829e-01 
        </Neuron>
        <Neuron NSynapses="15">
          5.6574098804933981e-01 1.8046099630399748e+00 -5.4638093313064318e-01 4.0287105452370714e-02 2.8362147574824287e-01 -4.5060596222153304e-02 -2.0760307705737002e+00 1.6997740286015837e+00 -1.3437926452116400e+00 9.8896893042484757e-01 4.2975652644876805e-01 8.0977621255168086e-01 1.9397639898820564e+00 1.4042207979318093e+00 -4.4431617352106312e-01 
        </Neuron>
        <Neuron NSynapses="15">
          -1.8872825833880036e+00 8.6129981077425488e-01 -8.6719037755585232e-02 1.5998591328600595e+00 1.5319035175822859e+00 1.6203239634594280e+00 6.0671959689856481e-01 -1.6386166605877022e+00 1.2294885466208485e+00 -2.1279253499868087e+00 -9.3595355187011520e-01 -1.5849703914747848e+00 -1.8676916407318167e+00 1.4545147268653658e+00 1.0686938179897927e+00 
        </Neuron>
        <Neuron NSynapses="15">
          -1.4267002693805360e+00 3.4232308292039870e-01 5.5051844616157822e-02 4.5510785532302783e-01 1.6602255293436399e+00 1.5090353179743937e-01 1.1385248050363907e-01 -1.4838581584379700e+00 3.9154139945642313e-01 -1.0938530770674727e-01 -4.9926908041009677e-01 -9.7152221720142007e-01 1.0396497993478877e-01 7.3357615602224924e-01 1.4737749768445461e+00 
        </Neuron>
        <Neuron NSynapses="15">
          1.0557183913867936e-01 -1.8024382441367643e+00 -1.5616942948540913e+00 9.0444390605132496e-01 4.7359262499335525e-01 1.7583767571510101e+00 1.4056054757954486e-01 7.9480105982893268e-01 -6.2434597071971698e-01 -1.2701507688046232e+00 3.5403185400972592e-01 8.2409020984858561e-01 -3.9917022598393509e-01 -1.6054422757675388e+00 -1.4813559724677106e+00 
        </Neuron>
        <Neuron NSynapses="15">
          -8.4441294512175724e-01 -3.3266991471769543e-02 1.0101877854266521e+00 -1.1606494913992500e+00 -5.4198403841488307e-01 1.6744409530768642e+00 -9.0205693047030922e-01 -1.3780721360061312e+00 -1.6859881395174148e+00 5.3044133921585968e-02 -1.9310363064806333e+00 -2.0286563118477638e+00 1.6772169949178244e+00 2.3000333202573739e+00 -6.2158936533194964e-01 
        </Neuron>
        <Neuron NSynapses="15">
          1.4100726862534327e+00 -9.7127472291933048e-01 -1.0002752812912552e+00 1.1406480936964129e-01 3.6871664831351891e-01 -1.4992915058563017e+00 2.2050867334202032e-01 2.7836962053118680e-01 2.9905673008166972e-01 -6.3233677877479000e-01 1.1287872991624355e+00 1.6432728189976950e-01 -2.5207633612927649e-01 1.3907996393690669e+00 -1.2662655196401051e+00 
        </Neuron>
        <Neuron NSynapses="15">
          -2.2970063884737555e+00 1.0997896274792247e-01 -5.5399852673963834e-01 1.9416323088871632e+00 7.9768388433277793e-01 2.8991088701827578e-01 -4.9676355775926739e-01 2.2689580057201608e-01 -1.7127979890643075e+00 1.6414543875466634e+00 -8.5051947090257474e-01 -1.9491175079924563e+00 1.4880651803240112e+00 -5.4071682774391083e-01 1.1253207567052236e-01 
        </Neuron>
        <Neuron NSynapses="15">
          3.9081125951057166e-01 1.7473477533732173e+00 -2.1607291646949638e+00 5.7320557135041972e-01 1.5883009441108447e+00 1.8629141914380725e+00 2.3438057992709738e-01 -1.3542728416658996e+00 -2.9759400683161763e-01 -9.1022576278532619e-01 6.4872565440302998e-01 1.0480007832678055e+00 5.7176619747637669e-01 4.8053080554319033e-01 2.0247817484705460e-01 
        </Neuron>
        <Neuron NSynapses="15">
          -5.3794594890135872e-01 5.6483975836861189e-01 2.3005834492214130e+00 -1.0099139461274840e+00 -7.4111458412522568e-01 3.4467438267217050e-02 1.2168367834789311e+00 4.5109557906000425e-01 1.4197394613119325e+00 -1.7633312669122569e+00 2.4917106799641138e+00 1.1439997914836804e+00 -8.0392010345838039e-01 -2.9230114365768495e-01 7.6029477774185139e-01 
        </Neuron>
      </Layer>
      <Layer Index="1" NNeurons="16">
        <Neuron NSynapses="1">
          -1.8009114287814633e-02 
        </Neuron>
        <Neuron NSynapses="1">
          1.1249094589908117e-02 
        </Neuron>
        <Neuron NSynapses="1">
          -5.7228122940580557e-02 
        </Neuron>
        <Neuron NSynapses="1">
          -6.0485640406258223e-03 
        </Neuron>
        <Neuron NSynapses="1">
          -1.9163095653978151e-02 
        </Neuron>
        <Neuron NSynapses="1">
          3.5615963702743292e-03 
        </Neuron>
        <Neuron NSynapses="1">
          1.3111691809850206e+00 
        </Neuron>
        <Neuron NSynapses="1">
          7.5649151619629597e-03 
        </Neuron>
        <Neuron NSynapses="1">
          1.7187560794506629e+00 
        </Neuron>
        <Neuron NSynapses="1">
          -6.0683182400298940e-03 
        </Neuron>
        <Neuron NSynapses="1">
          -3.8477170890453555e-01 
        </Neuron>
        <Neuron NSynapses="1">
          7.8159016063231557e-02 
        </Neuron>
        <Neuron NSynapses="1">
          5.0384249247495028e-01 
        </Neuron>
        <Neuron NSynapses="1">
          2.3437487881765473e-02 
        </Neuron>
        <Neuron NSynapses="1">
          1.1197633774857091e-03 
        </Neuron>
        <Neuron NSynapses="1">
          -1.1442836690758105e+00 
        </Neuron>
      </Layer>
      <Layer Index="2" NNeurons="1">
        <Neuron NSynapses="0"/>
      </Layer>
    </Layout>
  </Weights>
</MethodSetup>
