<?xml version="1.0"?>
<MethodSetup Method="MLP::MLP">
  <GeneralInfo>
    <Info name="TMVA Release" value="4.2.0 [262656]"/>
    <Info name="ROOT Release" value="6.02/13 [393741]"/>
    <Info name="Creator" value="leure"/>
    <Info name="Date" value="Wed Jun  7 21:04:47 2017"/>
    <Info name="Host" value="Linux vocms029.cern.ch 2.6.32-504.12.2.el6.x86_64 #1 SMP Thu Mar 12 07:33:00 CET 2015 x86_64 x86_64 x86_64 GNU/Linux"/>
    <Info name="Dir" value="/data/leure/TMVA_Luke/myTMVA"/>
    <Info name="Training events" value="12459"/>
    <Info name="TrainingTime" value="7.68383520e+01"/>
    <Info name="AnalysisType" value="Classification"/>
  </GeneralInfo>
  <Options>
    <Option name="NCycles" modified="Yes">600</Option>
    <Option name="HiddenLayers" modified="Yes">N+5</Option>
    <Option name="NeuronType" modified="Yes">tanh</Option>
    <Option name="RandomSeed" modified="No">1</Option>
    <Option name="EstimatorType" modified="No">MSE</Option>
    <Option name="NeuronInputType" modified="No">sum</Option>
    <Option name="V" modified="Yes">False</Option>
    <Option name="VerbosityLevel" modified="No">Default</Option>
    <Option name="VarTransform" modified="Yes">N</Option>
    <Option name="H" modified="Yes">True</Option>
    <Option name="CreateMVAPdfs" modified="No">False</Option>
    <Option name="IgnoreNegWeightsInTraining" modified="No">False</Option>
    <Option name="TrainingMethod" modified="No">BP</Option>
    <Option name="LearningRate" modified="No">2.000000e-02</Option>
    <Option name="DecayRate" modified="No">1.000000e-02</Option>
    <Option name="TestRate" modified="Yes">5</Option>
    <Option name="EpochMonitoring" modified="No">False</Option>
    <Option name="Sampling" modified="No">1.000000e+00</Option>
    <Option name="SamplingEpoch" modified="No">1.000000e+00</Option>
    <Option name="SamplingImportance" modified="No">1.000000e+00</Option>
    <Option name="SamplingTraining" modified="No">True</Option>
    <Option name="SamplingTesting" modified="No">False</Option>
    <Option name="ResetStep" modified="No">50</Option>
    <Option name="Tau" modified="No">3.000000e+00</Option>
    <Option name="BPMode" modified="No">sequential</Option>
    <Option name="BatchSize" modified="No">-1</Option>
    <Option name="ConvergenceImprove" modified="No">1.000000e-30</Option>
    <Option name="ConvergenceTests" modified="No">-1</Option>
    <Option name="UseRegulator" modified="Yes">False</Option>
    <Option name="UpdateLimit" modified="No">10000</Option>
    <Option name="CalculateErrors" modified="No">False</Option>
    <Option name="WeightRange" modified="No">1.000000e+00</Option>
  </Options>
  <Variables NVar="10">
    <Variable VarIndex="0" Expression="Dtrk1Pt" Label="Dtrk1Pt" Title="Dtrk1Pt" Unit="" Internal="Dtrk1Pt" Type="F" Min="5.02701044e-01" Max="8.63675079e+01"/>
    <Variable VarIndex="1" Expression="DRestrk1Pt" Label="DRestrk1Pt" Title="DRestrk1Pt" Unit="" Internal="DRestrk1Pt" Type="F" Min="5.47004879e-01" Max="8.78757324e+01"/>
    <Variable VarIndex="2" Expression="DRestrk2Pt" Label="DRestrk2Pt" Title="DRestrk2Pt" Unit="" Internal="DRestrk2Pt" Type="F" Min="5.01080751e-01" Max="8.53953247e+01"/>
    <Variable VarIndex="3" Expression="DtktkRespt" Label="DtktkRespt" Title="DtktkRespt" Unit="" Internal="DtktkRespt" Type="F" Min="8.01869392e+00" Max="9.76102982e+01"/>
    <Variable VarIndex="4" Expression="Dchi2cl" Label="Dchi2cl" Title="Dchi2cl" Unit="" Internal="Dchi2cl" Type="F" Min="5.00933975e-02" Max="9.99967933e-01"/>
    <Variable VarIndex="5" Expression="DtktkRes_chi2cl" Label="DtktkRes_chi2cl" Title="DtktkRes_chi2cl" Unit="" Internal="DtktkRes_chi2cl" Type="F" Min="5.00601940e-02" Max="9.99930680e-01"/>
    <Variable VarIndex="6" Expression="Dalpha" Label="Dalpha" Title="Dalpha" Unit="" Internal="Dalpha" Type="F" Min="2.90316275e-05" Max="1.99813068e-01"/>
    <Variable VarIndex="7" Expression="DtktkRes_alpha" Label="DtktkRes_alpha" Title="DtktkRes_alpha" Unit="" Internal="DtktkRes_alpha" Type="F" Min="7.98378824e-05" Max="1.98054850e-01"/>
    <Variable VarIndex="8" Expression="DsvpvDistance/DsvpvDisErr" Label="DsvpvDistance/DsvpvDisErr" Title="DsvpvDistance/DsvpvDisErr" Unit="" Internal="DsvpvDistance_D_DsvpvDisErr" Type="F" Min="2.00152063e+00" Max="7.98914795e+02"/>
    <Variable VarIndex="9" Expression="DtktkRes_svpvDistance/DtktkRes_svpvDisErr" Label="DtktkRes_svpvDistance/DtktkRes_svpvDisErr" Title="DtktkRes_svpvDistance/DtktkRes_svpvDisErr" Unit="" Internal="DtktkRes_svpvDistance_D_DtktkRes_svpvDisErr" Type="F" Min="2.00806141e+00" Max="5.31915466e+02"/>
  </Variables>
  <Spectators NSpec="0"/>
  <Classes NClass="2">
    <Class Name="Signal" Index="0"/>
    <Class Name="Background" Index="1"/>
  </Classes>
  <Transformations NTransformations="1">
    <Transform Name="Normalize">
      <Selection>
        <Input NInputs="10">
          <Input Type="Variable" Label="Dtrk1Pt" Expression="Dtrk1Pt"/>
          <Input Type="Variable" Label="DRestrk1Pt" Expression="DRestrk1Pt"/>
          <Input Type="Variable" Label="DRestrk2Pt" Expression="DRestrk2Pt"/>
          <Input Type="Variable" Label="DtktkRespt" Expression="DtktkRespt"/>
          <Input Type="Variable" Label="Dchi2cl" Expression="Dchi2cl"/>
          <Input Type="Variable" Label="DtktkRes_chi2cl" Expression="DtktkRes_chi2cl"/>
          <Input Type="Variable" Label="Dalpha" Expression="Dalpha"/>
          <Input Type="Variable" Label="DtktkRes_alpha" Expression="DtktkRes_alpha"/>
          <Input Type="Variable" Label="DsvpvDistance/DsvpvDisErr" Expression="DsvpvDistance/DsvpvDisErr"/>
          <Input Type="Variable" Label="DtktkRes_svpvDistance/DtktkRes_svpvDisErr" Expression="DtktkRes_svpvDistance/DtktkRes_svpvDisErr"/>
        </Input>
        <Output NOutputs="10">
          <Output Type="Variable" Label="Dtrk1Pt" Expression="Dtrk1Pt"/>
          <Output Type="Variable" Label="DRestrk1Pt" Expression="DRestrk1Pt"/>
          <Output Type="Variable" Label="DRestrk2Pt" Expression="DRestrk2Pt"/>
          <Output Type="Variable" Label="DtktkRespt" Expression="DtktkRespt"/>
          <Output Type="Variable" Label="Dchi2cl" Expression="Dchi2cl"/>
          <Output Type="Variable" Label="DtktkRes_chi2cl" Expression="DtktkRes_chi2cl"/>
          <Output Type="Variable" Label="Dalpha" Expression="Dalpha"/>
          <Output Type="Variable" Label="DtktkRes_alpha" Expression="DtktkRes_alpha"/>
          <Output Type="Variable" Label="DsvpvDistance/DsvpvDisErr" Expression="DsvpvDistance/DsvpvDisErr"/>
          <Output Type="Variable" Label="DtktkRes_svpvDistance/DtktkRes_svpvDisErr" Expression="DtktkRes_svpvDistance/DtktkRes_svpvDisErr"/>
        </Output>
      </Selection>
      <Class ClassIndex="0">
        <Ranges>
          <Range Index="0" Min="5.2623379230499268e-01" Max="8.6367507934570312e+01"/>
          <Range Index="1" Min="5.4700487852096558e-01" Max="8.7875732421875000e+01"/>
          <Range Index="2" Min="5.0108075141906738e-01" Max="8.5395324707031250e+01"/>
          <Range Index="3" Min="8.0186939239501953e+00" Max="9.7610298156738281e+01"/>
          <Range Index="4" Min="5.0093397498130798e-02" Max="9.9996793270111084e-01"/>
          <Range Index="5" Min="5.0060193985700607e-02" Max="9.9993067979812622e-01"/>
          <Range Index="6" Min="2.9031627491349354e-05" Max="1.9981306791305542e-01"/>
          <Range Index="7" Min="7.9837882367428392e-05" Max="1.9805485010147095e-01"/>
          <Range Index="8" Min="2.0015206336975098e+00" Max="7.9891479492187500e+02"/>
          <Range Index="9" Min="2.0080614089965820e+00" Max="5.3191546630859375e+02"/>
        </Ranges>
      </Class>
      <Class ClassIndex="1">
        <Ranges>
          <Range Index="0" Min="5.0270104408264160e-01" Max="7.5455329895019531e+01"/>
          <Range Index="1" Min="5.6564772129058838e-01" Max="6.5907722473144531e+01"/>
          <Range Index="2" Min="6.7559289932250977e-01" Max="8.0634033203125000e+01"/>
          <Range Index="3" Min="8.5617704391479492e+00" Max="9.1505714416503906e+01"/>
          <Range Index="4" Min="6.6106073558330536e-02" Max="9.7333782911300659e-01"/>
          <Range Index="5" Min="5.3503420203924179e-02" Max="9.9856388568878174e-01"/>
          <Range Index="6" Min="1.9128430867567658e-03" Max="1.9108423590660095e-01"/>
          <Range Index="7" Min="5.3475878667086363e-04" Max="1.5726913511753082e-01"/>
          <Range Index="8" Min="2.0274114608764648e+00" Max="2.7954486083984375e+02"/>
          <Range Index="9" Min="2.0177152156829834e+00" Max="2.6791259765625000e+02"/>
        </Ranges>
      </Class>
      <Class ClassIndex="2">
        <Ranges>
          <Range Index="0" Min="5.0270104408264160e-01" Max="8.6367507934570312e+01"/>
          <Range Index="1" Min="5.4700487852096558e-01" Max="8.7875732421875000e+01"/>
          <Range Index="2" Min="5.0108075141906738e-01" Max="8.5395324707031250e+01"/>
          <Range Index="3" Min="8.0186939239501953e+00" Max="9.7610298156738281e+01"/>
          <Range Index="4" Min="5.0093397498130798e-02" Max="9.9996793270111084e-01"/>
          <Range Index="5" Min="5.0060193985700607e-02" Max="9.9993067979812622e-01"/>
          <Range Index="6" Min="2.9031627491349354e-05" Max="1.9981306791305542e-01"/>
          <Range Index="7" Min="7.9837882367428392e-05" Max="1.9805485010147095e-01"/>
          <Range Index="8" Min="2.0015206336975098e+00" Max="7.9891479492187500e+02"/>
          <Range Index="9" Min="2.0080614089965820e+00" Max="5.3191546630859375e+02"/>
        </Ranges>
      </Class>
    </Transform>
  </Transformations>
  <MVAPdfs/>
  <Weights>
    <Layout NLayers="3">
      <Layer Index="0" NNeurons="11">
        <Neuron NSynapses="15">
          -3.6884187256242862e-01 1.9563431801204678e+00 8.5475088163789870e-01 1.8794561180011660e+00 -1.8128019671425710e+00 -1.1709949252239609e+00 -2.4881136009180391e-01 1.9405297287920722e+00 -1.3846175068653532e+00 -1.3962056421311118e+00 -2.0054069503860315e+00 -3.8370122841298621e-01 -1.1971037661821120e+00 -2.8880310955094290e-01 -8.2020135753672596e-01 
        </Neuron>
        <Neuron NSynapses="15">
          8.6569348209067420e-01 -3.0587436408603041e-01 1.5761014822812538e+00 3.3345326512288664e-01 1.3878576551073378e+00 -8.0991094510092787e-02 -6.7371199714503971e-01 4.8077992711206885e-01 -1.2626741128515406e-01 -1.2570806495420903e+00 -8.3253781164427665e-01 1.3327966500346349e+00 -8.1099204470818964e-01 -1.7596407160052099e+00 -3.3841919386802360e-01 
        </Neuron>
        <Neuron NSynapses="15">
          8.1841188510095630e-01 1.7041215730707699e+00 -4.9847353772600111e-01 2.2464704352032733e-01 3.8082760107090491e-01 5.8820161958962502e-01 -1.9368394522627319e+00 1.5398855454405553e+00 -1.4016453215198870e+00 -1.4490820064412155e-01 6.3517323886997423e-01 8.5295683465763195e-01 2.0659464326096124e+00 1.3135539395769773e+00 -1.1332854338088727e+00 
        </Neuron>
        <Neuron NSynapses="15">
          -1.4361790816242266e+00 8.3857996935050072e-01 -1.0950606048975746e-01 1.5711111777408027e+00 1.4520853150208990e+00 2.0508233980556425e+00 9.9592071256698544e-01 -1.9290783078127192e+00 1.1437067120579496e+00 -2.2076944367782763e+00 -1.2347299131572878e+00 -1.4402183880309150e+00 -1.5220361495277761e+00 1.5736856547324465e+00 2.4943497379900428e-01 
        </Neuron>
        <Neuron NSynapses="15">
          -1.5903293800352316e+00 3.3586436818640503e-01 -2.3955183993400600e-01 5.0730178997180964e-01 1.6778829916535194e+00 -4.0069839230780624e-01 1.4383371978818507e-01 -8.2519064361470706e-01 5.0880070686972689e-01 -1.3997521552058595e-01 -7.2852148515959370e-01 -1.1888748745131887e+00 5.6130253700273813e-01 1.1395671921855814e+00 8.7801517546716656e-01 
        </Neuron>
        <Neuron NSynapses="15">
          -2.9678102249346511e-01 -1.8664652236386481e+00 -1.7416352373011810e+00 7.4591641973830247e-01 5.2660259733582382e-01 1.4284384967500228e+00 3.2829572707887900e-01 7.9783156961247181e-01 -6.9249745059438950e-01 -6.0359580944681368e-01 -1.5093869389790918e-02 8.5412824544475408e-01 -1.1258321878265611e+00 -1.4589896401566698e+00 -1.3477350457099897e+00 
        </Neuron>
        <Neuron NSynapses="15">
          -3.2393133118985937e-02 -3.2626182693420359e-02 1.4102168406940336e+00 -9.8924153214165211e-01 -6.8688530472083664e-01 1.6662030020348466e+00 -7.3254456437571924e-01 -1.6497221334155059e+00 -1.6442490990428811e+00 -1.5783902826112080e+00 -1.5455090363167201e+00 -1.9422511182853066e+00 9.6189831146888927e-01 1.7878944397319025e+00 -1.3463471547893835e+00 
        </Neuron>
        <Neuron NSynapses="15">
          1.5384809017977297e+00 -8.9250422406256591e-01 -6.9692810333373856e-01 3.4264836466734633e-01 4.7561047753089652e-01 -1.2832510554823648e+00 4.6055760691213155e-01 7.2290412581783856e-02 3.0960625932279684e-01 -1.8001138921671875e+00 1.0731210780311065e+00 4.3201073811215412e-01 -9.0420990967858383e-01 9.7705838854307281e-01 -9.4604531133564163e-01 
        </Neuron>
        <Neuron NSynapses="15">
          -1.4738764851940160e+00 2.0136622037741178e-01 -4.5795305495490851e-01 2.0087550697409431e+00 9.5079274528607138e-01 5.3929916875358219e-01 -4.1348826895234853e-01 -1.4090906449148604e-02 -1.8758724327373066e+00 4.3517209834762488e-01 -9.9910611294479912e-01 -1.8358299560108453e+00 8.9845763213486007e-01 -1.2143885527735208e+00 -5.0551013642769471e-01 
        </Neuron>
        <Neuron NSynapses="15">
          1.2702724366734250e+00 1.8415279374795461e+00 -2.0222555963951865e+00 5.4641874931946333e-01 1.7209299207084807e+00 2.0664071675986064e+00 2.6397854106856866e-01 -1.5650467471172682e+00 -2.3832658355264211e-01 -1.8688449217874350e+00 5.1280952129701607e-01 1.1646627097863194e+00 -2.7528898205722968e-01 -1.8243970919819577e-01 -4.1043110462330051e-01 
        </Neuron>
        <Neuron NSynapses="15">
          -1.4935064220045151e+00 5.0281970050347824e-01 1.8907669257268145e+00 -1.1854745287353958e+00 -8.0266609408159162e-01 -4.7633551827582304e-01 1.0999237681156127e+00 7.9897643504026439e-01 1.2015514941579499e+00 -3.2151984297515063e-01 2.5813266397974650e+00 8.4715802868567525e-01 2.2632109780605553e-01 3.7749008966832925e-01 1.5243518895152610e+00 
        </Neuron>
      </Layer>
      <Layer Index="1" NNeurons="16">
        <Neuron NSynapses="1">
          -2.4890303056233532e-03 
        </Neuron>
        <Neuron NSynapses="1">
          1.2840785084622781e-02 
        </Neuron>
        <Neuron NSynapses="1">
          -2.3001245151729197e-03 
        </Neuron>
        <Neuron NSynapses="1">
          4.4199737054422511e-02 
        </Neuron>
        <Neuron NSynapses="1">
          2.3542769376306956e-02 
        </Neuron>
        <Neuron NSynapses="1">
          -9.1909802854508865e-02 
        </Neuron>
        <Neuron NSynapses="1">
          1.1886498813172788e+00 
        </Neuron>
        <Neuron NSynapses="1">
          3.1882137657898928e-02 
        </Neuron>
        <Neuron NSynapses="1">
          1.6449758376082844e+00 
        </Neuron>
        <Neuron NSynapses="1">
          1.3922418172959683e+00 
        </Neuron>
        <Neuron NSynapses="1">
          -9.4935846003482660e-01 
        </Neuron>
        <Neuron NSynapses="1">
          -3.3570320570828649e-02 
        </Neuron>
        <Neuron NSynapses="1">
          1.1057845153461466e-02 
        </Neuron>
        <Neuron NSynapses="1">
          -6.7396519596095777e-03 
        </Neuron>
        <Neuron NSynapses="1">
          -9.8908853796127505e-01 
        </Neuron>
        <Neuron NSynapses="1">
          -1.2941388298239094e+00 
        </Neuron>
      </Layer>
      <Layer Index="2" NNeurons="1">
        <Neuron NSynapses="0"/>
      </Layer>
    </Layout>
  </Weights>
</MethodSetup>
