<?xml version="1.0"?>
<MethodSetup Method="MLP::MLP">
  <GeneralInfo>
    <Info name="TMVA Release" value="4.2.0 [262656]"/>
    <Info name="ROOT Release" value="6.02/13 [393741]"/>
    <Info name="Creator" value="leure"/>
    <Info name="Date" value="Tue Jun  6 17:36:33 2017"/>
    <Info name="Host" value="Linux vocms029.cern.ch 2.6.32-504.12.2.el6.x86_64 #1 SMP Thu Mar 12 07:33:00 CET 2015 x86_64 x86_64 x86_64 GNU/Linux"/>
    <Info name="Dir" value="/data/leure/TMVA_Luke/myTMVA"/>
    <Info name="Training events" value="1850"/>
    <Info name="TrainingTime" value="1.15279539e+01"/>
    <Info name="AnalysisType" value="Classification"/>
  </GeneralInfo>
  <Options>
    <Option name="NCycles" modified="Yes">600</Option>
    <Option name="HiddenLayers" modified="Yes">N+5</Option>
    <Option name="NeuronType" modified="Yes">tanh</Option>
    <Option name="RandomSeed" modified="No">1</Option>
    <Option name="EstimatorType" modified="No">MSE</Option>
    <Option name="NeuronInputType" modified="No">sum</Option>
    <Option name="V" modified="Yes">False</Option>
    <Option name="VerbosityLevel" modified="No">Default</Option>
    <Option name="VarTransform" modified="Yes">N</Option>
    <Option name="H" modified="Yes">True</Option>
    <Option name="CreateMVAPdfs" modified="No">False</Option>
    <Option name="IgnoreNegWeightsInTraining" modified="No">False</Option>
    <Option name="TrainingMethod" modified="No">BP</Option>
    <Option name="LearningRate" modified="No">2.000000e-02</Option>
    <Option name="DecayRate" modified="No">1.000000e-02</Option>
    <Option name="TestRate" modified="Yes">5</Option>
    <Option name="EpochMonitoring" modified="No">False</Option>
    <Option name="Sampling" modified="No">1.000000e+00</Option>
    <Option name="SamplingEpoch" modified="No">1.000000e+00</Option>
    <Option name="SamplingImportance" modified="No">1.000000e+00</Option>
    <Option name="SamplingTraining" modified="No">True</Option>
    <Option name="SamplingTesting" modified="No">False</Option>
    <Option name="ResetStep" modified="No">50</Option>
    <Option name="Tau" modified="No">3.000000e+00</Option>
    <Option name="BPMode" modified="No">sequential</Option>
    <Option name="BatchSize" modified="No">-1</Option>
    <Option name="ConvergenceImprove" modified="No">1.000000e-30</Option>
    <Option name="ConvergenceTests" modified="No">-1</Option>
    <Option name="UseRegulator" modified="Yes">False</Option>
    <Option name="UpdateLimit" modified="No">10000</Option>
    <Option name="CalculateErrors" modified="No">False</Option>
    <Option name="WeightRange" modified="No">1.000000e+00</Option>
  </Options>
  <Variables NVar="10">
    <Variable VarIndex="0" Expression="Dtrk1Pt" Label="Dtrk1Pt" Title="Dtrk1Pt" Unit="" Internal="Dtrk1Pt" Type="F" Min="5.04267275e-01" Max="2.15219936e+01"/>
    <Variable VarIndex="1" Expression="DRestrk1Pt" Label="DRestrk1Pt" Title="DRestrk1Pt" Unit="" Internal="DRestrk1Pt" Type="F" Min="6.11003220e-01" Max="2.64953785e+01"/>
    <Variable VarIndex="2" Expression="DRestrk2Pt" Label="DRestrk2Pt" Title="DRestrk2Pt" Unit="" Internal="DRestrk2Pt" Type="F" Min="5.01210988e-01" Max="2.70570068e+01"/>
    <Variable VarIndex="3" Expression="DtktkRespt" Label="DtktkRespt" Title="DtktkRespt" Unit="" Internal="DtktkRespt" Type="F" Min="8.00263691e+00" Max="2.96220284e+01"/>
    <Variable VarIndex="4" Expression="Dchi2cl" Label="Dchi2cl" Title="Dchi2cl" Unit="" Internal="Dchi2cl" Type="F" Min="5.01793064e-02" Max="9.99834001e-01"/>
    <Variable VarIndex="5" Expression="DtktkRes_chi2cl" Label="DtktkRes_chi2cl" Title="DtktkRes_chi2cl" Unit="" Internal="DtktkRes_chi2cl" Type="F" Min="5.03450036e-02" Max="9.99778450e-01"/>
    <Variable VarIndex="6" Expression="Dalpha" Label="Dalpha" Title="Dalpha" Unit="" Internal="Dalpha" Type="F" Min="3.63119849e-04" Max="1.99936017e-01"/>
    <Variable VarIndex="7" Expression="DtktkRes_alpha" Label="DtktkRes_alpha" Title="DtktkRes_alpha" Unit="" Internal="DtktkRes_alpha" Type="F" Min="8.38859472e-04" Max="1.99973419e-01"/>
    <Variable VarIndex="8" Expression="DsvpvDistance/DsvpvDisErr" Label="DsvpvDistance/DsvpvDisErr" Title="DsvpvDistance/DsvpvDisErr" Unit="" Internal="DsvpvDistance_D_DsvpvDisErr" Type="F" Min="2.00269938e+00" Max="3.50292114e+02"/>
    <Variable VarIndex="9" Expression="DtktkRes_svpvDistance/DtktkRes_svpvDisErr" Label="DtktkRes_svpvDistance/DtktkRes_svpvDisErr" Title="DtktkRes_svpvDistance/DtktkRes_svpvDisErr" Unit="" Internal="DtktkRes_svpvDistance_D_DtktkRes_svpvDisErr" Type="F" Min="2.00757074e+00" Max="1.48390915e+02"/>
  </Variables>
  <Spectators NSpec="0"/>
  <Classes NClass="2">
    <Class Name="Signal" Index="0"/>
    <Class Name="Background" Index="1"/>
  </Classes>
  <Transformations NTransformations="1">
    <Transform Name="Normalize">
      <Selection>
        <Input NInputs="10">
          <Input Type="Variable" Label="Dtrk1Pt" Expression="Dtrk1Pt"/>
          <Input Type="Variable" Label="DRestrk1Pt" Expression="DRestrk1Pt"/>
          <Input Type="Variable" Label="DRestrk2Pt" Expression="DRestrk2Pt"/>
          <Input Type="Variable" Label="DtktkRespt" Expression="DtktkRespt"/>
          <Input Type="Variable" Label="Dchi2cl" Expression="Dchi2cl"/>
          <Input Type="Variable" Label="DtktkRes_chi2cl" Expression="DtktkRes_chi2cl"/>
          <Input Type="Variable" Label="Dalpha" Expression="Dalpha"/>
          <Input Type="Variable" Label="DtktkRes_alpha" Expression="DtktkRes_alpha"/>
          <Input Type="Variable" Label="DsvpvDistance/DsvpvDisErr" Expression="DsvpvDistance/DsvpvDisErr"/>
          <Input Type="Variable" Label="DtktkRes_svpvDistance/DtktkRes_svpvDisErr" Expression="DtktkRes_svpvDistance/DtktkRes_svpvDisErr"/>
        </Input>
        <Output NOutputs="10">
          <Output Type="Variable" Label="Dtrk1Pt" Expression="Dtrk1Pt"/>
          <Output Type="Variable" Label="DRestrk1Pt" Expression="DRestrk1Pt"/>
          <Output Type="Variable" Label="DRestrk2Pt" Expression="DRestrk2Pt"/>
          <Output Type="Variable" Label="DtktkRespt" Expression="DtktkRespt"/>
          <Output Type="Variable" Label="Dchi2cl" Expression="Dchi2cl"/>
          <Output Type="Variable" Label="DtktkRes_chi2cl" Expression="DtktkRes_chi2cl"/>
          <Output Type="Variable" Label="Dalpha" Expression="Dalpha"/>
          <Output Type="Variable" Label="DtktkRes_alpha" Expression="DtktkRes_alpha"/>
          <Output Type="Variable" Label="DsvpvDistance/DsvpvDisErr" Expression="DsvpvDistance/DsvpvDisErr"/>
          <Output Type="Variable" Label="DtktkRes_svpvDistance/DtktkRes_svpvDisErr" Expression="DtktkRes_svpvDistance/DtktkRes_svpvDisErr"/>
        </Output>
      </Selection>
      <Class ClassIndex="0">
        <Ranges>
          <Range Index="0" Min="5.0426727533340454e-01" Max="2.1521993637084961e+01"/>
          <Range Index="1" Min="6.1100322008132935e-01" Max="2.6250354766845703e+01"/>
          <Range Index="2" Min="5.0121098756790161e-01" Max="2.5510660171508789e+01"/>
          <Range Index="3" Min="8.0026369094848633e+00" Max="2.8296966552734375e+01"/>
          <Range Index="4" Min="5.0179306417703629e-02" Max="9.9983400106430054e-01"/>
          <Range Index="5" Min="5.0345003604888916e-02" Max="9.9977844953536987e-01"/>
          <Range Index="6" Min="3.6311984877102077e-04" Max="1.9272114336490631e-01"/>
          <Range Index="7" Min="1.7295822035521269e-03" Max="1.9997341930866241e-01"/>
          <Range Index="8" Min="2.0312585830688477e+00" Max="3.5029211425781250e+02"/>
          <Range Index="9" Min="2.0075707435607910e+00" Max="1.4839091491699219e+02"/>
        </Ranges>
      </Class>
      <Class ClassIndex="1">
        <Ranges>
          <Range Index="0" Min="5.0993758440017700e-01" Max="1.5188194274902344e+01"/>
          <Range Index="1" Min="6.2634122371673584e-01" Max="2.6495378494262695e+01"/>
          <Range Index="2" Min="6.3560461997985840e-01" Max="2.7057006835937500e+01"/>
          <Range Index="3" Min="9.1947317123413086e+00" Max="2.9622028350830078e+01"/>
          <Range Index="4" Min="5.0658013671636581e-02" Max="9.8574632406234741e-01"/>
          <Range Index="5" Min="5.1306158304214478e-02" Max="9.9735516309738159e-01"/>
          <Range Index="6" Min="3.4521904308348894e-03" Max="1.9993601739406586e-01"/>
          <Range Index="7" Min="8.3885947242379189e-04" Max="1.8689918518066406e-01"/>
          <Range Index="8" Min="2.0026993751525879e+00" Max="1.7780200195312500e+02"/>
          <Range Index="9" Min="2.0105891227722168e+00" Max="3.1841482162475586e+01"/>
        </Ranges>
      </Class>
      <Class ClassIndex="2">
        <Ranges>
          <Range Index="0" Min="5.0426727533340454e-01" Max="2.1521993637084961e+01"/>
          <Range Index="1" Min="6.1100322008132935e-01" Max="2.6495378494262695e+01"/>
          <Range Index="2" Min="5.0121098756790161e-01" Max="2.7057006835937500e+01"/>
          <Range Index="3" Min="8.0026369094848633e+00" Max="2.9622028350830078e+01"/>
          <Range Index="4" Min="5.0179306417703629e-02" Max="9.9983400106430054e-01"/>
          <Range Index="5" Min="5.0345003604888916e-02" Max="9.9977844953536987e-01"/>
          <Range Index="6" Min="3.6311984877102077e-04" Max="1.9993601739406586e-01"/>
          <Range Index="7" Min="8.3885947242379189e-04" Max="1.9997341930866241e-01"/>
          <Range Index="8" Min="2.0026993751525879e+00" Max="3.5029211425781250e+02"/>
          <Range Index="9" Min="2.0075707435607910e+00" Max="1.4839091491699219e+02"/>
        </Ranges>
      </Class>
    </Transform>
  </Transformations>
  <MVAPdfs/>
  <Weights>
    <Layout NLayers="3">
      <Layer Index="0" NNeurons="11">
        <Neuron NSynapses="15">
          -1.0120189737224998e+00 1.6740277510644632e+00 8.4370133642280731e-01 1.6376622983230877e+00 -2.0403230816524940e+00 -1.5714038772555157e+00 -1.0469740194671948e+00 3.0120168023674658e+00 -1.5579181449179544e+00 -6.3989178496663790e-01 -1.5568430829765958e+00 -6.6726192571583465e-01 -1.0519153010174751e+00 -1.6111595079707092e-01 -6.6314187561717897e-01 
        </Neuron>
        <Neuron NSynapses="15">
          5.3857764939000785e-01 -4.1641228091612753e-01 1.6551573029324353e+00 4.0004075593477745e-01 8.2969880425157527e-01 1.0624829652869021e-01 -7.7854962763740587e-01 4.0644187249414027e-01 -2.1923133080862706e-01 -1.1567783119683361e+00 3.7326447249650596e-01 1.1692527036754115e+00 -6.0986367316167633e-01 -1.7213795696870424e+00 -1.7303852825588165e-01 
        </Neuron>
        <Neuron NSynapses="15">
          5.7711108137686939e-01 1.5248577545272763e+00 -5.1981024518868635e-01 -7.8733821213350708e-02 7.6058760131295899e-01 3.0868409288075199e-01 -1.7568156082013793e+00 3.6794311171570626e-01 -1.4030290880227427e+00 6.4724808102716558e-01 5.2845337283161309e-01 9.8712319532046133e-01 2.0621726399241811e+00 1.3036301353586368e+00 -9.8011756719646104e-01 
        </Neuron>
        <Neuron NSynapses="15">
          -1.3977695407578865e+00 8.2055661390464851e-01 -6.0804831480771079e-02 1.6569293477399314e+00 1.5699557854303474e+00 1.6466342247094914e+00 1.0068899104274189e+00 -1.0688271371534117e+00 8.1819560836396588e-01 -2.1993369020448221e+00 -7.8149113326599662e-01 -1.1827821512909629e+00 -1.5689192309655402e+00 1.4835781414338454e+00 4.7291784367392109e-01 
        </Neuron>
        <Neuron NSynapses="15">
          -1.6176968936805987e+00 3.0672975945174114e-01 1.0088407318371509e-02 6.3786496107251089e-01 4.3112187125467655e-01 -1.6445773819541898e-01 -1.9792492871248318e-02 5.2740389383007999e-02 4.0901319423844162e-01 7.4569866644407914e-02 -3.7631330162465382e-01 -8.9219921708466643e-01 2.9844443551883182e-01 1.1511106722882203e+00 8.6512415104259066e-01 
        </Neuron>
        <Neuron NSynapses="15">
          -2.1791069417391970e-01 -1.9237985511169924e+00 -1.7572188491289715e+00 9.5530706822397715e-01 4.3549165575408683e-01 4.5191917322909192e-01 3.7311878893146327e-01 -6.6197223892693308e-02 -2.7461777671245313e-01 -1.3184108588361723e+00 -5.7512460259692455e-01 1.0501915031208942e+00 -1.1060438070006950e+00 -1.7157708747979274e+00 -1.3231951104337687e+00 
        </Neuron>
        <Neuron NSynapses="15">
          -3.5663672078213104e-01 2.3560765449526722e-02 1.3078869520105638e+00 -1.2928097891924983e+00 -8.4469241645729876e-01 1.9737574871072643e+00 -8.5256065626454069e-01 -9.0117928522212398e-01 -2.1094191878783635e+00 -5.4327861426406021e-01 -2.0115323932361018e+00 -2.1886572658251104e+00 1.1519152131406134e+00 1.7541962169198142e+00 -9.1841303835138266e-01 
        </Neuron>
        <Neuron NSynapses="15">
          1.0478427578553506e+00 -1.2162939292895876e+00 -6.7086916646129036e-01 -1.2583252046530022e-01 1.4343310977590108e-02 -1.8149043540113090e+00 2.7575556480756802e-01 1.2099566411755829e+00 -3.5664492810040055e-01 -8.7749992592905379e-01 1.8002767559682602e+00 3.2503293185139953e-01 -9.1656082905683645e-01 1.0586947652866663e+00 -9.5699733866461423e-01 
        </Neuron>
        <Neuron NSynapses="15">
          -2.3066259310321993e+00 -1.1851395275195285e-01 -4.7476339519548943e-01 1.9384144378559316e+00 8.2085470345586642e-01 9.3008391756091602e-01 -4.1278946290615509e-01 -6.9604637615590903e-01 -1.6028654162749592e+00 1.0707158269612191e+00 -2.4297635815596602e-01 -2.2003069623325477e+00 1.1769799266554730e+00 -1.0169334752567132e+00 -6.0746274685236923e-01 
        </Neuron>
        <Neuron NSynapses="15">
          4.3712427286838090e-01 1.5945127813238615e+00 -1.9934054174859244e+00 4.2633162348480785e-01 1.9344999536492373e+00 1.6143715314125968e+00 6.6211009000128121e-02 4.2518908297128083e-01 -4.7209995563561737e-02 -1.2986496417953779e+00 1.1200801955068607e+00 8.3335319274457997e-01 -1.8029198072534924e-01 -2.2959075639970371e-02 -5.5104039017378459e-01 
        </Neuron>
        <Neuron NSynapses="15">
          -6.6722324133967348e-01 8.8037728887959543e-01 1.9692055264303541e+00 -8.8021418896939019e-01 -4.6073753400163253e-01 -1.1933005246058905e+00 1.1576075311771206e+00 3.9299079925812257e+00 1.0564262155396547e+00 -1.2528119698639697e+00 1.8378600412807531e+00 1.2641050470126161e+00 -2.7013172166866356e-01 1.5167788850461134e-01 1.5793334254169547e+00 
        </Neuron>
      </Layer>
      <Layer Index="1" NNeurons="16">
        <Neuron NSynapses="1">
          -1.1829459079515410e-02 
        </Neuron>
        <Neuron NSynapses="1">
          -5.9785063530743768e-03 
        </Neuron>
        <Neuron NSynapses="1">
          3.2621424380285972e-02 
        </Neuron>
        <Neuron NSynapses="1">
          -2.1448741197634710e-01 
        </Neuron>
        <Neuron NSynapses="1">
          1.0877957573850648e-01 
        </Neuron>
        <Neuron NSynapses="1">
          5.5493483368662910e-01 
        </Neuron>
        <Neuron NSynapses="1">
          7.8045333485774726e-01 
        </Neuron>
        <Neuron NSynapses="1">
          1.2596011423650502e+00 
        </Neuron>
        <Neuron NSynapses="1">
          1.3148933925653825e+00 
        </Neuron>
        <Neuron NSynapses="1">
          -1.6854498422641335e-03 
        </Neuron>
        <Neuron NSynapses="1">
          -2.1120380030769097e-02 
        </Neuron>
        <Neuron NSynapses="1">
          2.9905256703770085e-02 
        </Neuron>
        <Neuron NSynapses="1">
          1.1271455460622415e-02 
        </Neuron>
        <Neuron NSynapses="1">
          1.6718774110583979e-04 
        </Neuron>
        <Neuron NSynapses="1">
          -2.5656186440212969e-01 
        </Neuron>
        <Neuron NSynapses="1">
          -1.6600079355499298e+00 
        </Neuron>
      </Layer>
      <Layer Index="2" NNeurons="1">
        <Neuron NSynapses="0"/>
      </Layer>
    </Layout>
  </Weights>
</MethodSetup>
