<?xml version="1.0"?>
<MethodSetup Method="MLP::MLP">
  <GeneralInfo>
    <Info name="TMVA Release" value="4.2.0 [262656]"/>
    <Info name="ROOT Release" value="6.02/13 [393741]"/>
    <Info name="Creator" value="leure"/>
    <Info name="Date" value="Tue Jun  6 18:44:55 2017"/>
    <Info name="Host" value="Linux vocms029.cern.ch 2.6.32-504.12.2.el6.x86_64 #1 SMP Thu Mar 12 07:33:00 CET 2015 x86_64 x86_64 x86_64 GNU/Linux"/>
    <Info name="Dir" value="/data/leure/TMVA_Luke/myTMVA"/>
    <Info name="Training events" value="794"/>
    <Info name="TrainingTime" value="5.31911707e+00"/>
    <Info name="AnalysisType" value="Classification"/>
  </GeneralInfo>
  <Options>
    <Option name="NCycles" modified="Yes">600</Option>
    <Option name="HiddenLayers" modified="Yes">N+5</Option>
    <Option name="NeuronType" modified="Yes">tanh</Option>
    <Option name="RandomSeed" modified="No">1</Option>
    <Option name="EstimatorType" modified="No">MSE</Option>
    <Option name="NeuronInputType" modified="No">sum</Option>
    <Option name="V" modified="Yes">False</Option>
    <Option name="VerbosityLevel" modified="No">Default</Option>
    <Option name="VarTransform" modified="Yes">N</Option>
    <Option name="H" modified="Yes">True</Option>
    <Option name="CreateMVAPdfs" modified="No">False</Option>
    <Option name="IgnoreNegWeightsInTraining" modified="No">False</Option>
    <Option name="TrainingMethod" modified="No">BP</Option>
    <Option name="LearningRate" modified="No">2.000000e-02</Option>
    <Option name="DecayRate" modified="No">1.000000e-02</Option>
    <Option name="TestRate" modified="Yes">5</Option>
    <Option name="EpochMonitoring" modified="No">False</Option>
    <Option name="Sampling" modified="No">1.000000e+00</Option>
    <Option name="SamplingEpoch" modified="No">1.000000e+00</Option>
    <Option name="SamplingImportance" modified="No">1.000000e+00</Option>
    <Option name="SamplingTraining" modified="No">True</Option>
    <Option name="SamplingTesting" modified="No">False</Option>
    <Option name="ResetStep" modified="No">50</Option>
    <Option name="Tau" modified="No">3.000000e+00</Option>
    <Option name="BPMode" modified="No">sequential</Option>
    <Option name="BatchSize" modified="No">-1</Option>
    <Option name="ConvergenceImprove" modified="No">1.000000e-30</Option>
    <Option name="ConvergenceTests" modified="No">-1</Option>
    <Option name="UseRegulator" modified="Yes">False</Option>
    <Option name="UpdateLimit" modified="No">10000</Option>
    <Option name="CalculateErrors" modified="No">False</Option>
    <Option name="WeightRange" modified="No">1.000000e+00</Option>
  </Options>
  <Variables NVar="10">
    <Variable VarIndex="0" Expression="Dtrk1Pt" Label="Dtrk1Pt" Title="Dtrk1Pt" Unit="" Internal="Dtrk1Pt" Type="F" Min="5.08002222e-01" Max="1.48648701e+01"/>
    <Variable VarIndex="1" Expression="DRestrk1Pt" Label="DRestrk1Pt" Title="DRestrk1Pt" Unit="" Internal="DRestrk1Pt" Type="F" Min="8.31826389e-01" Max="2.14123878e+01"/>
    <Variable VarIndex="2" Expression="DRestrk2Pt" Label="DRestrk2Pt" Title="DRestrk2Pt" Unit="" Internal="DRestrk2Pt" Type="F" Min="5.68991482e-01" Max="2.06765480e+01"/>
    <Variable VarIndex="3" Expression="DtktkRespt" Label="DtktkRespt" Title="DtktkRespt" Unit="" Internal="DtktkRespt" Type="F" Min="8.03139591e+00" Max="2.27082043e+01"/>
    <Variable VarIndex="4" Expression="Dchi2cl" Label="Dchi2cl" Title="Dchi2cl" Unit="" Internal="Dchi2cl" Type="F" Min="5.01248650e-02" Max="9.99834001e-01"/>
    <Variable VarIndex="5" Expression="DtktkRes_chi2cl" Label="DtktkRes_chi2cl" Title="DtktkRes_chi2cl" Unit="" Internal="DtktkRes_chi2cl" Type="F" Min="5.03450036e-02" Max="9.99150097e-01"/>
    <Variable VarIndex="6" Expression="Dalpha" Label="Dalpha" Title="Dalpha" Unit="" Internal="Dalpha" Type="F" Min="4.02642036e-04" Max="1.98835388e-01"/>
    <Variable VarIndex="7" Expression="DtktkRes_alpha" Label="DtktkRes_alpha" Title="DtktkRes_alpha" Unit="" Internal="DtktkRes_alpha" Type="F" Min="1.85141966e-04" Max="1.99973419e-01"/>
    <Variable VarIndex="8" Expression="DsvpvDistance/DsvpvDisErr" Label="DsvpvDistance/DsvpvDisErr" Title="DsvpvDistance/DsvpvDisErr" Unit="" Internal="DsvpvDistance_D_DsvpvDisErr" Type="F" Min="2.00809789e+00" Max="2.12443771e+02"/>
    <Variable VarIndex="9" Expression="DtktkRes_svpvDistance/DtktkRes_svpvDisErr" Label="DtktkRes_svpvDistance/DtktkRes_svpvDisErr" Title="DtktkRes_svpvDistance/DtktkRes_svpvDisErr" Unit="" Internal="DtktkRes_svpvDistance_D_DtktkRes_svpvDisErr" Type="F" Min="2.02267003e+00" Max="1.08082207e+02"/>
  </Variables>
  <Spectators NSpec="0"/>
  <Classes NClass="2">
    <Class Name="Signal" Index="0"/>
    <Class Name="Background" Index="1"/>
  </Classes>
  <Transformations NTransformations="1">
    <Transform Name="Normalize">
      <Selection>
        <Input NInputs="10">
          <Input Type="Variable" Label="Dtrk1Pt" Expression="Dtrk1Pt"/>
          <Input Type="Variable" Label="DRestrk1Pt" Expression="DRestrk1Pt"/>
          <Input Type="Variable" Label="DRestrk2Pt" Expression="DRestrk2Pt"/>
          <Input Type="Variable" Label="DtktkRespt" Expression="DtktkRespt"/>
          <Input Type="Variable" Label="Dchi2cl" Expression="Dchi2cl"/>
          <Input Type="Variable" Label="DtktkRes_chi2cl" Expression="DtktkRes_chi2cl"/>
          <Input Type="Variable" Label="Dalpha" Expression="Dalpha"/>
          <Input Type="Variable" Label="DtktkRes_alpha" Expression="DtktkRes_alpha"/>
          <Input Type="Variable" Label="DsvpvDistance/DsvpvDisErr" Expression="DsvpvDistance/DsvpvDisErr"/>
          <Input Type="Variable" Label="DtktkRes_svpvDistance/DtktkRes_svpvDisErr" Expression="DtktkRes_svpvDistance/DtktkRes_svpvDisErr"/>
        </Input>
        <Output NOutputs="10">
          <Output Type="Variable" Label="Dtrk1Pt" Expression="Dtrk1Pt"/>
          <Output Type="Variable" Label="DRestrk1Pt" Expression="DRestrk1Pt"/>
          <Output Type="Variable" Label="DRestrk2Pt" Expression="DRestrk2Pt"/>
          <Output Type="Variable" Label="DtktkRespt" Expression="DtktkRespt"/>
          <Output Type="Variable" Label="Dchi2cl" Expression="Dchi2cl"/>
          <Output Type="Variable" Label="DtktkRes_chi2cl" Expression="DtktkRes_chi2cl"/>
          <Output Type="Variable" Label="Dalpha" Expression="Dalpha"/>
          <Output Type="Variable" Label="DtktkRes_alpha" Expression="DtktkRes_alpha"/>
          <Output Type="Variable" Label="DsvpvDistance/DsvpvDisErr" Expression="DsvpvDistance/DsvpvDisErr"/>
          <Output Type="Variable" Label="DtktkRes_svpvDistance/DtktkRes_svpvDisErr" Expression="DtktkRes_svpvDistance/DtktkRes_svpvDisErr"/>
        </Output>
      </Selection>
      <Class ClassIndex="0">
        <Ranges>
          <Range Index="0" Min="5.0800222158432007e-01" Max="1.4864870071411133e+01"/>
          <Range Index="1" Min="8.3182638883590698e-01" Max="2.0082099914550781e+01"/>
          <Range Index="2" Min="5.6899148225784302e-01" Max="2.0676548004150391e+01"/>
          <Range Index="3" Min="8.0313959121704102e+00" Max="2.2708204269409180e+01"/>
          <Range Index="4" Min="5.0124865025281906e-02" Max="9.9983400106430054e-01"/>
          <Range Index="5" Min="5.0345003604888916e-02" Max="9.9915009737014771e-01"/>
          <Range Index="6" Min="4.0264203562401235e-04" Max="1.9883538782596588e-01"/>
          <Range Index="7" Min="1.5572828706353903e-03" Max="1.9997341930866241e-01"/>
          <Range Index="8" Min="2.0811100006103516e+00" Max="2.1244377136230469e+02"/>
          <Range Index="9" Min="2.1032063961029053e+00" Max="1.0808220672607422e+02"/>
        </Ranges>
      </Class>
      <Class ClassIndex="1">
        <Ranges>
          <Range Index="0" Min="5.1179212331771851e-01" Max="4.0402369499206543e+00"/>
          <Range Index="1" Min="1.3219029903411865e+00" Max="2.1412387847900391e+01"/>
          <Range Index="2" Min="6.5188270807266235e-01" Max="1.9763450622558594e+01"/>
          <Range Index="3" Min="1.6113882064819336e+01" Max="2.2587060928344727e+01"/>
          <Range Index="4" Min="5.0658013671636581e-02" Max="9.8450374603271484e-01"/>
          <Range Index="5" Min="5.5405173450708389e-02" Max="9.7997540235519409e-01"/>
          <Range Index="6" Min="9.0286098420619965e-03" Max="1.9145695865154266e-01"/>
          <Range Index="7" Min="1.8514196563046426e-04" Max="1.8689918518066406e-01"/>
          <Range Index="8" Min="2.0080978870391846e+00" Max="1.0365911865234375e+02"/>
          <Range Index="9" Min="2.0226700305938721e+00" Max="2.8832811355590820e+01"/>
        </Ranges>
      </Class>
      <Class ClassIndex="2">
        <Ranges>
          <Range Index="0" Min="5.0800222158432007e-01" Max="1.4864870071411133e+01"/>
          <Range Index="1" Min="8.3182638883590698e-01" Max="2.1412387847900391e+01"/>
          <Range Index="2" Min="5.6899148225784302e-01" Max="2.0676548004150391e+01"/>
          <Range Index="3" Min="8.0313959121704102e+00" Max="2.2708204269409180e+01"/>
          <Range Index="4" Min="5.0124865025281906e-02" Max="9.9983400106430054e-01"/>
          <Range Index="5" Min="5.0345003604888916e-02" Max="9.9915009737014771e-01"/>
          <Range Index="6" Min="4.0264203562401235e-04" Max="1.9883538782596588e-01"/>
          <Range Index="7" Min="1.8514196563046426e-04" Max="1.9997341930866241e-01"/>
          <Range Index="8" Min="2.0080978870391846e+00" Max="2.1244377136230469e+02"/>
          <Range Index="9" Min="2.0226700305938721e+00" Max="1.0808220672607422e+02"/>
        </Ranges>
      </Class>
    </Transform>
  </Transformations>
  <MVAPdfs/>
  <Weights>
    <Layout NLayers="3">
      <Layer Index="0" NNeurons="11">
        <Neuron NSynapses="15">
          -3.8666617644259871e-01 1.6430548887192373e+00 9.7209376804117664e-01 1.6595144613592805e+00 -2.0432319460330577e+00 -1.0310515128504065e+00 -6.7370194938341399e-01 1.9928458708851797e+00 -1.2488475487586599e+00 -5.9313585142493075e-01 -1.7561648095401829e+00 9.8283109150852888e-01 -1.4317848456756030e+00 -3.8164800051117992e-01 -7.6774093373119057e-01 
        </Neuron>
        <Neuron NSynapses="15">
          -1.1742939478026468e-01 -6.3714687671306403e-01 1.2379508153516006e+00 5.4541296163185959e-01 1.1783199906186894e+00 -5.5941822513169404e-01 -9.4537836984203394e-01 7.1265625794122789e-01 -1.9436340371644381e-01 -2.0416323573018831e+00 7.5681056138940953e-02 3.2535730090041759e-01 -7.2218398762757841e-01 -1.8256595885771358e+00 1.6316930503294957e-01 
        </Neuron>
        <Neuron NSynapses="15">
          1.0779802737021591e+00 1.4800959010739325e+00 -4.3396680269706994e-01 -1.8095178512247145e-01 2.7214707686523937e-01 1.8933392481857209e-01 -1.3161230531353312e+00 1.8772543097611099e+00 -1.2767909201600196e+00 1.0719120487485154e+00 4.7863063805201639e-01 3.9727497366247982e-01 1.8130777439929258e+00 1.3640824234644267e+00 -9.0280883430108483e-01 
        </Neuron>
        <Neuron NSynapses="15">
          -1.7655131114260725e+00 9.3775626833276704e-01 -3.5941783336748689e-02 1.5636296081073524e+00 1.4614539669412461e+00 1.3560417081880820e+00 1.1325777927291374e+00 -1.6334332890663972e+00 1.1446735681573117e+00 -2.2625144620125131e+00 -9.3239763626295147e-01 -1.9646277111018620e+00 -1.5572692307901161e+00 1.5484307750196842e+00 6.1791148311471156e-01 
        </Neuron>
        <Neuron NSynapses="15">
          -1.1070456890567573e+00 3.3874577884170792e-01 -3.1643560280640154e-01 7.4811346157385705e-01 1.8899395005438833e+00 -4.9726759289921918e-01 -3.9481871128371787e-01 -9.3640989356541249e-01 1.1532733043430474e-01 -6.4368287182332629e-01 -2.5716722372969664e-01 -6.6406636578767747e-02 1.1173393752634049e+00 9.8359184487558549e-01 1.5839658844072937e+00 
        </Neuron>
        <Neuron NSynapses="15">
          -1.5093741565805074e-01 -1.9524770467026349e+00 -1.5357432467124987e+00 6.7898500379795557e-01 6.6995239546858665e-01 1.9694750795986999e+00 2.7883819939393201e-01 1.1844239261635279e+00 -8.1232964412431286e-01 -4.1410349824496602e-02 3.7455837578085893e-01 2.9551248437734456e-01 -8.1801582076534896e-01 -1.7476525359265982e+00 -1.5598265300402114e+00 
        </Neuron>
        <Neuron NSynapses="15">
          -6.8258697685408942e-01 -2.7101160456570633e-01 9.1693149866143253e-01 -1.1667452953361237e+00 -9.6299832438646971e-01 1.6203400748762191e+00 -4.4530887246602319e-01 -1.4442928586212276e+00 -1.3109247719128871e+00 -8.6266280570471143e-01 -2.2244317627634960e+00 -9.0543145219351107e-01 1.1389367566044624e+00 1.7298507971380059e+00 -7.6319780942760407e-01 
        </Neuron>
        <Neuron NSynapses="15">
          1.6886433955409248e+00 -1.2397468546954329e+00 -9.8312658423017529e-01 1.2182359332678565e-01 1.9785221033424563e-01 -1.4679143241675912e+00 8.2366005518674545e-01 5.0822049215837906e-01 4.9324498555223989e-01 -1.6314858626491417e+00 1.3142555279491122e+00 4.1572172335922947e-01 -6.1292421963183041e-01 9.4736942214459363e-01 -1.1908699070193833e+00 
        </Neuron>
        <Neuron NSynapses="15">
          -2.0945620551089306e+00 -5.6096641371059908e-01 -9.2156975454130607e-01 2.2416618849742629e+00 5.1701321926018040e-01 4.3626575211538038e-01 -2.7670567929152573e-01 4.3926054936150788e-01 -2.0785762828107250e+00 3.5842003829716307e-01 -5.2805788627282335e-01 -1.8013901771486798e+00 1.0349767153844729e+00 -1.1459599768292359e+00 -1.3567967126255384e-01 
        </Neuron>
        <Neuron NSynapses="15">
          4.1239048642493087e-01 1.2258844293257845e+00 -2.4185699093524065e+00 8.2582194823418709e-01 1.2650934153965905e+00 1.9097656319347023e+00 9.9640908368088671e-02 -1.1815271894986137e+00 -5.6050937768813447e-01 -2.1454119008801267e+00 9.8790908258017274e-01 2.3228090292725740e+00 -1.7216213332477417e-01 -1.4192933409706496e-01 -4.3285919731832753e-02 
        </Neuron>
        <Neuron NSynapses="15">
          -8.3416741127952632e-01 1.4446787473796017e+00 2.5736871973903916e+00 -1.1106310723296675e+00 -3.3346995941288460e-01 -3.2604430070845947e-01 9.2483101278388014e-01 4.3295209003869589e-01 1.2868818934016795e+00 -5.0707164950698058e-01 2.1543774687976063e+00 2.7011441253740118e+00 2.4609547033816745e-01 2.8536839826551125e-01 1.1291206431423928e+00 
        </Neuron>
      </Layer>
      <Layer Index="1" NNeurons="16">
        <Neuron NSynapses="1">
          -1.3507606408132936e-01 
        </Neuron>
        <Neuron NSynapses="1">
          6.9912075332577039e-02 
        </Neuron>
        <Neuron NSynapses="1">
          -4.2883164451265315e-03 
        </Neuron>
        <Neuron NSynapses="1">
          -1.1568680565531118e-01 
        </Neuron>
        <Neuron NSynapses="1">
          -4.5669152032483423e-02 
        </Neuron>
        <Neuron NSynapses="1">
          -4.7042925218004711e-02 
        </Neuron>
        <Neuron NSynapses="1">
          8.3300720570683084e-01 
        </Neuron>
        <Neuron NSynapses="1">
          8.9336835270195494e-02 
        </Neuron>
        <Neuron NSynapses="1">
          1.2538926655546443e+00 
        </Neuron>
        <Neuron NSynapses="1">
          -1.1102716505373575e-01 
        </Neuron>
        <Neuron NSynapses="1">
          -2.4663664603301963e-01 
        </Neuron>
        <Neuron NSynapses="1">
          6.7343893646481279e-01 
        </Neuron>
        <Neuron NSynapses="1">
          1.4322658609974828e-01 
        </Neuron>
        <Neuron NSynapses="1">
          -4.5601500927418347e-02 
        </Neuron>
        <Neuron NSynapses="1">
          -4.4342955784591929e-02 
        </Neuron>
        <Neuron NSynapses="1">
          -1.4296593594514988e+00 
        </Neuron>
      </Layer>
      <Layer Index="2" NNeurons="1">
        <Neuron NSynapses="0"/>
      </Layer>
    </Layout>
  </Weights>
</MethodSetup>
